791 100
企业 -0.110169806 0.48784804 0.42550918 -0.034693915 0.054053918 -1.0106366 0.4502107 1.0507239 -0.44201502 0.024792135 -0.26904544 -0.7866049 -0.29643264 0.23561291 -0.011537915 -0.31676835 0.05057352 -0.736184 0.033325534 -0.96169406 0.30115592 0.3180093 -0.16394691 -0.37166613 -0.3356174 -0.14249803 -0.3836859 -0.65450597 -0.39997557 0.1500714 0.5665625 0.35916427 0.04678114 -0.32169268 -0.24712732 0.87536466 0.1231059 -0.7672143 -0.52944076 -1.1025646 0.17112641 -0.5236475 -0.19873805 0.089281835 0.6268559 -0.2262994 -0.81770974 -0.11844252 0.2578012 0.2722853 0.078358404 -0.39623475 -0.007783759 0.15386009 -0.27496824 0.4213089 0.107294604 -0.3497824 -0.7270893 0.44896907 0.32846624 0.11186035 -0.3625212 -0.42707372 -0.84236246 0.29181075 0.48335773 0.5946433 -0.6415339 0.45865867 -0.5003465 0.0011705206 0.23645298 -0.26846182 0.55588293 0.51080936 -0.08454111 -0.42889607 -0.24844675 0.2879622 -0.17780894 -0.2934017 -0.60204417 0.80784345 -0.060699526 0.065424226 0.3293199 0.7038424 0.7886103 0.121972576 0.6858393 0.29193354 -0.17903008 -0.06298713 0.82520807 0.85824424 0.3479894 -0.51684463 0.14721307 -0.15016393
万元 -0.095093034 0.35619935 0.30468994 -0.0278669 0.06510092 -0.7292891 0.3198568 0.75456136 -0.32082152 0.013096997 -0.20471947 -0.573281 -0.20684147 0.17045732 0.0036104368 -0.21906814 0.047939237 -0.52351016 0.022973971 -0.68503225 0.21722624 0.21874249 -0.10733363 -0.2798717 -0.23386581 -0.09583415 -0.27726594 -0.45763996 -0.287722 0.12049354 0.4303 0.2531896 0.022081021 -0.23467737 -0.17267238 0.63885593 0.0924641 -0.5340066 -0.370364 -0.7729889 0.14036644 -0.38679245 -0.14943065 0.06388906 0.44461384 -0.14615376 -0.5682816 -0.097933576 0.17985259 0.1899243 0.08087428 -0.29939815 -0.0050954563 0.11192867 -0.20841339 0.3172 0.09001752 -0.23051997 -0.521728 0.31730938 0.21942005 0.08459422 -0.2595964 -0.30955982 -0.5969432 0.21982263 0.35864714 0.41121987 -0.45061544 0.33862683 -0.37221822 -0.017155563 0.17932318 -0.17003487 0.38654968 0.3531116 -0.07822307 -0.30066705 -0.1751521 0.20700975 -0.14382493 -0.20137575 -0.43050545 0.5688122 -0.03981849 0.04193405 0.23173168 0.50007355 0.5713905 0.07275212 0.49672425 0.20977147 -0.1264631 -0.055732492 0.5762189 0.6149555 0.26735595 -0.36981058 0.096611775 -0.1108852
给予 -0.084954426 0.3681413 0.3054016 -0.03603889 0.06131698 -0.7408921 0.3255643 0.7777316 -0.3368023 0.025917184 -0.2140767 -0.591486 -0.20315832 0.17106894 0.006066717 -0.24130636 0.04546165 -0.54109544 0.020573843 -0.7160199 0.21442324 0.22869432 -0.12807648 -0.28736183 -0.2462319 -0.10789606 -0.2756463 -0.48125798 -0.29978898 0.119608484 0.4377995 0.26158035 0.017571174 -0.23987724 -0.19388212 0.6578959 0.08741403 -0.5626652 -0.39471775 -0.81866235 0.12958501 -0.39373368 -0.14431089 0.074682854 0.47114375 -0.15972437 -0.6016673 -0.10085784 0.18360071 0.19397323 0.07111919 -0.30302382 -0.011015518 0.10545466 -0.2234007 0.31369704 0.079173945 -0.25589725 -0.5471989 0.32059976 0.2477171 0.07947931 -0.25895154 -0.3140917 -0.6333745 0.22911353 0.37032494 0.44196382 -0.4842115 0.35059497 -0.37601203 -0.0020747753 0.18328707 -0.18557113 0.40474927 0.3866317 -0.06112974 -0.31165963 -0.18866718 0.21953882 -0.13500479 -0.22585168 -0.46210024 0.598524 -0.038725097 0.039855275 0.23623101 0.5221846 0.6011525 0.08251579 0.5087594 0.22438079 -0.12718864 -0.052250676 0.6132756 0.6426441 0.2770323 -0.38277957 0.11913856 -0.12614025
奖励 -0.08006095 0.31584415 0.26069552 -0.031620666 0.050400022 -0.63289034 0.28126976 0.6583236 -0.26992336 0.009283366 -0.1680367 -0.48706263 -0.17466223 0.13739635 0.0070961127 -0.19872947 0.043136094 -0.46849364 0.017543105 -0.58958215 0.18831433 0.19221313 -0.09418415 -0.2239388 -0.2223075 -0.08447553 -0.23242576 -0.40355963 -0.24586925 0.09940118 0.3642863 0.22132197 0.013860505 -0.20134641 -0.14934824 0.56078845 0.08365846 -0.47939575 -0.3425083 -0.6737187 0.11823843 -0.3264438 -0.11418582 0.05482115 0.39962336 -0.13615406 -0.5019681 -0.08480371 0.15163848 0.1625509 0.064205535 -0.25179338 -0.013496484 0.08549547 -0.18673822 0.2701421 0.06872088 -0.20003879 -0.4479052 0.2672997 0.20311792 0.07483471 -0.2176178 -0.26415253 -0.5216548 0.17814115 0.3039076 0.3766322 -0.4027498 0.27832416 -0.31373122 -0.008955043 0.1491682 -0.14811505 0.33988634 0.30989715 -0.06607598 -0.2552312 -0.16123311 0.18714595 -0.11893211 -0.17519188 -0.37572044 0.50584334 -0.034457386 0.035278108 0.21280959 0.45001322 0.49423712 0.059024766 0.42436716 0.1825416 -0.115713276 -0.043285638 0.5171306 0.5346893 0.233664 -0.3276614 0.09147191 -0.106058426
补助 -0.07862786 0.31208754 0.2572238 -0.032260418 0.049766082 -0.6314833 0.28320172 0.66281664 -0.28266075 0.025008747 -0.18703459 -0.49539095 -0.19159724 0.14704597 -0.005892699 -0.20448615 0.031097695 -0.46498662 0.031834293 -0.610855 0.18993805 0.18994762 -0.09704798 -0.22659628 -0.21751554 -0.08763194 -0.24226819 -0.41060436 -0.25968844 0.099786475 0.37488887 0.23139887 0.02280007 -0.21079995 -0.14672361 0.5545948 0.07106599 -0.4785588 -0.3382221 -0.6938294 0.11729598 -0.34277987 -0.1316029 0.066682205 0.40482754 -0.14793625 -0.510714 -0.08233956 0.16393127 0.16006786 0.06397654 -0.24995153 0.007753344 0.093288034 -0.18259075 0.26586202 0.05902173 -0.2234445 -0.46072546 0.27024215 0.21181668 0.06351748 -0.22516179 -0.26738432 -0.53847355 0.18504998 0.32029665 0.382468 -0.41022953 0.30187187 -0.32931024 0.00021393201 0.14955221 -0.15654477 0.35014257 0.32819563 -0.063468054 -0.25875756 -0.15091138 0.17766593 -0.12282452 -0.19422111 -0.3812931 0.5072034 -0.04123789 0.030191103 0.21394281 0.45249817 0.49298137 0.0645536 0.44121936 0.18114473 -0.1106846 -0.04709863 0.5172233 0.53428894 0.23608728 -0.31935737 0.09352672 -0.09847008
项目 -0.08180415 0.32793468 0.27798453 -0.0412886 0.033236053 -0.67093515 0.30010378 0.698821 -0.2975403 0.011969182 -0.19036591 -0.52614254 -0.20265631 0.14398637 -0.005821482 -0.21814075 0.027447307 -0.49775502 0.025120892 -0.638903 0.18704394 0.20590447 -0.10699745 -0.2411244 -0.23546858 -0.098919794 -0.25232786 -0.45139113 -0.2604523 0.10825245 0.38854855 0.23131518 0.01947956 -0.21913755 -0.16321823 0.59551966 0.083385564 -0.50282246 -0.34750295 -0.73522186 0.13079196 -0.36005253 -0.13250023 0.059702307 0.41863286 -0.15447897 -0.5419694 -0.07858101 0.16834167 0.1755154 0.059485566 -0.273966 0.0053182417 0.11139928 -0.19810545 0.28766558 0.079700656 -0.23467278 -0.491749 0.2863584 0.23055096 0.072482884 -0.22906388 -0.2863367 -0.55743766 0.19534698 0.3241462 0.39523494 -0.43272573 0.29463568 -0.33474582 0.0006359927 0.16747947 -0.16669536 0.3673235 0.34783784 -0.07181053 -0.28206602 -0.16410153 0.20193204 -0.10847704 -0.20483786 -0.40056944 0.52611315 -0.036763016 0.033624917 0.21081848 0.48306432 0.5261339 0.08045942 0.46624753 0.20384343 -0.13024192 -0.04492398 0.55366397 0.5751391 0.23625413 -0.34881452 0.10100687 -0.11225202
创业 -0.0488412 0.26383412 0.22789313 -0.022240108 0.03313458 -0.54640466 0.24821526 0.5676501 -0.24340758 0.015242089 -0.14438279 -0.42989615 -0.16132608 0.13566534 -0.007940128 -0.17292021 0.03812934 -0.397315 0.0248442 -0.5308022 0.16197957 0.170295 -0.08388863 -0.20410661 -0.18672012 -0.073884316 -0.2122505 -0.3680969 -0.21134207 0.08027097 0.31898785 0.20658241 0.018562157 -0.16830486 -0.14110653 0.48170337 0.05621908 -0.42682254 -0.2976163 -0.6108591 0.10725536 -0.2952635 -0.09424874 0.043299843 0.34548825 -0.11361921 -0.45280513 -0.08366085 0.13491315 0.14143127 0.044535376 -0.2275947 -0.010803575 0.08838131 -0.16272251 0.22428104 0.05324417 -0.1970347 -0.4045813 0.23242591 0.18254194 0.055622663 -0.18856551 -0.22925048 -0.46444464 0.16337217 0.25727317 0.31788346 -0.35696992 0.24459195 -0.27771235 0.0047401735 0.12601238 -0.13763405 0.31044453 0.27149257 -0.046222735 -0.22967301 -0.13941273 0.16939895 -0.09052448 -0.169911 -0.34019482 0.44178754 -0.030897494 0.027184952 0.18573253 0.38027105 0.42728865 0.062091414 0.3714558 0.15967335 -0.10509239 -0.03472443 0.44470894 0.46812788 0.20516053 -0.28334847 0.0773156 -0.080719374
发展 -0.058996953 0.30969328 0.27862883 -0.020300899 0.034690395 -0.6423756 0.28927663 0.66284084 -0.2853056 0.011159661 -0.1767626 -0.5030808 -0.18253368 0.1450379 -0.004206913 -0.19775784 0.036911972 -0.47122514 0.021786636 -0.6202644 0.18649818 0.20782861 -0.10959801 -0.2474527 -0.2285588 -0.08293082 -0.24872702 -0.4188515 -0.25795573 0.10797206 0.3594328 0.23492958 0.023980526 -0.20760153 -0.1594499 0.55903715 0.068761334 -0.48910925 -0.34748024 -0.70150965 0.12520388 -0.34147322 -0.12208193 0.06405094 0.41214913 -0.15107471 -0.52782166 -0.08556617 0.17050473 0.16914709 0.041983943 -0.2561868 0.0067572957 0.09026224 -0.18747716 0.28173977 0.055860076 -0.21747452 -0.4630022 0.28908494 0.22293095 0.06861788 -0.23421961 -0.25775927 -0.53721696 0.19118936 0.29884273 0.3881123 -0.40926215 0.28386122 -0.32050323 -0.0043930225 0.15658586 -0.16819435 0.3493091 0.3302964 -0.05142759 -0.27972484 -0.15582635 0.1813336 -0.11789257 -0.19129895 -0.3987648 0.51608413 -0.032032393 0.039485957 0.21263538 0.46313787 0.51647717 0.07171337 0.43993083 0.18128893 -0.12678625 -0.03365011 0.5217466 0.54685843 0.2261478 -0.33057946 0.09781503 -0.10459137
超过 -0.06610955 0.25491658 0.21443853 -0.013243663 0.04335388 -0.50019336 0.23141225 0.51734406 -0.22702055 0.018973911 -0.13867587 -0.40172783 -0.13441037 0.11040716 0.0084085725 -0.158023 0.020615421 -0.37375116 0.013027657 -0.48083806 0.15033685 0.16800664 -0.074238434 -0.1938343 -0.16586822 -0.067022204 -0.1937366 -0.33658785 -0.19620843 0.069260255 0.2984275 0.1751716 0.021483803 -0.1487701 -0.122907825 0.44778714 0.0566722 -0.37196732 -0.26165384 -0.5586598 0.087794274 -0.26203594 -0.09682796 0.043815095 0.31296253 -0.11166968 -0.40589124 -0.060487792 0.12173453 0.12788722 0.0477796 -0.20192012 -0.0009520658 0.07247979 -0.138421 0.2127738 0.056063518 -0.16803813 -0.35642976 0.2109426 0.15521827 0.050677 -0.16912183 -0.21414788 -0.43098262 0.14722568 0.24123685 0.30062106 -0.33101276 0.23406401 -0.2651824 -0.0024233172 0.12660623 -0.11887607 0.2660297 0.24728851 -0.05534111 -0.2200103 -0.13523464 0.14626117 -0.09295411 -0.15449175 -0.297428 0.40393835 -0.021406896 0.03220365 0.16226915 0.3485379 0.39502 0.060063243 0.33962113 0.14836584 -0.08872319 -0.034078628 0.41621023 0.43682024 0.18451577 -0.24891274 0.0796622 -0.08473854
鼓励 -0.046269577 0.1821842 0.15440063 -0.008235954 0.021393022 -0.39346656 0.1667041 0.40679523 -0.17106564 0.00657719 -0.10411574 -0.30559158 -0.11450034 0.09007701 -0.0049954886 -0.11238149 0.022409432 -0.29403052 0.022906225 -0.37438822 0.113633215 0.12516354 -0.0717013 -0.14565396 -0.123994045 -0.058307774 -0.15529701 -0.24702615 -0.15270405 0.054170247 0.22873606 0.14308198 0.018805454 -0.111136094 -0.10346817 0.34251955 0.046107095 -0.2890807 -0.2019636 -0.41842228 0.07389562 -0.19740583 -0.075810365 0.03167324 0.2404836 -0.0845014 -0.3152172 -0.04340742 0.10189132 0.10860007 0.03413332 -0.14569189 -0.0038062043 0.06756702 -0.1049615 0.15593106 0.035177916 -0.13504153 -0.27281952 0.16900715 0.12626582 0.05057055 -0.12819396 -0.16208997 -0.3287072 0.10593391 0.18088834 0.21566543 -0.24494676 0.17129177 -0.19183542 0.0035566 0.08686248 -0.11065739 0.21376398 0.19025755 -0.032925334 -0.169311 -0.08701244 0.115435466 -0.06384819 -0.11722273 -0.23604141 0.31595358 -0.01942373 0.01860397 0.11644682 0.2740598 0.3116334 0.050429646 0.25386426 0.1203639 -0.066735454 -0.016084287 0.32407448 0.3211813 0.1274437 -0.19001448 0.06508072 -0.05724776
政策 -0.048954338 0.25797692 0.231923 -0.03411082 0.02484549 -0.5409592 0.23272242 0.5585983 -0.23509884 0.005993449 -0.13918532 -0.4215696 -0.14745589 0.11707796 0.0010384775 -0.1597525 0.029139197 -0.39323542 0.026696624 -0.51527303 0.15138583 0.1642053 -0.083363645 -0.20264103 -0.18896447 -0.069959074 -0.20322491 -0.35523304 -0.20084253 0.08608782 0.30047393 0.19247982 0.030599631 -0.15875764 -0.12312228 0.47066283 0.06466568 -0.4064905 -0.2887542 -0.58373636 0.0954653 -0.28143272 -0.1079622 0.057361167 0.32735786 -0.12729046 -0.43516806 -0.07100332 0.12580167 0.1402904 0.0380923 -0.21231322 -0.009179383 0.08448762 -0.14813824 0.22670174 0.049000986 -0.18505654 -0.37734675 0.23809543 0.16794173 0.054469634 -0.1880112 -0.21778858 -0.4585835 0.15916635 0.24714848 0.30608127 -0.3356873 0.23527104 -0.26483378 0.0064815753 0.12208956 -0.12771788 0.29523328 0.28184316 -0.04482489 -0.23784724 -0.13617551 0.16445868 -0.08676278 -0.14897461 -0.31518936 0.43372375 -0.03771325 0.03879338 0.16770299 0.37995398 0.42760465 0.06662067 0.37130785 0.1563252 -0.0995166 -0.027187537 0.42839006 0.45543888 0.19932722 -0.27503645 0.082041994 -0.09185392
就业 -0.05378148 0.30483833 0.25489137 -0.019456524 0.037467953 -0.6164274 0.26735827 0.6373623 -0.27068606 0.014834987 -0.16232792 -0.4785433 -0.18030818 0.1378476 0.0026745966 -0.1978742 0.029057559 -0.454145 0.022206372 -0.58885634 0.17424347 0.18339059 -0.10148802 -0.23495887 -0.21805915 -0.09323955 -0.24110913 -0.39643866 -0.23233458 0.09098046 0.34393576 0.2116017 0.024097303 -0.19024466 -0.15062964 0.53482085 0.06971978 -0.46676978 -0.33229735 -0.674883 0.10080366 -0.32286784 -0.11258356 0.06378676 0.37830204 -0.13886781 -0.48621446 -0.081742324 0.15244092 0.16918094 0.052427232 -0.24928929 0.005573651 0.09999284 -0.17946099 0.25919184 0.06260602 -0.20441462 -0.4430398 0.26597166 0.20651302 0.06698258 -0.2171058 -0.25872722 -0.51881975 0.1824712 0.29980358 0.36804658 -0.3970637 0.28018472 -0.31178486 0.0074942647 0.14621271 -0.15333292 0.34110898 0.31739745 -0.06253707 -0.25560844 -0.15306805 0.17556295 -0.11148393 -0.17064004 -0.37656704 0.48546326 -0.02515008 0.036721062 0.18906984 0.42218846 0.4914339 0.07612744 0.42268822 0.17334768 -0.1238558 -0.033313327 0.50286454 0.51444143 0.21138264 -0.31213203 0.080075726 -0.099302985
人才 -0.07581894 0.32740617 0.29262275 -0.039531585 0.04725621 -0.67396486 0.29908097 0.715146 -0.28627107 0.014073047 -0.19347788 -0.53855896 -0.2072578 0.15372376 -0.009681337 -0.22150236 0.035364117 -0.4940868 0.034313858 -0.65079176 0.19453166 0.21384163 -0.11577836 -0.2449382 -0.23058034 -0.08877866 -0.2696332 -0.44020718 -0.26795277 0.112837665 0.37983137 0.24584086 0.027156841 -0.21425027 -0.17284718 0.5848682 0.06960274 -0.5257773 -0.35663754 -0.7446723 0.12168353 -0.35123956 -0.12921141 0.061342012 0.41562358 -0.16457012 -0.5389189 -0.09451552 0.16637649 0.18600613 0.06377716 -0.27912354 -0.002119708 0.09930921 -0.19002658 0.2843032 0.06694031 -0.22924875 -0.48372847 0.3062247 0.21669999 0.06889631 -0.23344727 -0.28284025 -0.574065 0.1951621 0.33850512 0.39826748 -0.44264224 0.3115352 -0.33589607 0.0018178249 0.16694364 -0.18192412 0.3738074 0.34520158 -0.05779501 -0.29842335 -0.17646693 0.20090234 -0.1286719 -0.19399814 -0.41327587 0.55501765 -0.042809162 0.04154707 0.22640175 0.4764325 0.53201795 0.08168252 0.46818316 0.1960467 -0.11716614 -0.050202597 0.55656105 0.5782006 0.25263283 -0.33833784 0.10357924 -0.09852089
工作 -0.076349445 0.3161007 0.25513744 -0.031771496 0.03429339 -0.6328876 0.26873076 0.64294577 -0.27640304 0.018124709 -0.17914453 -0.48880857 -0.1944664 0.14024568 0.0045225765 -0.189175 0.039590303 -0.45946127 0.027195223 -0.60283196 0.18959391 0.20046453 -0.10031488 -0.22826906 -0.20643538 -0.0790332 -0.24991496 -0.4233192 -0.24317957 0.10187107 0.36659342 0.23142618 0.030348876 -0.20451164 -0.14815871 0.54584473 0.062978916 -0.47113436 -0.33206293 -0.6917403 0.11146164 -0.33566377 -0.113325566 0.06152854 0.39094406 -0.15012349 -0.51369727 -0.082395636 0.16509011 0.1623873 0.051132422 -0.2505108 -0.008418951 0.10109934 -0.17863229 0.27050534 0.071038134 -0.21780777 -0.45836014 0.2835772 0.21367806 0.07524246 -0.21969563 -0.253104 -0.5213221 0.18002304 0.31043813 0.37391266 -0.39394042 0.28246504 -0.31780985 -0.0059978412 0.13827948 -0.16022262 0.35598114 0.32936993 -0.061461587 -0.2654021 -0.15071653 0.1807677 -0.108168185 -0.19422846 -0.37253356 0.50853586 -0.030042099 0.043424413 0.21142432 0.4500849 0.4953457 0.06605155 0.43790492 0.19008286 -0.113599904 -0.041466795 0.5034452 0.53192574 0.23352323 -0.32089686 0.08327315 -0.08707538
1 -0.04873928 0.26409554 0.21777898 -0.03272551 0.042673644 -0.5237711 0.23471878 0.5430445 -0.21691184 0.005980289 -0.13534133 -0.4182303 -0.15574437 0.10950757 -0.007489491 -0.15558875 0.036583103 -0.3859323 0.026338857 -0.49657893 0.16068974 0.17057979 -0.08807057 -0.19631453 -0.18411344 -0.06709946 -0.19526981 -0.3425568 -0.1937266 0.07545127 0.28774244 0.18459606 0.018334314 -0.17049891 -0.13246216 0.44653934 0.07057196 -0.38780525 -0.27529937 -0.5606955 0.1026414 -0.27416244 -0.092129774 0.051320683 0.33069697 -0.10793331 -0.42628297 -0.071323134 0.13003485 0.13940768 0.048211984 -0.20336701 0.0021632584 0.072038256 -0.15198827 0.21447095 0.064221136 -0.17096959 -0.3734011 0.23191203 0.16332284 0.050896656 -0.18339607 -0.2111695 -0.4318169 0.15725873 0.24872696 0.30153054 -0.3314014 0.23235476 -0.27031794 -0.011496618 0.12925869 -0.13366328 0.2823307 0.2549967 -0.04017282 -0.22031167 -0.1276796 0.1555973 -0.10064118 -0.15219729 -0.31200364 0.40656158 -0.022994475 0.03595706 0.17385226 0.3718583 0.40870246 0.052644193 0.36332732 0.15326303 -0.09065443 -0.02546483 0.42314547 0.43666396 0.18798774 -0.25421813 0.06873979 -0.07186605
年 -0.07210713 0.29947782 0.25469962 -0.017883945 0.033416 -0.6074366 0.2603485 0.62788755 -0.26652178 0.027483819 -0.17084311 -0.48306715 -0.17834394 0.14415981 -0.008450091 -0.19346978 0.023701021 -0.43439096 0.030559702 -0.5674739 0.1720201 0.19675773 -0.10972312 -0.22498843 -0.20946105 -0.084524415 -0.22919112 -0.38481715 -0.23281133 0.082717694 0.3385865 0.209987 0.024197405 -0.17793234 -0.15254529 0.5345626 0.07985981 -0.46577305 -0.32803324 -0.64838076 0.11902037 -0.32152012 -0.121545866 0.063686304 0.38091108 -0.124488145 -0.4956958 -0.089161925 0.1507972 0.14627501 0.045960583 -0.24506003 0.008240306 0.10310375 -0.17676231 0.2619562 0.07041666 -0.20710175 -0.42218038 0.27280304 0.20046097 0.062036242 -0.22166592 -0.2542564 -0.4971789 0.16809596 0.28819755 0.36421302 -0.37948045 0.27739888 -0.31546807 -0.00633823 0.14820601 -0.15884802 0.33785638 0.3159083 -0.058652084 -0.25784776 -0.14955474 0.17211819 -0.11660636 -0.18137375 -0.36689007 0.4853716 -0.03934673 0.045137003 0.18616924 0.41522247 0.485492 0.078401655 0.40824836 0.17934416 -0.11731279 -0.046118535 0.4830654 0.51993376 0.22397356 -0.29493216 0.09437759 -0.08601063
排放 -0.06477221 0.312575 0.28241187 -0.033067033 0.050066866 -0.64837795 0.27921426 0.68728375 -0.2751388 0.02107615 -0.18947251 -0.5318697 -0.20402724 0.16804785 -0.019435281 -0.19191624 0.02308952 -0.49312684 0.03269098 -0.6313932 0.19878176 0.21969898 -0.115122415 -0.24005431 -0.23091926 -0.08266217 -0.24048795 -0.45407838 -0.26223198 0.10299662 0.37717396 0.23008744 0.02260852 -0.22170578 -0.1612014 0.5871078 0.085337326 -0.5092475 -0.36161688 -0.7276991 0.12358149 -0.35536227 -0.133807 0.06374917 0.42265588 -0.14484954 -0.55082256 -0.09315004 0.17428553 0.17757018 0.043154527 -0.27348396 0.0014424467 0.11089085 -0.17940839 0.28809077 0.06985854 -0.24138334 -0.48651612 0.2869389 0.22923525 0.078488335 -0.2352331 -0.26836473 -0.5567712 0.19346265 0.3051975 0.39261028 -0.4140215 0.3011352 -0.319945 0.012312656 0.15160087 -0.17263088 0.36463258 0.3206721 -0.051918883 -0.30451757 -0.14816432 0.1836689 -0.1094739 -0.21603845 -0.41092995 0.51718587 -0.04115796 0.03357312 0.2054936 0.45561096 0.5134937 0.07337709 0.4589673 0.19596522 -0.10957039 -0.03453638 0.5236194 0.57382745 0.22320057 -0.33345842 0.082516514 -0.097717315
科技 -0.06485271 0.31301472 0.26330903 -0.03749784 0.046666123 -0.6318099 0.286009 0.6529968 -0.27723694 0.013621811 -0.17510629 -0.49693865 -0.17338598 0.1423432 0.0052422583 -0.20702477 0.03285514 -0.459903 0.03366782 -0.60772204 0.19114028 0.18720764 -0.11557186 -0.23853509 -0.21626706 -0.093647376 -0.24443467 -0.4236963 -0.2439017 0.09395263 0.3539936 0.22900224 0.013685429 -0.19985694 -0.14702468 0.55517596 0.060326092 -0.46888545 -0.3237714 -0.68997186 0.12351765 -0.3390835 -0.1072584 0.06353083 0.39366415 -0.14757349 -0.5100363 -0.08412576 0.16089253 0.16896239 0.057577655 -0.23823471 0.007496439 0.093187265 -0.16535586 0.26552933 0.07060568 -0.20956373 -0.4543789 0.27979535 0.2041503 0.06280222 -0.23058584 -0.25822213 -0.5188567 0.17949726 0.3040177 0.37303284 -0.38751704 0.2762502 -0.31052193 -0.012605597 0.15384191 -0.15292545 0.35269144 0.32654566 -0.049690526 -0.26125968 -0.14692537 0.19489327 -0.11260087 -0.1768052 -0.37584156 0.5000245 -0.025017781 0.0464576 0.21193852 0.44600666 0.5044893 0.07442655 0.43659863 0.18613191 -0.10930717 -0.043017745 0.51809096 0.5402326 0.22113845 -0.31922987 0.094569094 -0.10505815
补贴 -0.033755094 0.18680365 0.16002354 -0.013962197 0.03457754 -0.40665048 0.18098034 0.4267425 -0.18304467 0.0072525577 -0.11654646 -0.31947076 -0.1137584 0.10281764 0.0051359977 -0.12665252 0.023249265 -0.2880403 0.02685618 -0.375846 0.1252468 0.11810767 -0.07076897 -0.15568435 -0.1290742 -0.058213416 -0.16232197 -0.25540227 -0.14690533 0.056196522 0.2417758 0.14408968 0.007729095 -0.126326 -0.096434355 0.34957927 0.0475332 -0.29809228 -0.20483546 -0.45091137 0.07013918 -0.2188348 -0.06855019 0.04366669 0.24635588 -0.08595596 -0.33264565 -0.05294916 0.11233539 0.10235958 0.03043796 -0.16836207 -0.004272746 0.062065307 -0.10903543 0.18098438 0.0383671 -0.13420895 -0.27915964 0.17791708 0.13364229 0.054041494 -0.13314591 -0.16154419 -0.34268486 0.12612452 0.20102762 0.24480438 -0.2597281 0.18706803 -0.19756994 -0.007818974 0.10189538 -0.09986425 0.23010123 0.20063366 -0.04093012 -0.16355819 -0.110107005 0.11210689 -0.08086554 -0.12022026 -0.24722306 0.32848826 -0.012919856 0.024656748 0.13024251 0.2872116 0.31601343 0.03575981 0.2830445 0.112769864 -0.06853885 -0.015552086 0.32922852 0.3456603 0.15005717 -0.20679727 0.062095784 -0.06330045
认定 -0.052169334 0.2677027 0.22497925 -0.017400943 0.025264721 -0.5279391 0.24632911 0.5513453 -0.23117732 0.0095890695 -0.14610234 -0.41615555 -0.14585756 0.12439589 -0.00043764125 -0.16559817 0.0354998 -0.3996241 0.01581605 -0.5116925 0.15395486 0.172092 -0.099063754 -0.20265818 -0.19061857 -0.06864609 -0.20601718 -0.360245 -0.20481665 0.09173808 0.30330902 0.18489595 0.023539657 -0.16945694 -0.1423429 0.47692424 0.05495692 -0.41197747 -0.2858613 -0.59121543 0.09882629 -0.27295402 -0.09689571 0.05792039 0.33342668 -0.11866343 -0.43538636 -0.07954419 0.13946776 0.14283687 0.035779033 -0.21837461 -0.013825501 0.07555655 -0.1474724 0.23643127 0.060174663 -0.17943713 -0.3785596 0.23286878 0.17568442 0.049421083 -0.19084826 -0.22601472 -0.4490925 0.16244383 0.2502877 0.30833596 -0.34800997 0.2398168 -0.27316654 -0.0015071748 0.12949221 -0.14357634 0.28991318 0.27196294 -0.04408094 -0.22207795 -0.13527207 0.15407704 -0.10042858 -0.15836306 -0.32261232 0.4292143 -0.021061776 0.03049932 0.17178866 0.3714268 0.42155677 0.053160757 0.36535412 0.15576373 -0.10639456 -0.024445515 0.4246332 0.44583225 0.1827633 -0.26467672 0.08398798 -0.074667126
服务 -0.06580053 0.31365216 0.26504275 -0.018186968 0.041968167 -0.6388133 0.28140256 0.66723114 -0.27352858 0.01831952 -0.17202565 -0.5060568 -0.18283896 0.15158172 -0.00046237398 -0.20910895 0.027897881 -0.46994978 0.02070073 -0.6115109 0.18928541 0.20463789 -0.11868985 -0.22995774 -0.22204007 -0.0960249 -0.24198897 -0.4281677 -0.25841534 0.092038065 0.3657625 0.22044168 0.02417776 -0.19851291 -0.16086246 0.56602955 0.07533607 -0.4804543 -0.33960637 -0.7027029 0.118344545 -0.34287253 -0.12984408 0.06624917 0.39998752 -0.15486996 -0.5259174 -0.08828974 0.1672593 0.1758824 0.05896517 -0.26319742 -0.0015709904 0.0963956 -0.1867401 0.28213027 0.07032234 -0.22381899 -0.47386518 0.27688885 0.21367346 0.08099057 -0.22316596 -0.27849984 -0.55001 0.19299452 0.30642188 0.37406668 -0.40332863 0.28830457 -0.3170911 -0.0037340447 0.14480409 -0.16744183 0.36191285 0.3370634 -0.056798093 -0.27140823 -0.16305982 0.19039945 -0.11896065 -0.189041 -0.39121354 0.5114943 -0.04144953 0.050363835 0.20922337 0.45168018 0.5051992 0.08243634 0.43204176 0.18917195 -0.11827669 -0.030511469 0.5303364 0.54495996 0.23359597 -0.32876828 0.08212417 -0.10400575
实施 -0.052108236 0.25092393 0.21952116 -0.013550178 0.022693226 -0.49400178 0.21550676 0.519761 -0.2176576 0.022062587 -0.13334657 -0.38721514 -0.13741152 0.11569613 -0.00868936 -0.16241357 0.030511782 -0.3723283 0.018754378 -0.4723758 0.14319462 0.15014932 -0.08945504 -0.18609776 -0.16852231 -0.06466659 -0.19643845 -0.32849732 -0.18737143 0.07787468 0.29059896 0.17517428 0.024944065 -0.16467628 -0.11823365 0.4271802 0.055492982 -0.38994837 -0.2657668 -0.55335623 0.08743801 -0.26285443 -0.090479486 0.045757554 0.30600476 -0.11932775 -0.40410885 -0.068044096 0.11588304 0.131411 0.04741921 -0.19247009 -0.011840174 0.0801455 -0.14731029 0.2038412 0.05170791 -0.17128074 -0.36904007 0.21395811 0.16422243 0.062719226 -0.18644282 -0.19971627 -0.4216639 0.1448116 0.2510483 0.30052328 -0.32188207 0.22975935 -0.24860874 0.003170343 0.11903546 -0.13467991 0.277757 0.24949081 -0.045377303 -0.2091979 -0.11753151 0.15812457 -0.09376692 -0.15424043 -0.29796633 0.40200675 -0.032918528 0.034285408 0.16411076 0.35067382 0.39118284 0.0636766 0.3511801 0.1387731 -0.092423536 -0.033347078 0.40163058 0.425284 0.17280295 -0.24431667 0.06790718 -0.07510611
5 -0.043320738 0.18897468 0.15937555 -0.008456048 0.030437151 -0.3863355 0.16673505 0.39605018 -0.17117324 0.0019510655 -0.1151278 -0.3048785 -0.09954059 0.0899572 0.007991386 -0.11323491 0.015791083 -0.27754208 0.022985118 -0.35885727 0.11739462 0.12482913 -0.07077697 -0.13287683 -0.119661495 -0.043204222 -0.15319724 -0.23698585 -0.14254877 0.058094643 0.21375282 0.14210162 0.00562834 -0.12622766 -0.0897496 0.3428401 0.054099295 -0.29006633 -0.21044773 -0.4029758 0.07510906 -0.20434728 -0.081716344 0.028602693 0.23322263 -0.087053694 -0.30482122 -0.049707394 0.09036859 0.09328706 0.048312116 -0.15801209 -0.009088688 0.065281816 -0.10733694 0.17122433 0.036698565 -0.13312109 -0.27282456 0.16175777 0.11162781 0.040554605 -0.1325389 -0.15430641 -0.3108759 0.116987914 0.1801282 0.22022635 -0.2462013 0.18145803 -0.20089823 -0.00064585195 0.09015119 -0.10114984 0.19855185 0.1946078 -0.045741323 -0.1570799 -0.092724845 0.11950231 -0.078220665 -0.10417314 -0.22022757 0.2972104 -0.024118198 0.028595865 0.12784642 0.27052045 0.30803704 0.041921508 0.26365593 0.10950534 -0.07754837 -0.020688059 0.30886653 0.3143701 0.1387232 -0.19383898 0.05748748 -0.053099964
监测 -0.056365248 0.25012365 0.22733365 -0.034458656 0.021658866 -0.52100676 0.21794924 0.5427411 -0.22040813 0.015195302 -0.15284328 -0.41605046 -0.15663195 0.12787306 0.0029737276 -0.15716536 0.037179332 -0.4006191 0.036289632 -0.49679467 0.1622338 0.16886942 -0.087594956 -0.20637469 -0.19152865 -0.06460869 -0.20148681 -0.34967634 -0.19589438 0.08052563 0.30773503 0.18737584 0.007173322 -0.17394406 -0.13028967 0.45242918 0.07114128 -0.3973208 -0.28850085 -0.56254697 0.10696905 -0.2706825 -0.09294844 0.035954323 0.32868922 -0.12799104 -0.4323429 -0.068934545 0.13219972 0.14037868 0.045375973 -0.20618394 0.0050867544 0.09172102 -0.1515477 0.23293123 0.06504388 -0.17169245 -0.37529844 0.22507608 0.17343426 0.05883893 -0.18922573 -0.20560694 -0.4415708 0.15528473 0.25473896 0.29704797 -0.32703662 0.24535638 -0.26319233 0.0024361748 0.11388071 -0.14193685 0.29942 0.2630281 -0.04334705 -0.23036076 -0.12949957 0.15778917 -0.093774214 -0.16312487 -0.31476277 0.42528996 -0.028529547 0.027526794 0.1618409 0.37926278 0.40455377 0.06996829 0.36311764 0.14426307 -0.100372255 -0.042100932 0.41738373 0.45745263 0.1974798 -0.26069647 0.07272018 -0.069334835
服务业 -0.0660272 0.2771816 0.24194582 -0.03278877 0.023898367 -0.5775782 0.2610008 0.5958148 -0.25217685 0.008456031 -0.15403353 -0.44283745 -0.16820082 0.13324046 -0.008042512 -0.1725522 0.02993453 -0.40838924 0.014639637 -0.54603165 0.1566608 0.17636225 -0.10610349 -0.20469782 -0.20193163 -0.086261086 -0.21039627 -0.38560465 -0.22110088 0.07911752 0.33427438 0.21428373 0.023455614 -0.17177026 -0.13514619 0.49062452 0.07557513 -0.44246957 -0.29365128 -0.6193067 0.09951652 -0.30316782 -0.09757369 0.046898663 0.36536098 -0.13516003 -0.45051932 -0.07438695 0.15291068 0.1461008 0.051848717 -0.21681611 0.0009307375 0.089620955 -0.15548846 0.24981204 0.066173226 -0.18639314 -0.40364683 0.2591387 0.19994219 0.06368596 -0.20505783 -0.23348215 -0.4766518 0.16342366 0.26359957 0.32398245 -0.36345935 0.26655322 -0.2894563 -0.011103016 0.1391358 -0.14773627 0.31582022 0.2950774 -0.049264558 -0.23826706 -0.13795356 0.16853409 -0.08932147 -0.16767417 -0.34991595 0.46077335 -0.026563408 0.03914292 0.18146493 0.40576774 0.4569301 0.07260257 0.38813296 0.15601392 -0.102671154 -0.03517584 0.4667922 0.47512272 0.2128835 -0.29536137 0.08863974 -0.09808116
计划 -0.052671675 0.28625822 0.23854537 -0.031924434 0.035273958 -0.57227695 0.24640365 0.602053 -0.24721013 0.02018505 -0.16470803 -0.43803054 -0.1678107 0.13216552 -0.012716842 -0.17610252 0.033964265 -0.41022074 0.015419726 -0.5539755 0.16173354 0.17341052 -0.10980841 -0.22336328 -0.19597438 -0.08342344 -0.23084867 -0.38442397 -0.22325864 0.093893155 0.32751283 0.20448986 0.012510344 -0.1880417 -0.14111358 0.507061 0.0700221 -0.43633717 -0.29790345 -0.63746756 0.104702406 -0.30725598 -0.097905055 0.050857503 0.35364822 -0.14100684 -0.46238166 -0.08071931 0.14422494 0.14826804 0.044700306 -0.23162092 -0.010458289 0.08620139 -0.15794057 0.23896222 0.051315308 -0.19692692 -0.4244105 0.2532672 0.19798185 0.05936189 -0.19900712 -0.23195839 -0.47057012 0.16885178 0.28714556 0.3265362 -0.37071863 0.25275114 -0.293658 -0.01403215 0.13049322 -0.15234183 0.31723407 0.2886322 -0.061555304 -0.23962468 -0.13917348 0.17480847 -0.08957956 -0.16224265 -0.3502181 0.4620868 -0.035740778 0.040081818 0.18994638 0.41667205 0.44774094 0.07028201 0.38464963 0.16472001 -0.0953569 -0.039908145 0.46644413 0.476588 0.19418278 -0.28084344 0.0789325 -0.0854742
10 -0.051440753 0.17919599 0.1454454 -0.011455499 0.03775582 -0.36730304 0.17340086 0.38500214 -0.17535342 0.018446254 -0.11432612 -0.2852677 -0.098185316 0.08332545 -0.008496722 -0.11855487 0.029420793 -0.28420323 0.015599769 -0.36126944 0.12191605 0.11323097 -0.04814291 -0.14444329 -0.13500397 -0.05869675 -0.14588511 -0.23145415 -0.14859872 0.0694813 0.22150707 0.13767843 0.014541417 -0.11211265 -0.09413147 0.33842763 0.03657419 -0.2763444 -0.19954507 -0.40284905 0.07518918 -0.1990972 -0.075412594 0.03140099 0.2329736 -0.0855306 -0.29225716 -0.05699296 0.09930631 0.09741371 0.043443058 -0.14641228 -0.0022985642 0.05847549 -0.11169187 0.16664274 0.04235128 -0.12599161 -0.2774449 0.14775644 0.11743841 0.03586243 -0.1349114 -0.16313787 -0.3213047 0.113806516 0.18749422 0.21535856 -0.24468951 0.1766593 -0.19184163 -0.008917267 0.0890591 -0.09191228 0.19788238 0.17278717 -0.029718855 -0.14920193 -0.09602657 0.11609185 -0.06990766 -0.09638375 -0.22684851 0.30687472 -0.019831691 0.014873166 0.11650119 0.27526775 0.29485103 0.03880866 0.26703903 0.10325254 -0.06988314 -0.033639252 0.2909948 0.3081396 0.14133257 -0.18705614 0.062045503 -0.058777627
超低 -0.050852243 0.27560532 0.22759031 -0.022918308 0.044931475 -0.5344856 0.23982604 0.55130166 -0.2196291 0.023260709 -0.14666967 -0.44614574 -0.1607597 0.13361466 -0.014616447 -0.17542492 0.036300696 -0.41814777 0.024506254 -0.5035152 0.14752758 0.18568577 -0.097615466 -0.19782695 -0.19605261 -0.08360062 -0.215869 -0.36737195 -0.22029182 0.08351079 0.3182583 0.18453465 0.009855557 -0.18379234 -0.14506201 0.4729388 0.064752944 -0.40931803 -0.28257397 -0.60049206 0.093636386 -0.28950068 -0.11530978 0.041667562 0.33688727 -0.11853714 -0.45951682 -0.07058437 0.1377819 0.14891052 0.03836223 -0.22956952 0.006360684 0.08209061 -0.1442078 0.23952104 0.074194215 -0.19090566 -0.39796734 0.24324091 0.17708142 0.052390337 -0.19339457 -0.22835244 -0.46588168 0.15389262 0.24750572 0.3182642 -0.35039935 0.2418805 -0.26725712 0.00916346 0.13059047 -0.14872283 0.2938737 0.26457775 -0.060764205 -0.25285938 -0.13125923 0.14585495 -0.09729529 -0.17402267 -0.32476458 0.4380886 -0.014782498 0.016158562 0.1710757 0.38082048 0.43920332 0.06641845 0.37408948 0.15780321 -0.096522816 -0.048143033 0.4430764 0.4743473 0.2011424 -0.26747933 0.06505888 -0.09024168
管理 -0.04930502 0.26147914 0.21451952 -0.020013928 0.026425686 -0.53122264 0.24364933 0.55351907 -0.23219647 0.021501433 -0.1515201 -0.4234015 -0.14861096 0.13382544 -0.01272758 -0.16140184 0.03642381 -0.3986514 0.02561398 -0.5156836 0.16701373 0.16758773 -0.08793097 -0.19186607 -0.17920028 -0.083688736 -0.20827284 -0.35645434 -0.2082477 0.08468386 0.31708804 0.1975403 0.029032992 -0.17887346 -0.13754424 0.47278455 0.06404078 -0.4104776 -0.29077652 -0.5947526 0.08891177 -0.27342328 -0.0963556 0.04226582 0.3403284 -0.11815494 -0.4423228 -0.07486964 0.13843016 0.15228614 0.033348728 -0.21465494 -0.008171234 0.08205793 -0.14825818 0.22461158 0.052011605 -0.18323472 -0.3963467 0.24614368 0.18413645 0.05055212 -0.19444405 -0.22037122 -0.460692 0.14708924 0.250863 0.31166872 -0.33271646 0.25188562 -0.26679388 -0.012952856 0.13338248 -0.13684872 0.29690853 0.2652646 -0.052363273 -0.23084354 -0.13992433 0.1620925 -0.09281191 -0.16854532 -0.3365324 0.43759355 -0.037442595 0.028583204 0.17965661 0.37988263 0.422269 0.05741137 0.36643162 0.16150829 -0.104966305 -0.037946243 0.43349814 0.4541029 0.18402846 -0.28390077 0.08677908 -0.075734064
3 -0.05178097 0.20343046 0.18082933 -0.023473771 0.03987007 -0.43266714 0.18640833 0.44870743 -0.20009372 0.015140001 -0.12553786 -0.3455901 -0.119107164 0.107097335 0.003350656 -0.14379464 0.029312525 -0.3310223 0.011616523 -0.42076778 0.12652232 0.13836983 -0.07761798 -0.16085249 -0.1378363 -0.0533783 -0.16617003 -0.27428567 -0.16765803 0.064932786 0.24485195 0.163421 0.004752756 -0.13943833 -0.09795699 0.3793797 0.052963432 -0.33724165 -0.22530827 -0.46807685 0.06977639 -0.23358215 -0.075115144 0.04250066 0.2714988 -0.095093735 -0.36212146 -0.046552524 0.107278325 0.107965894 0.04236183 -0.1736691 -0.007831919 0.07403049 -0.12683487 0.17948589 0.05265589 -0.14023122 -0.30372423 0.19059373 0.14274877 0.03977062 -0.15029338 -0.17289181 -0.36469302 0.12454837 0.20780544 0.25439727 -0.28579682 0.20404719 -0.22025193 0.00593472 0.09681435 -0.11639698 0.23152278 0.21177652 -0.03933517 -0.17942835 -0.10624038 0.13234136 -0.088599965 -0.12968233 -0.27198035 0.35176054 -0.026206983 0.037066318 0.13628638 0.31486186 0.34812248 0.050454427 0.29789823 0.1352363 -0.07707275 -0.018386759 0.35624188 0.37635154 0.16238238 -0.22835399 0.05678114 -0.066907756
支持 -0.045686416 0.2153192 0.18421195 -0.0114220735 0.021792203 -0.43533084 0.19995585 0.45456138 -0.18554546 0.016518747 -0.11994373 -0.35060373 -0.12423385 0.09151092 -0.004674107 -0.1458585 0.02071438 -0.32769257 0.027039135 -0.41976237 0.13778527 0.12651336 -0.079668134 -0.15960515 -0.1519983 -0.05954998 -0.16947442 -0.28908616 -0.17555198 0.055964366 0.25430557 0.15669401 0.022985745 -0.14370054 -0.1023086 0.36964217 0.05855852 -0.3261768 -0.23717628 -0.46806362 0.0736328 -0.23860186 -0.0798933 0.044451248 0.26463136 -0.10691304 -0.34322488 -0.05537737 0.11108043 0.11737719 0.031630524 -0.17151713 -0.00025828325 0.07649774 -0.12886311 0.18797036 0.05033764 -0.1556683 -0.32339466 0.20203896 0.15247881 0.044268277 -0.14984521 -0.18032517 -0.37097737 0.122762516 0.20429419 0.26262957 -0.2747615 0.18876298 -0.21988922 -0.0050867177 0.10943407 -0.115610026 0.24896482 0.2247823 -0.04414563 -0.17910805 -0.10357148 0.12511007 -0.08199381 -0.13309807 -0.26942688 0.3514982 -0.03246302 0.022174874 0.14317013 0.3068398 0.3508819 0.046295486 0.2968811 0.12889954 -0.07536944 -0.02559142 0.36511713 0.37470067 0.14859158 -0.22258721 0.05453209 -0.073860876
单位 -0.059564076 0.24450412 0.22735487 -0.021626271 0.032164797 -0.5288758 0.22167064 0.53150964 -0.21813023 0.012893204 -0.14039567 -0.41450882 -0.14020781 0.1235535 -0.00029914803 -0.16960931 0.028087158 -0.38676366 0.028719801 -0.49078405 0.15544346 0.16567676 -0.08380623 -0.2008091 -0.16793542 -0.07143418 -0.20527956 -0.33367744 -0.20556691 0.087911084 0.2978657 0.19505692 0.021777323 -0.16942954 -0.13226286 0.46702558 0.061337303 -0.4030083 -0.27635178 -0.5733476 0.09579644 -0.28360653 -0.09124608 0.04953393 0.3338827 -0.11140559 -0.42702094 -0.06487298 0.13166608 0.12681203 0.053993694 -0.19992651 0.007917415 0.07534217 -0.15692891 0.22722018 0.047852088 -0.1685233 -0.3743538 0.2350038 0.17879863 0.057752155 -0.18951821 -0.21858107 -0.42764288 0.14417902 0.25054002 0.30437803 -0.32819194 0.24546887 -0.26913843 -0.0010439073 0.11939785 -0.13062748 0.2953085 0.26903775 -0.05390616 -0.22491562 -0.12147067 0.16540311 -0.08831789 -0.15665634 -0.3187532 0.41073626 -0.032572865 0.03640787 0.16109413 0.36213252 0.42125398 0.06783184 0.36719415 0.1528287 -0.10491024 -0.040686168 0.42547622 0.43444055 0.17972468 -0.26378056 0.07251951 -0.09227813
相关 -0.04998104 0.24749124 0.21186754 -0.026072783 0.033847246 -0.5293273 0.2284956 0.55550945 -0.22158967 0.008250129 -0.13488989 -0.40608168 -0.1625252 0.12060685 0.0016782685 -0.15916531 0.021649309 -0.39462993 0.026403897 -0.51251304 0.14787193 0.16149288 -0.08713836 -0.20337455 -0.17420949 -0.07663253 -0.20063983 -0.34451053 -0.20393963 0.087328345 0.300339 0.18076709 0.028395275 -0.17046815 -0.12356986 0.4571596 0.052807845 -0.40892923 -0.27280435 -0.5797704 0.09857029 -0.28766927 -0.102149874 0.04420501 0.33993992 -0.12877291 -0.42266077 -0.06822823 0.13458903 0.14957136 0.039456412 -0.21753547 -0.00036237595 0.08906419 -0.13900322 0.22081003 0.057441186 -0.17413136 -0.38914967 0.24069552 0.16936007 0.061009444 -0.18251422 -0.21432516 -0.44829053 0.1535302 0.26254457 0.32073465 -0.3444292 0.24431476 -0.2593931 -0.0061771995 0.13514954 -0.14202341 0.28963277 0.26210874 -0.05269394 -0.22601326 -0.13353693 0.15212354 -0.08357321 -0.16368434 -0.32818142 0.43076837 -0.018370202 0.038401764 0.17095408 0.37367404 0.41457468 0.06868973 0.35390773 0.1546908 -0.09304501 -0.035248123 0.43162134 0.4532751 0.19750762 -0.2656857 0.08745422 -0.08870625
经济 -0.051968597 0.25614825 0.21827939 -0.022569327 0.028301787 -0.5395113 0.24069963 0.5620647 -0.23899391 0.0058310283 -0.14937228 -0.40778565 -0.16517426 0.13271068 -0.0034268028 -0.16359265 0.023682727 -0.39744782 0.025996745 -0.5005002 0.14752635 0.16358705 -0.091429494 -0.19323353 -0.17492488 -0.07745715 -0.1944259 -0.3584398 -0.21030812 0.091411635 0.3092823 0.18285553 0.019346852 -0.17597178 -0.13037713 0.47119308 0.053724833 -0.39690143 -0.27521434 -0.5877821 0.085421175 -0.28441623 -0.10319205 0.05500107 0.342721 -0.11753919 -0.43365902 -0.065313645 0.12555496 0.1375802 0.041410353 -0.20071478 -0.008455366 0.07333484 -0.1484599 0.22943729 0.04619097 -0.1888997 -0.38552475 0.23125052 0.1674545 0.05418602 -0.19350007 -0.21335877 -0.44592953 0.15647227 0.25684708 0.3098781 -0.33562452 0.24130869 -0.26227027 -0.0044703563 0.11683605 -0.13767481 0.30376256 0.26622394 -0.055080503 -0.22985566 -0.121840276 0.15669905 -0.083060436 -0.16642004 -0.31321225 0.41564134 -0.01834412 0.0361921 0.17421456 0.37021226 0.4312976 0.0672926 0.35747457 0.14382705 -0.09157619 -0.03784503 0.42424944 0.45622903 0.18315355 -0.27810213 0.08875224 -0.084211916
技术 -0.07329304 0.3196798 0.2738786 -0.035300493 0.03505002 -0.66663706 0.281894 0.69860494 -0.27835095 0.01576306 -0.18143485 -0.5308073 -0.18744147 0.16328888 -0.004850078 -0.21500193 0.030113433 -0.48595557 0.026002094 -0.6250713 0.20392095 0.2136061 -0.12007354 -0.2411611 -0.2304545 -0.099631146 -0.2455542 -0.4501731 -0.26043105 0.09965926 0.36900958 0.23638281 0.029775882 -0.21535987 -0.17152591 0.5885756 0.07384096 -0.5140296 -0.35220465 -0.7261148 0.12933405 -0.3489341 -0.11833039 0.04835075 0.4191916 -0.14397714 -0.5375258 -0.088656634 0.16945171 0.17423438 0.046151705 -0.27256784 -0.00047121765 0.10178564 -0.17690556 0.28175527 0.07838949 -0.22542235 -0.47174945 0.28179008 0.22366421 0.072042786 -0.23461293 -0.27703992 -0.56448305 0.20106207 0.3155271 0.39002296 -0.4280043 0.30529726 -0.32208934 -0.0024052449 0.1627415 -0.1726851 0.3750735 0.3472107 -0.063487604 -0.28989637 -0.17132531 0.20544627 -0.117745586 -0.19596769 -0.40426677 0.5397548 -0.026162809 0.04111761 0.21758577 0.47463456 0.52607375 0.08584111 0.45416582 0.1902822 -0.11558802 -0.045076314 0.53603834 0.576375 0.22790162 -0.34014705 0.090828754 -0.09664122
2 -0.03954166 0.2051619 0.18524846 -0.020793699 0.019732056 -0.4334584 0.18779859 0.4430701 -0.18880558 0.0078810025 -0.11487284 -0.32929832 -0.12554482 0.102675155 -0.0030306021 -0.13614684 0.016116457 -0.31769398 0.022851119 -0.40203154 0.134551 0.13922751 -0.06785621 -0.16843951 -0.14814295 -0.06568355 -0.15729749 -0.2742789 -0.1737065 0.06913014 0.2526669 0.1569994 0.014191524 -0.14327691 -0.09557992 0.37187266 0.04506102 -0.33325297 -0.23485872 -0.47398853 0.07022393 -0.22653008 -0.08595219 0.035992548 0.27556807 -0.0917597 -0.34666133 -0.058743976 0.11832387 0.11420165 0.04391534 -0.1640107 -0.011479981 0.05776093 -0.112890586 0.18819681 0.044342592 -0.14101686 -0.316053 0.18054587 0.13355324 0.055162895 -0.15700585 -0.18822634 -0.36694732 0.1318433 0.2067219 0.2460199 -0.27741164 0.1951683 -0.22237068 -0.005293301 0.10764052 -0.10854479 0.23130278 0.21982306 -0.036031194 -0.19225708 -0.11461807 0.13384156 -0.08637815 -0.12765962 -0.27067587 0.35399547 -0.02735982 0.019544942 0.13793421 0.30424047 0.34858766 0.058380708 0.2967984 0.128087 -0.07324553 -0.027810972 0.3433444 0.36776584 0.15785901 -0.21090014 0.05840493 -0.07771298
国家 -0.05994763 0.3063764 0.24502629 -0.027488355 0.03244681 -0.5980206 0.27791202 0.62877125 -0.25828895 0.023926836 -0.16311459 -0.48331434 -0.1735191 0.13810194 -0.005300924 -0.18501228 0.02878417 -0.43279558 0.023897601 -0.57614326 0.17282104 0.17879973 -0.114385895 -0.22024848 -0.2141387 -0.083513334 -0.2288142 -0.40821636 -0.2403635 0.08706344 0.33655414 0.21694711 0.033981673 -0.19868392 -0.15431361 0.5375922 0.0789194 -0.45183614 -0.33060777 -0.65777934 0.1034276 -0.31301945 -0.10722157 0.052254222 0.3865107 -0.14516494 -0.4842913 -0.074134655 0.15939143 0.16568743 0.047590207 -0.23773666 -0.008798123 0.08724309 -0.16788289 0.24722277 0.06323215 -0.20370334 -0.43045908 0.26006863 0.20077462 0.0615016 -0.22044621 -0.25294122 -0.5041676 0.16863883 0.29016924 0.36433342 -0.38718644 0.27060646 -0.2967084 -0.0022115356 0.14469004 -0.14762597 0.34291258 0.31188974 -0.052991092 -0.26155216 -0.14066403 0.18302679 -0.11125931 -0.18521468 -0.3682083 0.47526607 -0.029237607 0.027453732 0.19334535 0.43179643 0.48234105 0.07455098 0.40556562 0.1794886 -0.104231596 -0.034012172 0.500984 0.5173391 0.22341165 -0.2979282 0.08664446 -0.09560996
新 -0.046730615 0.21360046 0.19519459 -0.024958555 0.02479623 -0.45395035 0.20831662 0.4731867 -0.19754238 0.009251497 -0.12668242 -0.3559563 -0.13800183 0.100996636 -0.0025766501 -0.13700558 0.02449464 -0.32667962 0.019962434 -0.4328265 0.12477478 0.14694965 -0.06961389 -0.17454365 -0.15043937 -0.052975815 -0.17987305 -0.30237767 -0.18712215 0.073773794 0.25506842 0.16465217 0.027337326 -0.15125522 -0.12087021 0.39860186 0.04409175 -0.35448155 -0.25015634 -0.495867 0.08078111 -0.23721422 -0.08717555 0.051049232 0.292462 -0.10836528 -0.357308 -0.0681795 0.1142433 0.122475535 0.038017474 -0.18442824 -0.002121793 0.07053122 -0.13769038 0.18841818 0.03964276 -0.15155914 -0.32830262 0.19118878 0.15619497 0.05128103 -0.15957923 -0.18325287 -0.38495496 0.13847142 0.2091727 0.2614364 -0.29671988 0.2067436 -0.23531944 0.0059647886 0.112268254 -0.12546241 0.25615367 0.23724669 -0.049250063 -0.18876384 -0.11969737 0.14396052 -0.07491998 -0.13424139 -0.28344807 0.36113498 -0.025793944 0.028334236 0.15557729 0.31695244 0.34927812 0.043038122 0.30930334 0.13292737 -0.08265454 -0.030874986 0.37709162 0.38625348 0.16822802 -0.22634086 0.058427498 -0.072701424
培训 -0.06459144 0.24341168 0.20977373 -0.0140918465 0.03051953 -0.50384486 0.22327787 0.5255874 -0.21862882 0.017449459 -0.13903253 -0.4043876 -0.1549938 0.12271709 -0.010078722 -0.1704678 0.016040454 -0.37045884 0.025400333 -0.47942188 0.1609163 0.1535297 -0.082487546 -0.18836379 -0.16812001 -0.07482686 -0.18666099 -0.3438699 -0.19124676 0.082451224 0.2920919 0.19028959 0.023977457 -0.15803798 -0.11800652 0.452411 0.056955956 -0.3827746 -0.26660547 -0.5666012 0.09455059 -0.27244 -0.0908828 0.040901143 0.31517062 -0.11596786 -0.41185847 -0.07519968 0.1397572 0.13209441 0.04798335 -0.20091745 0.0041849613 0.07450869 -0.1472481 0.22163102 0.050397582 -0.17052472 -0.37811822 0.22822376 0.17032441 0.056905307 -0.17847253 -0.2169135 -0.43441075 0.138547 0.24930303 0.30476457 -0.33368924 0.24368975 -0.25231868 -0.008581928 0.11940654 -0.12705128 0.2757535 0.2638658 -0.041500825 -0.21299395 -0.12126135 0.1567378 -0.094599746 -0.1595951 -0.30134472 0.40288627 -0.029825574 0.029272411 0.16994561 0.35442287 0.40782106 0.06066291 0.34526888 0.1398845 -0.101104595 -0.028253345 0.40618354 0.44204655 0.18006475 -0.26948473 0.06664206 -0.07150998
建设 -0.059260752 0.2766283 0.22100386 -0.034386918 0.02948001 -0.54889166 0.23516013 0.562133 -0.24989484 0.01591909 -0.1446183 -0.44170502 -0.16805142 0.12841515 0.00046586437 -0.18211599 0.035780407 -0.41628703 0.028908389 -0.51606303 0.1677102 0.17819357 -0.085107416 -0.20151697 -0.1972396 -0.07218039 -0.22020552 -0.37234646 -0.20878635 0.07595245 0.30835748 0.19504057 0.022234283 -0.16798447 -0.13333258 0.48840174 0.059758857 -0.415086 -0.3000314 -0.605717 0.09180174 -0.29099151 -0.098365255 0.055826478 0.3399964 -0.12279933 -0.4384388 -0.077288136 0.13634396 0.14540876 0.039694514 -0.21081921 0.0059094806 0.094591625 -0.1450436 0.22616474 0.057006463 -0.1971208 -0.4036878 0.23252092 0.18780033 0.061155837 -0.204163 -0.22206543 -0.46235842 0.15791477 0.26326847 0.32094952 -0.35406172 0.25872582 -0.27512172 -0.008707256 0.13462536 -0.14207463 0.30091813 0.28988847 -0.055832826 -0.22872819 -0.14021851 0.15599196 -0.100812644 -0.1678755 -0.33581018 0.43968567 -0.024533737 0.03912519 0.17551072 0.39414 0.43472952 0.064364366 0.37542534 0.15757872 -0.1065014 -0.039446823 0.44929442 0.47150323 0.18813612 -0.27364555 0.07745267 -0.08862877
50 -0.046531238 0.16985765 0.14237727 -0.028155081 0.028959272 -0.36554608 0.15295199 0.36338887 -0.14754148 0.0068743466 -0.11241855 -0.27461752 -0.10892962 0.07890148 0.0025671006 -0.11942159 0.012068933 -0.2718973 0.020530198 -0.3306778 0.111450516 0.113714896 -0.05308492 -0.13709147 -0.110033646 -0.04195227 -0.1325208 -0.21905848 -0.15023795 0.058674164 0.21772759 0.12729646 0.0043149474 -0.11633299 -0.09096959 0.3143902 0.040882904 -0.2597739 -0.18950191 -0.38278145 0.061767913 -0.18009146 -0.075888805 0.021175612 0.2195938 -0.08567539 -0.2913557 -0.04621274 0.0897322 0.095275655 0.043579057 -0.14461845 0.00044265113 0.05343108 -0.09450243 0.16149086 0.03821729 -0.116999775 -0.26373285 0.14727242 0.105663106 0.039358296 -0.13170712 -0.15617585 -0.29791155 0.10982483 0.1654799 0.21022852 -0.22219266 0.16972043 -0.18476059 0.0058960677 0.09531395 -0.08701259 0.19303264 0.16793554 -0.040301323 -0.14662881 -0.08626697 0.104363315 -0.074819006 -0.09411304 -0.22352685 0.29517797 -0.013540336 0.014741394 0.1190041 0.26191196 0.27625296 0.030833315 0.25630867 0.1061955 -0.054804564 -0.03433877 0.28571436 0.31051564 0.12927356 -0.18378742 0.047082476 -0.06449387
一次性 -0.048612807 0.18614402 0.14918181 -0.026572304 0.03689956 -0.367461 0.15938614 0.37584928 -0.15740584 0.004608129 -0.10365726 -0.28739145 -0.09247811 0.08927368 0.0010980049 -0.11994945 0.02442857 -0.2681564 0.0076510697 -0.3505709 0.10550748 0.115521275 -0.06600604 -0.14145294 -0.11332512 -0.053316575 -0.12983121 -0.23181131 -0.1489033 0.05307898 0.21110186 0.13528626 0.0056675365 -0.12157625 -0.095921315 0.3283161 0.039920066 -0.2684763 -0.1941376 -0.4025741 0.0650724 -0.1912679 -0.06695805 0.022863265 0.21974778 -0.08482143 -0.28872856 -0.05302401 0.09056703 0.099889085 0.0412842 -0.14283007 -0.00572564 0.05558094 -0.110217854 0.14994879 0.048672356 -0.1236561 -0.27220303 0.15912272 0.124105245 0.04038998 -0.1269916 -0.1576481 -0.30767465 0.100455426 0.16801311 0.20094298 -0.2371605 0.17566009 -0.17565168 -0.0057546776 0.08635548 -0.08134151 0.19775735 0.17504722 -0.032648087 -0.14817739 -0.09531885 0.101727836 -0.058073696 -0.094310425 -0.22786573 0.28504655 -0.018379932 0.022569224 0.108950645 0.26741293 0.28102717 0.04284615 0.25968066 0.107878305 -0.06158795 -0.026876595 0.28175566 0.3094106 0.12996192 -0.19332439 0.060151197 -0.06653607
评审 -0.04657261 0.22431833 0.18973018 -0.03137626 0.033898603 -0.47793278 0.21399426 0.48952293 -0.19397834 0.024685329 -0.11989706 -0.36145607 -0.15094075 0.09903046 -0.009805604 -0.14800115 0.028035477 -0.345753 0.016979601 -0.44261402 0.13449034 0.14384335 -0.07497915 -0.18796562 -0.15824467 -0.07159162 -0.1729698 -0.31924 -0.18048029 0.06289584 0.28143784 0.1636617 0.019743599 -0.14660753 -0.10534071 0.40768835 0.04940313 -0.36729336 -0.24335106 -0.5232145 0.09106509 -0.24987942 -0.080835134 0.03614241 0.29526863 -0.10890665 -0.39278644 -0.051674463 0.11768534 0.13234465 0.038651913 -0.18437126 0.0011696272 0.08407877 -0.14222541 0.2102994 0.05774245 -0.16199097 -0.3382524 0.2122945 0.15924174 0.04801609 -0.16553834 -0.19632387 -0.39217877 0.14487949 0.22028778 0.27986985 -0.310884 0.21241327 -0.24643706 0.002276108 0.10882585 -0.124927364 0.26895148 0.23211059 -0.04428321 -0.20714775 -0.11891689 0.13374831 -0.091889344 -0.13444358 -0.29399425 0.38388306 -0.030254506 0.02983921 0.15534069 0.32683447 0.36600816 0.048131663 0.31150043 0.1337036 -0.09110598 -0.030239146 0.3819533 0.39664868 0.16448365 -0.24255462 0.062205784 -0.07880019
意见 -0.0508462 0.21993719 0.18677635 -0.02944128 0.033203334 -0.47214118 0.20310213 0.4883662 -0.19219561 0.0071122902 -0.12054197 -0.3722089 -0.13658005 0.11315693 -0.0060525527 -0.13349885 0.023511946 -0.33380604 0.028644372 -0.4500027 0.12494315 0.13889605 -0.08126257 -0.18044361 -0.15718955 -0.0728637 -0.17607534 -0.30743107 -0.17278709 0.06209962 0.2601028 0.17441306 0.027854603 -0.14542952 -0.11139759 0.39951205 0.055311874 -0.3615986 -0.25417358 -0.50636256 0.08466569 -0.23843336 -0.09823776 0.04464448 0.29331782 -0.109868854 -0.37579507 -0.05477254 0.108396865 0.12221066 0.03937779 -0.18220897 0.0020959142 0.08225103 -0.12524833 0.20080684 0.055745065 -0.16827048 -0.3264 0.2087433 0.14993455 0.045903694 -0.15798873 -0.18507011 -0.40157294 0.13438922 0.2228539 0.2752575 -0.28667971 0.19973767 -0.22361057 -0.011473958 0.114907645 -0.10959431 0.25212744 0.22746696 -0.039546553 -0.20915605 -0.124619596 0.13585955 -0.08595068 -0.13010202 -0.27233252 0.37156415 -0.016001884 0.04070477 0.15630247 0.330489 0.37178499 0.060258877 0.32157218 0.14177196 -0.09249347 -0.019059876 0.3865266 0.40529183 0.15645319 -0.23584296 0.065792814 -0.06764105
号 -0.06799129 0.2771624 0.24300325 -0.016863821 0.033148896 -0.56179297 0.25703546 0.58316743 -0.24094014 0.0061760764 -0.15497383 -0.43902102 -0.16048326 0.12067242 -0.008975767 -0.17125271 0.030237366 -0.41876462 0.032988235 -0.5330477 0.15212092 0.18852468 -0.10647373 -0.21389334 -0.18194705 -0.078220434 -0.21995632 -0.3724914 -0.22223333 0.07831548 0.31274432 0.20954505 0.013392159 -0.1725591 -0.14376572 0.4989304 0.06104372 -0.43588352 -0.29396686 -0.62675923 0.104952574 -0.29968575 -0.114558734 0.042676535 0.36237285 -0.13253577 -0.4530395 -0.084127635 0.14100367 0.14630893 0.037183296 -0.22616747 -0.011493606 0.085942835 -0.16235234 0.23792386 0.053491056 -0.20546979 -0.40061468 0.24746062 0.19754647 0.0638315 -0.1919851 -0.2363782 -0.4861873 0.16349083 0.26216322 0.33980414 -0.3481354 0.253523 -0.27434903 0.006714669 0.1363754 -0.14037298 0.32244483 0.28909934 -0.06344266 -0.25233763 -0.14196436 0.16497658 -0.08789172 -0.17882933 -0.34435633 0.460071 -0.03045193 0.026710713 0.18577956 0.38995808 0.44045672 0.058443446 0.38570067 0.17107974 -0.09930993 -0.025868576 0.46740624 0.48503396 0.19462237 -0.2766383 0.07122901 -0.09252449
考核 -0.03797619 0.22875337 0.18349415 -0.028546978 0.037528384 -0.44959867 0.19178434 0.47204217 -0.18531166 0.017490892 -0.12632792 -0.34745216 -0.12278609 0.11317874 0.0039224993 -0.14565238 0.02458099 -0.3352948 0.027771637 -0.41537976 0.13584879 0.14699195 -0.07118644 -0.16019154 -0.15434511 -0.071405254 -0.1726978 -0.28929573 -0.18151107 0.07058597 0.26075655 0.15314327 0.0252124 -0.14268515 -0.109348595 0.40343523 0.054977495 -0.3437044 -0.24842444 -0.4810535 0.072572336 -0.22838165 -0.080480784 0.041323815 0.27317196 -0.0911942 -0.36947796 -0.05349956 0.10978554 0.11273754 0.03573102 -0.18855111 -0.007033177 0.060429405 -0.12017235 0.19302726 0.049232107 -0.15091078 -0.32744262 0.18900378 0.15389168 0.042735875 -0.1601443 -0.17691076 -0.38023812 0.13602127 0.2190269 0.26035118 -0.2921509 0.21129394 -0.22160058 0.00040926455 0.10559063 -0.12164054 0.25097355 0.22340047 -0.03796767 -0.20278448 -0.11028053 0.13414332 -0.08540584 -0.13967185 -0.28143185 0.36111587 -0.020030798 0.0277174 0.14590003 0.31411752 0.35771087 0.051193297 0.3140573 0.12590075 -0.0869139 -0.035391733 0.35269666 0.37619254 0.16188486 -0.22270864 0.0564721 -0.08116513
元 -0.052648485 0.21044734 0.16485336 -0.0115068 0.03556539 -0.4143999 0.17671928 0.43976057 -0.1905162 0.023501992 -0.12159677 -0.33392116 -0.11495506 0.096044414 0.0045441366 -0.13671578 0.027170477 -0.3205061 0.02492994 -0.40121245 0.11779792 0.13230768 -0.07097538 -0.15702403 -0.14415199 -0.06754811 -0.16760933 -0.28159255 -0.17215782 0.057965253 0.25247863 0.1497372 0.0053905696 -0.13842987 -0.0984027 0.36669636 0.045589674 -0.3239129 -0.2159563 -0.4698692 0.06869676 -0.2149119 -0.08661497 0.04096535 0.26320964 -0.082809284 -0.3370548 -0.054097984 0.108934075 0.11116652 0.03951188 -0.1713253 0.0036050873 0.0719081 -0.10995409 0.17781484 0.043298565 -0.13595253 -0.3114384 0.18346335 0.13219869 0.051514763 -0.15889733 -0.17352898 -0.34268823 0.12013193 0.1937184 0.23760527 -0.2658829 0.18678674 -0.20793982 -0.0059711575 0.107378915 -0.10813375 0.22380877 0.20738466 -0.039209157 -0.18333907 -0.09827757 0.1192817 -0.08319191 -0.12362338 -0.26132292 0.3265051 -0.028175538 0.024834007 0.13488623 0.3012836 0.3409464 0.05329655 0.29426357 0.1223288 -0.08244012 -0.016762558 0.3398432 0.36305174 0.15026337 -0.20827691 0.06610367 -0.07400313
评估 -0.06582636 0.29860702 0.25778383 -0.040700022 0.042865902 -0.60282266 0.26390842 0.62766874 -0.26877862 0.027791502 -0.18037225 -0.49170512 -0.17590202 0.13538942 -0.008684987 -0.19305265 0.030445065 -0.46307358 0.03454723 -0.57587916 0.1838479 0.19234094 -0.099372 -0.23803693 -0.20576692 -0.09095587 -0.23055965 -0.4169412 -0.23944521 0.087791935 0.34385198 0.22974224 0.021535046 -0.19363266 -0.15645047 0.543599 0.065947 -0.46907887 -0.33272004 -0.6717345 0.11634532 -0.3262953 -0.11465103 0.05679486 0.37598392 -0.1399235 -0.5005894 -0.08989692 0.14469129 0.1628932 0.0539576 -0.24325144 -0.0054714396 0.10233149 -0.16876738 0.2524778 0.076008916 -0.20268062 -0.451795 0.26558137 0.21173139 0.06772617 -0.21922024 -0.25840405 -0.5083211 0.18457462 0.2953195 0.35138178 -0.39010847 0.2730085 -0.31493893 0.008693003 0.14142786 -0.15919288 0.3451598 0.2999176 -0.052046034 -0.2775935 -0.15263094 0.1845502 -0.10782815 -0.19063698 -0.37560943 0.48408 -0.034831032 0.028262997 0.20662798 0.4413365 0.48152357 0.07234267 0.4114395 0.18627843 -0.11533957 -0.033327498 0.5031922 0.53007966 0.21815145 -0.3012929 0.09228468 -0.097459525
20 -0.038417116 0.1701899 0.14518008 -0.01732873 0.029365657 -0.34315044 0.13842924 0.34309155 -0.15281472 0.010183438 -0.100568354 -0.26341614 -0.08724987 0.08594681 0.00737579 -0.102792196 0.017118681 -0.24606161 0.009902593 -0.32787237 0.10671001 0.09613701 -0.04952216 -0.1291571 -0.11809935 -0.045942873 -0.13351859 -0.20713307 -0.13962711 0.04492885 0.20104566 0.1256906 0.015343875 -0.10497428 -0.08634482 0.2914376 0.042112555 -0.24448024 -0.18439609 -0.36746073 0.0629804 -0.17017777 -0.07184921 0.024264311 0.2073234 -0.07214502 -0.2642127 -0.038785465 0.07392211 0.094376415 0.031162709 -0.13751309 -0.011199422 0.044832896 -0.08713551 0.14784716 0.02937629 -0.10832489 -0.25015914 0.13449985 0.11122624 0.03911963 -0.11918337 -0.13293822 -0.27450112 0.09497415 0.16595666 0.19818096 -0.21224554 0.16374692 -0.17836636 -0.005379125 0.08112365 -0.076269895 0.18158583 0.17487605 -0.037732784 -0.14809828 -0.0912571 0.09355528 -0.052319117 -0.10109677 -0.20754346 0.27689672 -0.026213333 0.021828718 0.114501834 0.23062499 0.26453483 0.03245977 0.23784396 0.09410506 -0.06744593 -0.012449176 0.26511362 0.2934316 0.11400641 -0.16425146 0.04596406 -0.062042877
部门 -0.05835582 0.26026192 0.22318159 -0.024581704 0.025716169 -0.5431687 0.2351317 0.56696784 -0.22770339 0.014726477 -0.15139224 -0.417651 -0.16793129 0.12621348 0.0020843148 -0.17144571 0.020831741 -0.40620434 0.013427073 -0.5051046 0.16151021 0.16920236 -0.08166516 -0.20962736 -0.18312962 -0.076990254 -0.2148015 -0.367344 -0.20207803 0.07628187 0.29936698 0.20210163 0.013889569 -0.1718306 -0.13030222 0.46873528 0.053812116 -0.41693252 -0.29501003 -0.5906871 0.09310496 -0.28488532 -0.097938865 0.047855448 0.34524494 -0.114325054 -0.43742597 -0.0698414 0.13921802 0.14979918 0.05340054 -0.21792208 -0.0038191895 0.08057921 -0.15153407 0.22279048 0.05318578 -0.19437781 -0.38978326 0.24016371 0.18366188 0.056149036 -0.18593243 -0.23277628 -0.44220498 0.15522529 0.26258796 0.32250383 -0.34398204 0.24754643 -0.26944116 -0.0127994325 0.12414015 -0.14319402 0.2883269 0.27828443 -0.04476185 -0.23366022 -0.12576316 0.15932882 -0.094892 -0.1548329 -0.33664304 0.42427891 -0.02149504 0.02788652 0.18136212 0.3862932 0.4186796 0.071304195 0.37436166 0.14964406 -0.10718484 -0.042567 0.44344825 0.466033 0.19056675 -0.27112603 0.0682983 -0.089634046
市 -0.052489806 0.25252143 0.21383464 -0.022871824 0.023982061 -0.5421347 0.24258715 0.5643258 -0.23968844 0.02426138 -0.13778836 -0.41392896 -0.16165383 0.13352975 -0.01172947 -0.17133868 0.027896138 -0.39974773 0.012115494 -0.50660866 0.16362016 0.16118138 -0.09846179 -0.19463818 -0.18156283 -0.08477476 -0.19688539 -0.35739115 -0.20534615 0.084514506 0.31399 0.20036997 0.028100358 -0.17797638 -0.12789781 0.46468216 0.06308083 -0.39726305 -0.27666116 -0.5949508 0.106886104 -0.28352517 -0.1007474 0.05565503 0.3300794 -0.12150118 -0.43075863 -0.062079422 0.13865474 0.13982731 0.034301624 -0.2184626 0.0071421997 0.0721136 -0.13958731 0.22766078 0.053881194 -0.17234007 -0.3763948 0.2457854 0.18776508 0.047834516 -0.18314485 -0.23123097 -0.45729327 0.14381106 0.2600977 0.3230999 -0.345444 0.23847423 -0.27217373 -0.008247338 0.12544505 -0.13472135 0.29967204 0.27036756 -0.053986732 -0.2318465 -0.13433649 0.16200003 -0.08270145 -0.15175518 -0.33295345 0.42127267 -0.037632506 0.028649498 0.17543393 0.37226254 0.42483822 0.072087035 0.3681093 0.15700512 -0.088716574 -0.026486473 0.4343835 0.44828779 0.18965185 -0.26208624 0.0850783 -0.0870065
创新 -0.045555957 0.25951883 0.22544885 -0.030571053 0.03704264 -0.52434856 0.22346367 0.5510132 -0.23857571 0.00799567 -0.14069992 -0.40148225 -0.1565869 0.12802702 0.0025396736 -0.16066276 0.019632757 -0.3793947 0.014249641 -0.5058449 0.15817255 0.15449373 -0.084781736 -0.19951831 -0.18049714 -0.08183906 -0.20801175 -0.3515967 -0.19648726 0.085788034 0.28940427 0.18267415 0.023330586 -0.17289329 -0.122035615 0.46462905 0.050367966 -0.3902966 -0.26911047 -0.57880056 0.09704049 -0.2835544 -0.09082326 0.057257764 0.33275655 -0.12834167 -0.41957602 -0.070582196 0.1309229 0.14537618 0.04347783 -0.20410663 -0.0096498495 0.086327575 -0.15210915 0.22205453 0.060482524 -0.17567709 -0.3724258 0.2271253 0.17982791 0.06477263 -0.18987903 -0.21240497 -0.44998816 0.15922931 0.25702384 0.31455114 -0.32874358 0.24240582 -0.26726356 -0.009784634 0.12277121 -0.13441393 0.2873214 0.25971922 -0.05471956 -0.21568367 -0.119739 0.16124597 -0.09477134 -0.15421225 -0.3276246 0.42713267 -0.027193166 0.0412384 0.16369277 0.36910364 0.41899198 0.065266356 0.35234612 0.1448887 -0.09529848 -0.04262982 0.43486622 0.45311567 0.1828794 -0.27301967 0.068145365 -0.08409968
毕业生 -0.051494516 0.2724026 0.22407897 -0.01009981 0.022997458 -0.55376846 0.25361314 0.57948846 -0.25493294 0.024434227 -0.16356306 -0.44580817 -0.14959584 0.11692871 -0.010152156 -0.18200852 0.03357076 -0.4074875 0.017051576 -0.5340971 0.17497799 0.18683732 -0.08317423 -0.20591383 -0.18488924 -0.07549971 -0.21233086 -0.36151618 -0.21473457 0.08410609 0.31389016 0.19296232 0.031491484 -0.18227844 -0.13552985 0.4879296 0.058198836 -0.43454564 -0.2940905 -0.61831534 0.09080012 -0.29875693 -0.10000409 0.06008265 0.34579894 -0.114824995 -0.4613286 -0.081191875 0.13230595 0.13994265 0.057448942 -0.23604876 -0.010151971 0.07361511 -0.1469035 0.2343241 0.05872781 -0.19815943 -0.40537098 0.2471281 0.18313351 0.052397337 -0.20753297 -0.23247387 -0.48036572 0.16399439 0.26559293 0.33900103 -0.35830265 0.26302487 -0.29445195 -0.012913112 0.1388356 -0.14340204 0.30272886 0.28172594 -0.041741047 -0.2502744 -0.14249213 0.16668266 -0.101785764 -0.15217543 -0.34094268 0.43756744 -0.03826258 0.022719514 0.16736582 0.38528973 0.43667665 0.06213855 0.38333866 0.15516049 -0.102647476 -0.029209003 0.4652845 0.46902275 0.20926164 -0.27487177 0.074776694 -0.09877203
中 -0.06842084 0.29167172 0.26322097 -0.018296083 0.04617389 -0.6203801 0.27550232 0.6417277 -0.26066366 0.00936327 -0.16991863 -0.48828638 -0.18810669 0.14431135 0.0065732193 -0.18520135 0.022999136 -0.44896176 0.022813981 -0.5721697 0.17064102 0.20214237 -0.11179205 -0.23578796 -0.2078545 -0.08659433 -0.24254179 -0.4080594 -0.23982845 0.08730579 0.35618785 0.2231222 0.03113344 -0.18513826 -0.15687045 0.5413597 0.07746988 -0.45971859 -0.31905696 -0.6752087 0.11606781 -0.32165655 -0.11520797 0.0500698 0.38491753 -0.1322566 -0.5065848 -0.069467306 0.158749 0.16213788 0.047665343 -0.24336314 0.0048683374 0.10019879 -0.17938724 0.2691604 0.06307054 -0.21877773 -0.43415958 0.27403724 0.2070095 0.0770098 -0.2271212 -0.26067117 -0.51759106 0.1715993 0.29444546 0.35966423 -0.3988602 0.28020072 -0.30477965 -0.0039946255 0.15053958 -0.15799169 0.34311357 0.30965933 -0.048206747 -0.26595607 -0.14701818 0.1782503 -0.09913213 -0.1804251 -0.3706688 0.4993813 -0.040346097 0.047258765 0.19884458 0.4310457 0.47957176 0.06272304 0.41588643 0.18158798 -0.10543715 -0.028781947 0.4895382 0.5321522 0.20939252 -0.30799982 0.09771667 -0.09767691
重点 -0.06751911 0.25550902 0.2261684 -0.02515859 0.023542557 -0.536053 0.2412162 0.56538165 -0.23068915 0.018630043 -0.15888363 -0.41635612 -0.15369728 0.117003225 -0.0055148145 -0.16759734 0.026345834 -0.39734444 0.017435558 -0.5142819 0.16188401 0.16644417 -0.091550194 -0.19756418 -0.18866095 -0.083371826 -0.19729836 -0.36734048 -0.21455957 0.08215868 0.30074295 0.19588874 0.027856246 -0.17222856 -0.12427114 0.47301635 0.055483967 -0.4123177 -0.28699014 -0.58427495 0.104358174 -0.2786618 -0.10762444 0.0430721 0.34502062 -0.11965989 -0.42995754 -0.06923484 0.14470768 0.13275486 0.054985043 -0.2232947 -0.004364694 0.08979166 -0.16265416 0.23401254 0.04893769 -0.19119632 -0.3883976 0.23912671 0.17750192 0.068359874 -0.20014504 -0.22436629 -0.44399872 0.15691938 0.25227603 0.32071447 -0.34868965 0.24709657 -0.26841453 0.004376711 0.13628805 -0.14535277 0.30751756 0.26939845 -0.04215187 -0.23864517 -0.14022005 0.15741992 -0.10289769 -0.163213 -0.3273171 0.43146354 -0.03981053 0.02723657 0.16760443 0.3818624 0.43247157 0.061161973 0.37991107 0.15308349 -0.08974072 -0.027653936 0.44759002 0.4604724 0.19263454 -0.2727121 0.068385966 -0.07572794
产业 -0.060323965 0.27397916 0.22942473 -0.021738313 0.031677328 -0.55241513 0.24118227 0.56685734 -0.24615519 0.011587647 -0.15080126 -0.43030643 -0.15523182 0.12719516 0.0012338305 -0.17590617 0.020436278 -0.39463225 0.0308319 -0.51035005 0.16220978 0.16227326 -0.08473236 -0.20843177 -0.1940445 -0.06717518 -0.20936373 -0.3704283 -0.2154106 0.089708894 0.3062354 0.20072816 0.019955881 -0.1659424 -0.13190334 0.46572256 0.05856988 -0.40465036 -0.2867482 -0.6003881 0.10554164 -0.2799183 -0.09545551 0.050863355 0.33098686 -0.12634759 -0.43326035 -0.077143565 0.1468765 0.13258253 0.035544436 -0.22083792 0.003678423 0.07510162 -0.14448531 0.22040406 0.059622712 -0.18356359 -0.39270046 0.24801256 0.18657841 0.06078562 -0.1894786 -0.21861976 -0.45263624 0.1649351 0.26063067 0.30976468 -0.3494455 0.24525687 -0.28076315 -0.00575892 0.13569777 -0.14559627 0.30416405 0.28261253 -0.051147368 -0.23210223 -0.12780099 0.15351586 -0.09030676 -0.15293495 -0.33298698 0.4253365 -0.038647015 0.024876047 0.17964531 0.38902628 0.43682483 0.061029736 0.37202683 0.16042817 -0.10906701 -0.04387195 0.4477592 0.4540382 0.18948534 -0.28012285 0.08391346 -0.088333
标准 -0.046689104 0.25259286 0.21101886 -0.026397953 0.034944233 -0.52402127 0.23546012 0.5464383 -0.22080679 0.009447996 -0.14968565 -0.40639096 -0.15119845 0.113581814 0.0065672672 -0.15654649 0.022317762 -0.37994072 0.02661084 -0.48906046 0.15987034 0.16170323 -0.09346922 -0.19349344 -0.18323171 -0.06121557 -0.20533648 -0.3425631 -0.2048495 0.08146031 0.30241016 0.17808089 0.014025997 -0.16267872 -0.12269618 0.45970666 0.057096545 -0.39398435 -0.28129745 -0.56307477 0.084974125 -0.2715269 -0.101822406 0.03947025 0.33017886 -0.11559801 -0.43001384 -0.07663315 0.13173538 0.12689206 0.04799965 -0.20338482 0.0014166122 0.07409345 -0.1385143 0.21127976 0.06209964 -0.17718528 -0.37631792 0.23084603 0.16840513 0.052177552 -0.18743323 -0.22312641 -0.43461424 0.14516944 0.2550796 0.29332632 -0.3348062 0.22649519 -0.27135748 -0.0045079095 0.113909826 -0.13854738 0.28781885 0.26159203 -0.045259748 -0.21285583 -0.13779533 0.15961032 -0.100579225 -0.14766802 -0.3059136 0.4219747 -0.035676036 0.035435922 0.15737645 0.3649623 0.40310144 0.049732603 0.35902005 0.15457954 -0.099430844 -0.041278828 0.4230833 0.4362908 0.17608784 -0.26792383 0.072793156 -0.071713276
区 -0.063479975 0.2661629 0.22867991 -0.029756783 0.031140476 -0.53358054 0.2387092 0.55120313 -0.23455702 0.006135652 -0.13895097 -0.42512333 -0.16402626 0.124597564 -0.00012730998 -0.16666935 0.025980467 -0.38689935 0.024593925 -0.49705395 0.15243721 0.15616891 -0.10203716 -0.1891016 -0.17951892 -0.08271129 -0.1954322 -0.34383577 -0.19917454 0.07419955 0.29881808 0.18761228 0.012030335 -0.1619672 -0.122382484 0.45604026 0.069043055 -0.41046977 -0.27219978 -0.58701265 0.098847836 -0.28313446 -0.09516061 0.05864395 0.3312515 -0.12450704 -0.4386757 -0.063986085 0.13738354 0.14796829 0.03901017 -0.22229831 0.0053230408 0.07559183 -0.1450462 0.23497279 0.050083797 -0.17895204 -0.38736987 0.22690594 0.170338 0.05868561 -0.19822091 -0.22263786 -0.44749743 0.1584031 0.25825486 0.31933326 -0.33251366 0.23703004 -0.2727561 0.0051543703 0.13397375 -0.14758116 0.2986262 0.2799834 -0.039776605 -0.23549819 -0.13128993 0.16001059 -0.08820836 -0.15957867 -0.32757667 0.43182725 -0.020623622 0.033775955 0.16550921 0.37142843 0.41476893 0.06620461 0.3614352 0.1516036 -0.10737434 -0.03514007 0.4396984 0.4583338 0.19257815 -0.27348396 0.08882617 -0.08176938
省 -0.055617124 0.26830953 0.21534841 -0.016898818 0.043415416 -0.5288561 0.2409562 0.55987734 -0.234823 0.006032777 -0.1459216 -0.4171564 -0.16248506 0.1244327 0.0020445632 -0.17449728 0.02900809 -0.38013837 0.012501242 -0.50603265 0.14540578 0.15582502 -0.08653509 -0.20567591 -0.18401311 -0.08464147 -0.2119641 -0.36074477 -0.20885095 0.083740935 0.2952413 0.18280183 0.018773431 -0.17091028 -0.13769963 0.46055475 0.06481901 -0.402899 -0.27435413 -0.5802229 0.09623204 -0.27834672 -0.09063859 0.051812083 0.33740443 -0.12087383 -0.43884248 -0.06339182 0.14053339 0.14126302 0.053161297 -0.21908641 0.0010889566 0.07390774 -0.1600048 0.22754706 0.060535856 -0.17463152 -0.3950641 0.24072194 0.18248716 0.062556155 -0.18996437 -0.216225 -0.44032684 0.14341426 0.24648878 0.32143265 -0.33978823 0.2309148 -0.2715884 -0.0022877902 0.13683747 -0.14110163 0.293456 0.265238 -0.05762049 -0.22604197 -0.1317401 0.14801203 -0.09122661 -0.16674477 -0.3274793 0.43061072 -0.027120374 0.04207643 0.18008563 0.37637204 0.42767322 0.06925564 0.3741503 0.16533054 -0.091199845 -0.027336124 0.44294992 0.451239 0.18455786 -0.26090506 0.07897537 -0.08890258
申报 -0.04945791 0.21582821 0.19847916 -0.017544586 0.0325927 -0.44609964 0.20829773 0.4658402 -0.20374131 0.010407752 -0.12882511 -0.36408725 -0.13404341 0.09598767 0.007294807 -0.14638622 0.015508341 -0.34118783 0.014722484 -0.4414396 0.1342944 0.1459878 -0.08124453 -0.16124517 -0.15613909 -0.072275534 -0.1767057 -0.30430675 -0.18423213 0.059060197 0.25579593 0.16061305 0.022197431 -0.15083446 -0.11579925 0.39758947 0.050354928 -0.34162036 -0.24077398 -0.49235326 0.09067183 -0.24777685 -0.0799198 0.048711173 0.28237832 -0.09704848 -0.37183598 -0.062827855 0.10744411 0.12995102 0.028081138 -0.18440533 -0.0017321674 0.06488779 -0.118121766 0.1857902 0.037971694 -0.14475839 -0.33726162 0.20983897 0.1462708 0.055838294 -0.16168457 -0.19293328 -0.3876176 0.12362333 0.2267272 0.27381513 -0.28846794 0.21221316 -0.22403803 0.0009744106 0.11040416 -0.12792362 0.260113 0.22293635 -0.04560537 -0.19274977 -0.10531575 0.12543783 -0.07669323 -0.1281912 -0.28409228 0.3737272 -0.029789813 0.03922446 0.13961451 0.3282942 0.36788166 0.04275154 0.31003088 0.12414777 -0.074598834 -0.018465566 0.3622773 0.38738367 0.15872033 -0.23809786 0.06793846 -0.08113499
总部 -0.044136956 0.20206158 0.1856143 -0.009357308 0.022730721 -0.4340718 0.18121271 0.45112526 -0.18364935 0.021658905 -0.11302041 -0.33712018 -0.12034141 0.107042186 0.008175444 -0.12458092 0.010963264 -0.3238027 0.026308367 -0.4158732 0.1278885 0.14182335 -0.07845134 -0.15153413 -0.15452164 -0.052367553 -0.15736806 -0.27935484 -0.17701817 0.0752836 0.25488228 0.15335134 0.021678718 -0.12713155 -0.10488473 0.3800052 0.044922885 -0.32640907 -0.22708987 -0.4747575 0.07627993 -0.23479053 -0.078415535 0.051902987 0.27295136 -0.08859349 -0.35372677 -0.049883254 0.099842235 0.10701582 0.044851158 -0.1618978 -0.008489607 0.056888368 -0.114191264 0.18521832 0.04929594 -0.15424064 -0.31005132 0.18856397 0.14270534 0.04853385 -0.16130613 -0.17214634 -0.36275613 0.13240676 0.20637357 0.2618469 -0.2737913 0.19828041 -0.2251701 -0.013413575 0.10051509 -0.11330621 0.24534704 0.22266656 -0.044642318 -0.17537758 -0.10368369 0.117350005 -0.068019226 -0.13017553 -0.26944965 0.351978 -0.014347379 0.03769765 0.13914429 0.31039533 0.34481296 0.041306164 0.30276453 0.11879262 -0.08974005 -0.017736724 0.34421498 0.37369436 0.1419036 -0.20902517 0.05793331 -0.0625304
应 -0.048138928 0.27841642 0.23281898 -0.03257117 0.025677692 -0.55317146 0.25226638 0.5751007 -0.23577064 0.024352487 -0.16496436 -0.44163546 -0.1732083 0.12666637 -0.0034589441 -0.1830524 0.024847196 -0.4251523 0.01879579 -0.53913367 0.17470594 0.18594249 -0.09725189 -0.21077797 -0.18802382 -0.07769353 -0.22251245 -0.38323537 -0.21736357 0.09454863 0.32281676 0.21059908 0.024902355 -0.17731926 -0.12878399 0.5022265 0.07414513 -0.4185355 -0.30879292 -0.6093738 0.09453297 -0.30352867 -0.114711866 0.05443441 0.35099864 -0.13300209 -0.45152122 -0.0643922 0.14687355 0.15623164 0.041248694 -0.23084217 0.0032832925 0.086366355 -0.16429608 0.24480633 0.05650461 -0.19921385 -0.40363172 0.2517631 0.1947761 0.06327854 -0.19210383 -0.2295403 -0.4656085 0.16044284 0.27292618 0.3355364 -0.36752793 0.25974306 -0.2793293 0.0054632425 0.1296908 -0.14946091 0.30345798 0.2831134 -0.055159193 -0.2499995 -0.1356158 0.17486553 -0.091709934 -0.17933777 -0.34678656 0.44642442 -0.024784977 0.022211952 0.18742219 0.39941165 0.44066638 0.07609906 0.39278707 0.16282614 -0.098350674 -0.04497469 0.44524148 0.47703898 0.20964533 -0.28013846 0.08483248 -0.09312379
扶持 -0.038743123 0.19548143 0.16725332 -0.019955391 0.03056414 -0.41024902 0.18265678 0.42222977 -0.17697251 0.007054149 -0.11821226 -0.320853 -0.12150017 0.09538599 -0.0069659674 -0.12574086 0.010152523 -0.29652432 0.016915128 -0.38873369 0.119661905 0.1351346 -0.064338215 -0.14769544 -0.14177126 -0.05618088 -0.1508163 -0.26207823 -0.14821106 0.06065907 0.23626669 0.14982902 0.019957598 -0.11717772 -0.10227664 0.3452831 0.05389537 -0.2954921 -0.20814136 -0.44243377 0.079618625 -0.20877981 -0.07702699 0.04674128 0.2548308 -0.08602563 -0.32463813 -0.061443 0.09751722 0.107496396 0.02700907 -0.15114851 0.005783435 0.05211768 -0.11865835 0.16435078 0.03956298 -0.1396738 -0.29048467 0.1738205 0.13664587 0.053946316 -0.14840282 -0.17367794 -0.33324772 0.10831651 0.19897185 0.23880969 -0.26282227 0.17327535 -0.2118468 -0.0004826071 0.09765608 -0.10018855 0.22050394 0.2049116 -0.034134954 -0.17363851 -0.10741041 0.11707781 -0.06534115 -0.121504106 -0.245007 0.31815636 -0.013450633 0.02260209 0.13905391 0.27856538 0.3059256 0.039055582 0.26877975 0.11734365 -0.06888028 -0.021972656 0.3369602 0.3427556 0.14836651 -0.20300286 0.05596016 -0.05704547
平台 -0.049272064 0.24464142 0.19364125 -0.032776527 0.030317059 -0.48310483 0.2105258 0.5000014 -0.21535371 0.0058377027 -0.12582226 -0.3850886 -0.14570422 0.1105718 -0.0045066862 -0.16180569 0.023874968 -0.35924736 0.030057594 -0.46855786 0.13645585 0.149947 -0.0798943 -0.18554938 -0.17205171 -0.07638382 -0.1792437 -0.33059356 -0.19204488 0.07510639 0.27722403 0.1620778 0.025303086 -0.15566555 -0.118449256 0.41605973 0.04773098 -0.36361066 -0.25366274 -0.524415 0.09364297 -0.26163247 -0.09212937 0.040678952 0.30143064 -0.1052376 -0.39095518 -0.07089326 0.12584554 0.13455474 0.033619475 -0.18877983 -0.0050772065 0.08571451 -0.13137014 0.20948358 0.049098358 -0.17683512 -0.34046465 0.20855738 0.1701459 0.057350904 -0.18119612 -0.20155765 -0.40359885 0.13515219 0.2437539 0.27913675 -0.31583437 0.22328848 -0.24587752 -0.008811825 0.1152464 -0.12031673 0.2605721 0.24182269 -0.05396298 -0.20741753 -0.12240229 0.1518689 -0.08386782 -0.14300434 -0.2963821 0.3949522 -0.026725218 0.019637778 0.14831963 0.34193602 0.3907569 0.05943887 0.32638314 0.1312899 -0.09923162 -0.027431307 0.38229868 0.4163563 0.1748707 -0.2463584 0.059120875 -0.06868978
高校 -0.048604734 0.20434803 0.17647682 -0.0069384766 0.028582554 -0.4521917 0.19223987 0.46113887 -0.20308763 0.0057760905 -0.12185351 -0.35931596 -0.12531562 0.10226781 0.009335489 -0.1380592 0.025706341 -0.31700185 0.012285308 -0.40891913 0.12943976 0.1381536 -0.08510175 -0.16363701 -0.14191937 -0.058371615 -0.177836 -0.293036 -0.17861281 0.07247759 0.24197379 0.16395104 0.01117768 -0.14702706 -0.11888862 0.3899679 0.038701743 -0.3451688 -0.2433442 -0.4875115 0.07363494 -0.23119183 -0.075938545 0.038720366 0.26770616 -0.09685173 -0.35237905 -0.06692122 0.10572863 0.12107146 0.04474263 -0.18679577 0.009681347 0.056745354 -0.13384145 0.18101981 0.047133204 -0.15031433 -0.31467387 0.20413902 0.15222733 0.043995086 -0.16572401 -0.19430535 -0.36975056 0.13992277 0.2009042 0.2638646 -0.27688855 0.1965446 -0.23421726 -0.008331197 0.09765585 -0.12255403 0.25103426 0.21516983 -0.044577654 -0.18390322 -0.108495854 0.121298015 -0.086548716 -0.124395885 -0.26428127 0.3482032 -0.024394082 0.02965795 0.14286676 0.306352 0.35660064 0.041899927 0.31069118 0.11591702 -0.08538128 -0.017593333 0.3551 0.3839482 0.1652554 -0.23256923 0.06181271 -0.075654164
机构 -0.060307987 0.23334238 0.20765482 -0.011603023 0.023303097 -0.48278856 0.2056088 0.49952337 -0.20663078 0.0042023235 -0.12830152 -0.3867231 -0.14053574 0.11563181 -0.009589763 -0.15047033 0.021850014 -0.36365184 0.017931024 -0.4520385 0.1314743 0.14418629 -0.082827725 -0.17090657 -0.16306666 -0.05691101 -0.19148546 -0.30939284 -0.19180308 0.065804265 0.2647848 0.17481107 0.0144683905 -0.14486821 -0.11836321 0.42437774 0.061101023 -0.3756044 -0.2562714 -0.53253967 0.078840785 -0.25114974 -0.08805106 0.04108353 0.29848543 -0.115434915 -0.39354032 -0.062116656 0.13068728 0.13423079 0.035863098 -0.1873149 -0.005040879 0.06933085 -0.13889723 0.19914538 0.05379537 -0.17368811 -0.3568031 0.20645908 0.16807492 0.055486675 -0.165606 -0.1922457 -0.4101985 0.1334049 0.23861821 0.28628227 -0.3022412 0.22845192 -0.23146488 -0.005367489 0.11412156 -0.11880852 0.27537453 0.255614 -0.052761015 -0.21269813 -0.11285217 0.14430343 -0.08407683 -0.13660169 -0.2841731 0.37784705 -0.028842017 0.01989441 0.16184638 0.34317178 0.37697655 0.057903517 0.3359178 0.1472694 -0.08229749 -0.027177563 0.39178196 0.4176144 0.1727946 -0.24394713 0.05871124 -0.071703754
设施 -0.061010014 0.26255414 0.21299098 -0.026289795 0.034397226 -0.51448107 0.21346983 0.5391058 -0.22742859 0.0067116837 -0.14150985 -0.4137218 -0.14569916 0.116780765 -0.0060289227 -0.16072147 0.034517348 -0.39948997 0.033284727 -0.5004084 0.14028917 0.16804461 -0.09476895 -0.19662575 -0.18741468 -0.06936072 -0.20669447 -0.34736174 -0.19793104 0.081586234 0.29359594 0.19189867 0.005392648 -0.17854404 -0.12557039 0.46923685 0.054105204 -0.40804076 -0.27867386 -0.57695055 0.09912612 -0.26465103 -0.106051415 0.038633745 0.33639255 -0.11662227 -0.43126535 -0.07189729 0.11954668 0.1321208 0.035607915 -0.20822735 0.0016355191 0.09179695 -0.13662581 0.22339375 0.049162768 -0.17986979 -0.3850819 0.23581757 0.1788882 0.058741063 -0.17940317 -0.21998794 -0.44306648 0.14805152 0.25735205 0.31046265 -0.3311018 0.23853119 -0.260388 0.01267934 0.11129706 -0.13770501 0.2800461 0.2714984 -0.051539805 -0.2373938 -0.116053656 0.13777737 -0.09110699 -0.15812327 -0.32271272 0.42459616 -0.02326176 0.021267762 0.17256892 0.37265596 0.41134214 0.068417445 0.34743577 0.14674294 -0.08275635 -0.028122038 0.42064556 0.4421208 0.1900766 -0.25845477 0.08093668 -0.08153346
30 -0.029907448 0.15781167 0.13077042 -0.0183491 0.03030884 -0.33704555 0.15344463 0.33861154 -0.15662542 0.016255857 -0.09003897 -0.2677177 -0.09884563 0.073053345 -0.0008882854 -0.09580393 0.020984037 -0.2508473 0.009893308 -0.32120493 0.09029043 0.111840315 -0.06316968 -0.12855037 -0.11950143 -0.036399048 -0.12158043 -0.2157072 -0.12825862 0.051202074 0.20547068 0.116455086 0.015025531 -0.11136281 -0.073117696 0.30605912 0.047000673 -0.25152522 -0.18010683 -0.37250134 0.071068786 -0.18527465 -0.072231114 0.03460181 0.20786326 -0.065799475 -0.2771632 -0.03546913 0.08380306 0.079472266 0.037568443 -0.1394193 0.004256532 0.057865743 -0.1051944 0.15141605 0.042339638 -0.104864515 -0.24992786 0.13666691 0.097942926 0.04286729 -0.124048546 -0.13707788 -0.27656236 0.10847779 0.16546251 0.19432087 -0.21196723 0.15817338 -0.17941605 -0.008172053 0.07862528 -0.078004695 0.18188514 0.15619259 -0.034000073 -0.13167553 -0.0768971 0.10114349 -0.066464655 -0.09963573 -0.20515984 0.2631781 -0.02636249 0.019254163 0.11011555 0.24211803 0.2682733 0.043890286 0.2244267 0.10812016 -0.06477595 -0.021333674 0.26409405 0.28135103 0.12095146 -0.17784083 0.059171773 -0.049670164
建筑业 -0.048078094 0.21232086 0.18988511 -0.024982834 0.030792939 -0.4317402 0.19390006 0.4462669 -0.198774 0.017133411 -0.11890434 -0.34524456 -0.12566198 0.091890045 0.006904295 -0.14176746 0.016805403 -0.3159963 0.013361479 -0.41443157 0.13388692 0.13504939 -0.08479334 -0.16007678 -0.1582386 -0.06427428 -0.15942739 -0.28084064 -0.17390554 0.06733698 0.25206763 0.14645402 0.014410467 -0.13599542 -0.1137642 0.37770444 0.05642177 -0.32491302 -0.22529538 -0.4738269 0.076224916 -0.2341207 -0.08115847 0.0482306 0.27208638 -0.0966028 -0.33961833 -0.05114366 0.1014591 0.12272409 0.04570717 -0.18175308 0.00581504 0.05715538 -0.122790165 0.18771471 0.037478037 -0.15474427 -0.31780854 0.18013796 0.13512762 0.05727554 -0.1506451 -0.18884328 -0.35196245 0.13123453 0.21707323 0.26369256 -0.28329423 0.19411129 -0.21487059 -0.001008139 0.10783673 -0.12065555 0.24123055 0.23087713 -0.0468319 -0.17469339 -0.102128506 0.12526533 -0.07681094 -0.13629413 -0.2689753 0.34931517 -0.026545903 0.0397726 0.1299378 0.29681018 0.34783638 0.05929758 0.29774824 0.1324255 -0.07258966 -0.03249716 0.36218506 0.3599469 0.14982346 -0.22643729 0.06966853 -0.07227989
100 -0.03804583 0.17640924 0.15103988 -0.02311978 0.021674233 -0.36990863 0.16254391 0.38051975 -0.16391937 0.011546545 -0.11136304 -0.27735236 -0.10493677 0.075891726 -0.002780631 -0.10680684 0.019314604 -0.27536997 0.0059840996 -0.352946 0.10540913 0.12190837 -0.068865426 -0.13478784 -0.12406516 -0.046378333 -0.14648104 -0.22890562 -0.14685826 0.06311527 0.20226765 0.13726316 0.0029582528 -0.11953256 -0.09124198 0.3185965 0.043633845 -0.27410176 -0.18915898 -0.4001382 0.06310332 -0.1991825 -0.06225525 0.037200462 0.23862453 -0.07488407 -0.2993954 -0.038321298 0.08272381 0.09831976 0.032657567 -0.14561376 0.002773144 0.05216805 -0.11006394 0.15590052 0.040659294 -0.116384275 -0.26989263 0.16188411 0.113453776 0.03343244 -0.13696347 -0.1527294 -0.29879382 0.1171406 0.18654718 0.22153378 -0.23536631 0.1648654 -0.17758904 0.0036341466 0.09310902 -0.084752746 0.2011837 0.1854846 -0.04395414 -0.144928 -0.0810595 0.10089016 -0.06522609 -0.095209844 -0.21733442 0.3002471 -0.010908548 0.019377071 0.12692343 0.26537222 0.28774476 0.039290316 0.26111874 0.11296585 -0.07398345 -0.026903598 0.29084194 0.31425524 0.13357368 -0.19542484 0.05770057 -0.048596133
推进 -0.048786104 0.24636075 0.2087433 -0.013488626 0.03963136 -0.49083894 0.21636643 0.5163399 -0.22420117 0.023135692 -0.13906927 -0.37727675 -0.15540093 0.11148672 0.0068368916 -0.15950899 0.022442147 -0.35734844 0.03020608 -0.471597 0.13677806 0.1639239 -0.094835535 -0.18300007 -0.1637965 -0.07749063 -0.19450821 -0.33758673 -0.19222267 0.08029973 0.27288273 0.17442407 0.027277058 -0.15877658 -0.11747293 0.43495226 0.05270515 -0.38190475 -0.2539517 -0.54448646 0.098362185 -0.26420268 -0.08952261 0.052486517 0.30972955 -0.10696335 -0.40622193 -0.055272777 0.12262725 0.12592864 0.0445893 -0.18580343 -0.009299177 0.077446945 -0.13553444 0.20628136 0.05113545 -0.16115819 -0.34940642 0.21125121 0.16208284 0.063802965 -0.17705184 -0.21662183 -0.41577527 0.13495485 0.23917933 0.2918426 -0.31977582 0.21935299 -0.24038896 0.00092315004 0.11922649 -0.12639476 0.28133643 0.24823208 -0.040234722 -0.21208899 -0.12987402 0.13581069 -0.08838311 -0.13866037 -0.29790232 0.3850975 -0.024685508 0.02816148 0.15470196 0.35712335 0.39818376 0.057633407 0.33911175 0.1439793 -0.101989605 -0.028237037 0.41032618 0.42483312 0.17870674 -0.254291 0.0735267 -0.08508631
执行 -0.039966162 0.20653972 0.17509456 -0.019993909 0.02998941 -0.4159248 0.1868536 0.44418487 -0.17688164 0.013286552 -0.11964011 -0.33549777 -0.13186592 0.093149565 0.0016999306 -0.12291263 0.021593006 -0.31094018 0.022550045 -0.4010916 0.11956319 0.14074172 -0.06331893 -0.15741469 -0.14835764 -0.05471923 -0.14931482 -0.26654986 -0.16426823 0.071002446 0.2478392 0.14023407 0.02591157 -0.13060734 -0.107032694 0.3687477 0.05899383 -0.3252163 -0.21421127 -0.4637817 0.06905339 -0.21419324 -0.084061034 0.04283072 0.26996404 -0.08432296 -0.3335678 -0.06391617 0.108428225 0.10047581 0.033138562 -0.15624046 -0.0058620176 0.069633 -0.12420804 0.16983815 0.05229502 -0.14055514 -0.29400516 0.1867448 0.14032593 0.049062163 -0.1577037 -0.16604023 -0.3570026 0.12486261 0.19514601 0.24726887 -0.2620254 0.18475895 -0.21832669 -0.007967218 0.08887915 -0.09697069 0.22594567 0.21103768 -0.04959339 -0.1841836 -0.109359555 0.12616624 -0.06638695 -0.12180124 -0.24303819 0.33608782 -0.0116597405 0.034034837 0.137766 0.296961 0.3217164 0.046111226 0.29172587 0.113490686 -0.07434002 -0.033434298 0.35012153 0.35656875 0.15036209 -0.21565735 0.066843845 -0.072403125
符合 -0.062002927 0.25607282 0.21142676 -0.024162624 0.036815427 -0.50401604 0.23060623 0.53751284 -0.21476814 0.005056464 -0.135917 -0.39271548 -0.15443729 0.120285906 -0.0075626895 -0.16305049 0.034749314 -0.37913796 0.026804494 -0.49097085 0.15517272 0.1576649 -0.093363345 -0.18753354 -0.16618718 -0.07755078 -0.19103396 -0.3415636 -0.20711105 0.07482507 0.28272742 0.18853159 0.015147685 -0.16807905 -0.124636546 0.45305178 0.06946615 -0.40004197 -0.27188697 -0.56069624 0.09007544 -0.27097458 -0.088922836 0.044635106 0.32972053 -0.11465548 -0.41736606 -0.05904936 0.13678953 0.13590805 0.04099599 -0.1978781 -0.0054786555 0.08396239 -0.14389294 0.21167746 0.06071389 -0.18086536 -0.36793855 0.21681315 0.1740826 0.06336953 -0.17804568 -0.2215463 -0.43621644 0.15500975 0.24916606 0.3009223 -0.33293635 0.23020051 -0.26656103 9.311864e-05 0.114874095 -0.1320437 0.2869078 0.2626738 -0.054753363 -0.22121553 -0.13141732 0.1461699 -0.08671195 -0.14573954 -0.31700203 0.41220284 -0.018791301 0.04060881 0.17103714 0.3527874 0.4075921 0.06791422 0.35445383 0.15039465 -0.09489487 -0.02870718 0.41872045 0.44616535 0.17794886 -0.26906437 0.07981938 -0.085732915
月 -0.06009524 0.27108485 0.22722365 -0.028809682 0.037070733 -0.5602555 0.24254553 0.5650366 -0.24525589 0.021127606 -0.15100092 -0.42775404 -0.15502624 0.114801556 0.010184084 -0.1742953 0.025886126 -0.39404228 0.025783574 -0.51771444 0.16352487 0.17722894 -0.08666605 -0.19290972 -0.18474306 -0.07791641 -0.20266195 -0.36553892 -0.20250344 0.086259164 0.3197694 0.19995902 0.01777726 -0.17235307 -0.13808937 0.48926246 0.0703722 -0.41337433 -0.29512402 -0.60942376 0.108583145 -0.28499055 -0.108500965 0.040628612 0.33897275 -0.119477 -0.45535234 -0.07406704 0.13855088 0.13111593 0.04641928 -0.22607268 -0.005603388 0.08313664 -0.16834812 0.2299719 0.04967913 -0.19348918 -0.39001656 0.24314053 0.19203584 0.06858352 -0.20436385 -0.23820181 -0.45139992 0.16533323 0.2718177 0.31806403 -0.3552261 0.24408694 -0.28987968 0.0021084656 0.1257438 -0.13069294 0.29422587 0.28727454 -0.05846515 -0.22414264 -0.14204568 0.15294199 -0.090772964 -0.17355482 -0.3417345 0.44232705 -0.038854584 0.043146156 0.17812096 0.37814802 0.43828478 0.06329904 0.38445446 0.16176695 -0.10570455 -0.03673168 0.45204553 0.4606463 0.20812987 -0.28076613 0.0738278 -0.09070605
运行 -0.052965373 0.26378238 0.24073659 -0.031249143 0.046647903 -0.56035477 0.23309371 0.58174855 -0.22756964 0.020978719 -0.15944622 -0.43942767 -0.17456365 0.12864272 -0.011460014 -0.17164694 0.021402506 -0.42600083 0.020292426 -0.52496123 0.16441455 0.18848386 -0.09675518 -0.20183712 -0.19026582 -0.07380722 -0.21715133 -0.3730611 -0.21889794 0.09401342 0.31154218 0.1974652 0.023235722 -0.1853823 -0.14805588 0.49942148 0.06717956 -0.42839032 -0.30475095 -0.6036683 0.10467892 -0.2941448 -0.10829761 0.050419603 0.358142 -0.13458686 -0.45746252 -0.08010451 0.15108727 0.15264863 0.037360147 -0.22710526 -0.0059782076 0.09763803 -0.14466667 0.24429932 0.072005585 -0.20115471 -0.40311787 0.23905776 0.1787909 0.05812605 -0.20358548 -0.23859076 -0.47665077 0.16136363 0.2688509 0.3194418 -0.3504406 0.2548434 -0.28899148 -0.0011366241 0.12185379 -0.13755022 0.3062775 0.2916478 -0.045870136 -0.25429177 -0.1447622 0.15514958 -0.086154334 -0.17564335 -0.34156033 0.44795582 -0.036060143 0.03466527 0.17016783 0.4035135 0.433423 0.073808245 0.3812599 0.1590575 -0.10337335 -0.035623785 0.4556679 0.4806229 0.19850188 -0.2724761 0.07019022 -0.09596292
组织 -0.062344413 0.25402728 0.20916699 -0.028228138 0.036511928 -0.5150361 0.22710556 0.5365107 -0.21303676 0.01253791 -0.1369879 -0.39270434 -0.13945056 0.114379786 -0.0019897295 -0.16355565 0.021848496 -0.37242728 0.023111776 -0.48792127 0.1529752 0.15371604 -0.091437325 -0.19778228 -0.1651276 -0.06722681 -0.19610219 -0.32781765 -0.19558765 0.06578338 0.2822807 0.17737885 0.010881798 -0.15248878 -0.11927886 0.44632185 0.057567235 -0.3939764 -0.2617259 -0.5621843 0.089948446 -0.27397102 -0.09693724 0.03735334 0.32066676 -0.12341107 -0.40426913 -0.07298659 0.12333617 0.13412042 0.033075888 -0.19697866 -0.0055507636 0.079157844 -0.13515687 0.21962573 0.05283472 -0.16664053 -0.36764666 0.2294689 0.17512706 0.047206167 -0.1787465 -0.22103134 -0.4267723 0.15437938 0.24215434 0.29394716 -0.32047063 0.23779097 -0.24806987 -0.009293008 0.12733848 -0.123583816 0.2746727 0.2570858 -0.048334435 -0.22772866 -0.12695861 0.15950446 -0.09109744 -0.15907207 -0.31267762 0.39669058 -0.025024451 0.03837348 0.16445422 0.3550217 0.40996855 0.04933911 0.3415639 0.13737115 -0.08318641 -0.034241434 0.40660083 0.42443788 0.18937732 -0.26024717 0.06753633 -0.07558869
予以 -0.055660915 0.22415075 0.19261822 -0.024294114 0.025098009 -0.44099778 0.18532397 0.4629054 -0.18776517 0.018610295 -0.13048625 -0.3468973 -0.13707998 0.10712646 0.008785942 -0.13927123 0.013739562 -0.320424 0.017372327 -0.41752127 0.121813126 0.13782531 -0.07746485 -0.15743183 -0.15807575 -0.065703295 -0.17012656 -0.29521304 -0.16627611 0.06658401 0.24956855 0.15038848 0.006349698 -0.13657536 -0.10880141 0.37727842 0.05896779 -0.3282291 -0.22728701 -0.486464 0.07918649 -0.22547159 -0.09014768 0.033216234 0.26791295 -0.09504808 -0.3670272 -0.055130623 0.11995894 0.1181203 0.027034737 -0.16826719 0.0045744325 0.059661064 -0.11991738 0.19637065 0.05365064 -0.15611559 -0.31290457 0.18861097 0.13808268 0.05258173 -0.1626869 -0.18644173 -0.37610254 0.12075787 0.2116587 0.26083156 -0.2795335 0.2087991 -0.2188204 -0.012559289 0.09600641 -0.11506157 0.2404972 0.2192725 -0.032593705 -0.18504313 -0.11678271 0.13639227 -0.079138674 -0.13764223 -0.2676719 0.36039504 -0.028648788 0.02453463 0.13998169 0.31810564 0.3539533 0.043431 0.2926078 0.12837929 -0.07830251 -0.025687931 0.3624147 0.37669638 0.15659434 -0.22115089 0.06387795 -0.06377345
省级 -0.04971225 0.23555402 0.18739942 -0.01843281 0.033394717 -0.46891415 0.21397951 0.48450726 -0.19650348 0.012243184 -0.11773572 -0.35605127 -0.1358939 0.10998441 0.005065242 -0.13642375 0.02534193 -0.3376987 0.014519761 -0.44522753 0.12552726 0.14122097 -0.07925764 -0.1686201 -0.1577911 -0.06158097 -0.16991818 -0.31127632 -0.17375295 0.07725593 0.27036446 0.16759978 0.017971184 -0.14264983 -0.122292824 0.39882946 0.05519867 -0.3512355 -0.24066237 -0.5092705 0.08923594 -0.24761343 -0.08005144 0.038185265 0.28378242 -0.10004772 -0.37172154 -0.06433199 0.11397603 0.12933037 0.028855655 -0.17906697 -0.006126895 0.081829324 -0.12634711 0.19850051 0.04635591 -0.1577406 -0.34042996 0.20018336 0.16106023 0.039866775 -0.1619444 -0.18869698 -0.37828013 0.1293929 0.2283464 0.2590492 -0.29399893 0.21913022 -0.22922294 -0.010596506 0.10699877 -0.12648638 0.25336915 0.24016008 -0.052733913 -0.18896392 -0.11897285 0.14255689 -0.075610615 -0.13348523 -0.28125215 0.3576198 -0.03185451 0.029845132 0.13746144 0.33713898 0.36801457 0.050327674 0.3262281 0.12941308 -0.08142216 -0.028439067 0.3824123 0.3949336 0.16224019 -0.23906225 0.058133967 -0.06707051
享受 -0.038083274 0.21082199 0.18254678 -0.026944485 0.037026536 -0.42708716 0.1856759 0.4352302 -0.1745806 0.0024742482 -0.11246692 -0.33527896 -0.12237576 0.10391494 -0.011626705 -0.12049972 0.010858747 -0.2998973 0.009489333 -0.40415105 0.113859154 0.13812642 -0.074546844 -0.15405671 -0.15176009 -0.047764793 -0.1566741 -0.28030172 -0.16637398 0.07167561 0.24261819 0.1395741 0.019949533 -0.13600634 -0.1001824 0.37426823 0.047573622 -0.31779954 -0.2150236 -0.4641029 0.078736424 -0.21644269 -0.08941938 0.036370814 0.26920292 -0.09165439 -0.3294887 -0.0558232 0.1147978 0.10109309 0.040362354 -0.17606153 0.0016426771 0.07342107 -0.120694615 0.18521723 0.032751556 -0.1439753 -0.29716223 0.17836867 0.14596415 0.039247498 -0.1503871 -0.16473855 -0.3434676 0.12131425 0.21193984 0.23604111 -0.27010983 0.19242263 -0.21407348 0.0034141047 0.106698826 -0.11241865 0.22825624 0.22324902 -0.046061177 -0.18839245 -0.10431793 0.11589411 -0.07233761 -0.12154442 -0.26213467 0.3335134 -0.027017724 0.024202365 0.13698663 0.299641 0.32788464 0.05728167 0.2859056 0.12899621 -0.07316406 -0.020454902 0.35148877 0.352649 0.14991404 -0.21659854 0.06557319 -0.07212523
燃煤 -0.05443294 0.2614247 0.21426381 -0.020213649 0.03440611 -0.5075184 0.22103146 0.5203398 -0.20780824 0.023941003 -0.15376657 -0.4157806 -0.14909211 0.12184804 -0.009389888 -0.14952168 0.016224908 -0.3874036 0.03410333 -0.48656663 0.14091757 0.17399009 -0.08583322 -0.19430406 -0.18876413 -0.07351578 -0.1853795 -0.34687713 -0.19616401 0.07947806 0.29706356 0.18050879 0.024167951 -0.15532906 -0.1384998 0.45976016 0.054085523 -0.40423262 -0.26792127 -0.5599858 0.10090491 -0.28214747 -0.09000991 0.036651667 0.31600848 -0.1126539 -0.42739707 -0.064979196 0.12304131 0.12828836 0.045278903 -0.20970838 0.0071005477 0.07768391 -0.14274177 0.22708315 0.06539877 -0.18209091 -0.38447136 0.2221207 0.1805559 0.06434213 -0.19225612 -0.20916648 -0.4230013 0.13875371 0.24604294 0.3024649 -0.334404 0.22509807 -0.24954171 -0.0036200155 0.11333925 -0.13146108 0.29298714 0.26884022 -0.053992864 -0.23290147 -0.113279566 0.14820659 -0.09150606 -0.16833693 -0.31968328 0.41694313 -0.022086814 0.020729445 0.1722089 0.35936382 0.40562233 0.05599101 0.35620093 0.14774524 -0.09071554 -0.038667217 0.41212767 0.4397248 0.17767787 -0.25963172 0.080946505 -0.07800928
工程 -0.050970327 0.25844434 0.2192115 -0.022806734 0.04262018 -0.5157042 0.22214174 0.5503136 -0.23163721 0.013639871 -0.15404052 -0.41641164 -0.1559614 0.12507997 -0.0013284124 -0.16422233 0.020223454 -0.37617213 0.030406836 -0.48739642 0.15079841 0.15313448 -0.08064896 -0.19519268 -0.17510171 -0.06746504 -0.18901962 -0.34453315 -0.20938517 0.080194816 0.30029017 0.18486333 0.018005162 -0.15375336 -0.12554505 0.44986215 0.06917465 -0.40199655 -0.27815 -0.5636906 0.0880636 -0.26762018 -0.10474277 0.039164014 0.31626517 -0.11446338 -0.41256875 -0.059126936 0.13447578 0.14262834 0.043826677 -0.21543026 0.00793913 0.072356425 -0.13925287 0.2199898 0.0531633 -0.17943293 -0.3669445 0.22116426 0.1745528 0.05799283 -0.184552 -0.22285873 -0.4454464 0.14107065 0.24752583 0.30538085 -0.33944175 0.24600454 -0.26002216 -0.011048415 0.119749255 -0.14094703 0.27702838 0.26400924 -0.048818465 -0.21306868 -0.12331699 0.1537454 -0.08091914 -0.15905824 -0.32443646 0.41748896 -0.034091298 0.028439939 0.17002168 0.36017522 0.40908942 0.0633253 0.35757676 0.14940694 -0.09500842 -0.023315433 0.42750466 0.4410696 0.18064246 -0.27246612 0.073015176 -0.08556863
人员 -0.073724076 0.29117528 0.24559689 -0.030015824 0.034565974 -0.6000302 0.27092126 0.6251368 -0.25138077 0.02375014 -0.16199695 -0.469662 -0.17066094 0.13747968 0.0053194435 -0.19593571 0.032668263 -0.43738252 0.034750074 -0.5735046 0.18611562 0.19339241 -0.107939936 -0.21326442 -0.20843266 -0.075995535 -0.23856635 -0.40134016 -0.2277768 0.09011133 0.33336103 0.21318689 0.013449051 -0.18405148 -0.13890664 0.52225447 0.07512035 -0.46112782 -0.3141882 -0.65415615 0.09877924 -0.31528804 -0.11871181 0.061446078 0.3674458 -0.12638976 -0.4854777 -0.07158796 0.15843213 0.16796362 0.04995118 -0.23949526 0.0011690058 0.09140271 -0.17224601 0.25991073 0.07118178 -0.19778253 -0.43019426 0.26819274 0.1991136 0.0680325 -0.21821459 -0.2581334 -0.5111686 0.17740813 0.2819102 0.36027107 -0.38829234 0.2720184 -0.30994046 0.0055372044 0.14821562 -0.1539633 0.33020225 0.30028078 -0.06269954 -0.24855457 -0.15671667 0.18165554 -0.10204526 -0.16830465 -0.36099333 0.48135325 -0.027320767 0.040992927 0.18365215 0.41827744 0.47402754 0.07013321 0.41446525 0.17018682 -0.11254206 -0.033000343 0.49073103 0.5201646 0.22494306 -0.30273288 0.08572687 -0.10417207
税收 -0.04341624 0.21870923 0.1955494 -0.01895609 0.04080803 -0.4501577 0.21222593 0.47599697 -0.20514551 0.00491707 -0.13622276 -0.35758942 -0.1223028 0.11197741 -0.004519845 -0.14281148 0.014942249 -0.32871726 0.025061414 -0.43103597 0.14582926 0.13294995 -0.08888391 -0.15876862 -0.15075873 -0.07367528 -0.1653438 -0.305808 -0.17727187 0.07388003 0.25133693 0.1697501 0.010979761 -0.14997709 -0.10414693 0.40688673 0.061362088 -0.34130108 -0.2396456 -0.5086968 0.08086582 -0.24082486 -0.08348572 0.05205188 0.29350066 -0.10149814 -0.37576345 -0.04886249 0.123482116 0.113984354 0.04541133 -0.17559725 -0.0015927526 0.07495326 -0.13884835 0.18629578 0.040488318 -0.1637168 -0.3370677 0.20467305 0.14137572 0.05991858 -0.16423255 -0.19350371 -0.39270955 0.12748808 0.22338438 0.27789903 -0.29237148 0.2143609 -0.23433249 0.0072566145 0.107450716 -0.12492741 0.2535162 0.232124 -0.035038583 -0.20208265 -0.1098845 0.13939005 -0.07142598 -0.13647483 -0.28015125 0.35580274 -0.018083412 0.020173747 0.15507303 0.33227116 0.3695169 0.060580757 0.3059938 0.14258812 -0.09261542 -0.01968543 0.36566263 0.38979244 0.16307464 -0.2320708 0.076182656 -0.06870218
区政府 -0.06536201 0.25369078 0.21848306 -0.0291513 0.03763159 -0.5112202 0.23208855 0.52687997 -0.21590722 0.025227822 -0.14298412 -0.41040525 -0.15278998 0.12004339 -0.010925432 -0.16828825 0.02523968 -0.37564063 0.014661093 -0.49070778 0.15862304 0.17329365 -0.09466005 -0.19905154 -0.17216998 -0.07544206 -0.19550355 -0.34537327 -0.20802443 0.07026655 0.29732153 0.18593897 0.008047332 -0.17224874 -0.1308368 0.4490448 0.049487785 -0.38785166 -0.26063257 -0.56953955 0.08923344 -0.26066995 -0.08780299 0.046686918 0.3132763 -0.12640524 -0.42005405 -0.06529919 0.13874494 0.13274011 0.0515814 -0.21228546 0.0028135923 0.08599175 -0.14918563 0.22561143 0.044585735 -0.1712556 -0.3809169 0.22375135 0.16585991 0.06252627 -0.17805421 -0.22359326 -0.42986932 0.13946415 0.23824601 0.30230603 -0.3187613 0.224039 -0.2466338 0.0019129831 0.11073683 -0.13421857 0.28651768 0.26790518 -0.04901746 -0.20913893 -0.12918961 0.14198586 -0.099284045 -0.14784116 -0.31408653 0.40021294 -0.034887187 0.034794413 0.17495449 0.35831016 0.40599203 0.05848616 0.3583965 0.15428941 -0.10344726 -0.043552972 0.40945557 0.4392279 0.1867359 -0.25209892 0.078556225 -0.06910279
环保 -0.048581775 0.25618574 0.225335 -0.022220587 0.035747867 -0.52769065 0.21939646 0.53597814 -0.23188923 0.025749592 -0.15580672 -0.42280343 -0.15072252 0.13072318 0.0018245797 -0.16852674 0.03340565 -0.38789552 0.02020595 -0.50126207 0.1509809 0.15775014 -0.09104369 -0.1858919 -0.18409082 -0.070567876 -0.19344886 -0.34114996 -0.21193783 0.08497219 0.29622203 0.19142193 0.016550185 -0.17530812 -0.12892252 0.44977218 0.07152563 -0.40868422 -0.27888164 -0.5653139 0.08996931 -0.2852878 -0.104374394 0.038329825 0.33547488 -0.12586854 -0.4313612 -0.07779398 0.14119846 0.13487169 0.035966862 -0.20760092 -0.00052109093 0.09138962 -0.147671 0.21829103 0.05080956 -0.19094509 -0.3693556 0.23770075 0.17770079 0.051214445 -0.19035558 -0.21289678 -0.4467186 0.15940732 0.2591538 0.30448082 -0.34032506 0.24653767 -0.2612046 -0.0050460603 0.12572223 -0.14267051 0.2786316 0.27284425 -0.048425693 -0.22686572 -0.11693918 0.14831017 -0.095586665 -0.16904418 -0.3095205 0.4139082 -0.019963082 0.03238361 0.1599856 0.3715322 0.42310745 0.057078548 0.3592235 0.1497554 -0.088278964 -0.036548764 0.42057264 0.43880674 0.18416134 -0.26019537 0.07098167 -0.081795596
申请 -0.032738876 0.19404772 0.16840422 -0.010619754 0.030110614 -0.3872115 0.17042059 0.4051237 -0.17445467 0.013652517 -0.1102949 -0.292902 -0.10604945 0.0818849 0.0008979502 -0.12433409 0.00935568 -0.28354234 0.016293898 -0.37389168 0.1148872 0.12218988 -0.074724086 -0.14554629 -0.1323976 -0.04865277 -0.14055526 -0.24676974 -0.14785144 0.05027316 0.22118638 0.14783153 0.023190016 -0.11470725 -0.09063749 0.34158126 0.039986167 -0.297229 -0.2032263 -0.42689842 0.07514198 -0.195324 -0.07309375 0.0260491 0.23539084 -0.09284128 -0.3200403 -0.04708144 0.10043184 0.0961853 0.025279112 -0.15392987 -0.0012176705 0.059358835 -0.10072719 0.16203402 0.029952208 -0.12418058 -0.26990893 0.1625349 0.13508753 0.046760645 -0.13948488 -0.16336918 -0.31654647 0.11991835 0.19503856 0.2192554 -0.2446557 0.16943876 -0.20337144 -0.0059551285 0.08836663 -0.1040859 0.2153538 0.19088393 -0.03484951 -0.16660519 -0.09340277 0.11951707 -0.057820044 -0.109847106 -0.23771955 0.31436512 -0.016081484 0.025451986 0.13299261 0.26681554 0.30829364 0.03645677 0.26793784 0.12162003 -0.079339184 -0.021692261 0.31824046 0.322087 0.1305254 -0.2006014 0.060535155 -0.058891747
