2483 100
企业 -0.16756035 0.51511705 -0.1407692 -0.16821687 0.34812745 -0.586119 0.3599909 0.6955446 -0.30088556 -0.1782575 -0.1736976 -0.373658 -0.16543551 0.38967776 0.31301033 -0.51103294 0.14356434 -0.03986964 -0.2689754 -0.8240923 0.14901845 0.09492395 0.51291746 -0.26993075 0.035283007 -0.14551707 -0.55260915 0.00022770192 -0.058871813 0.14162293 0.6973527 0.008565184 0.046248175 -0.24067272 -0.047578536 0.33356574 0.28985295 -0.16836125 -0.09930562 -0.4970807 -0.27239257 -0.23801541 -0.023374015 0.14016764 -0.02751506 -0.0902771 -0.29938507 0.314037 0.12916797 0.28453732 0.31586054 -0.25088066 -0.3917791 0.21303216 -0.09855913 0.35390934 0.51687044 0.20473546 -0.25401187 0.052436933 0.09505483 0.172511 0.077436544 -0.023504347 -0.90353465 0.40497214 0.31508598 0.23840298 -0.70125854 0.37555772 -0.26890233 0.14107564 0.27993244 -0.3390533 0.1989292 0.26566905 -0.20074068 0.19449995 -0.47848013 0.19003634 -0.034097675 -0.08847492 -0.40570304 0.73266673 0.024653124 0.13130671 -0.020650651 0.45425117 0.26612562 0.08236585 0.34734708 0.2864494 0.0955035 -0.35979724 0.97738594 0.2742845 0.19308516 -0.2539925 0.08473155 -0.09386396
万元 -0.71373737 0.6880959 0.42293778 -0.39909947 1.2595825 -1.6675621 0.025571054 2.1628578 -1.423869 -0.971523 -0.47574478 -1.3802197 -0.37740186 1.6915406 1.6795437 -0.94822806 0.55832916 0.044500057 -1.012213 -1.2784371 0.18191461 -0.21395612 1.2864766 -0.9328495 0.24306257 -0.3039872 -1.6606025 1.1140078 -0.14727959 0.5494944 2.1555665 -0.36884 -0.52527016 -0.74993575 0.26574892 0.7062561 1.1771914 -0.08133539 -0.19260037 -0.22636005 -0.5287292 -0.47821742 0.17212345 0.6409722 -0.022038657 0.40332174 -0.5390914 1.158818 0.5315285 0.6906141 1.2714857 -0.76596016 -0.86482865 0.3802588 -0.34642237 1.4651675 1.8073655 1.0131131 0.08049813 -0.30031192 -0.31867236 0.69756377 0.20402214 0.24703863 -2.3215706 1.5150998 1.0721737 0.42695525 -1.1753005 1.4275615 -0.20411292 0.072462834 1.0089033 -0.65413076 0.6695486 0.36825386 -0.040624913 0.2507766 -0.78117794 0.06815092 -0.6736615 -0.11100667 -1.7205858 1.4083632 0.26602525 0.3218322 -0.5771587 0.62006056 0.7627069 0.0015939133 1.0395597 0.28061947 0.012359427 -0.8241386 2.020916 1.1213046 0.73587066 -0.9679247 -0.1460766 -0.41690606
奖励 -0.41946012 0.46106517 0.21181566 -0.30980867 0.8241002 -1.1198134 -0.008990905 1.4805288 -0.95833343 -0.59909177 -0.27768284 -0.8720041 -0.19954571 1.1307093 1.1180828 -0.6493823 0.3845553 0.07479529 -0.6188143 -0.85788167 0.119464725 -0.168033 0.86253166 -0.6317551 0.184833 -0.22790344 -1.0822352 0.79403675 -0.04213234 0.32129124 1.4293563 -0.28529522 -0.33407587 -0.49497363 0.22448286 0.4253513 0.7906991 -0.05826092 -0.15463297 -0.13367653 -0.37440297 -0.35356638 0.13891369 0.4792555 -0.022942072 0.2909928 -0.39037699 0.7739124 0.37626234 0.40819982 0.8576781 -0.48860797 -0.6221869 0.2512437 -0.22210123 0.98852044 1.2103984 0.63743716 0.06466566 -0.27595845 -0.22228174 0.44340405 0.17510824 0.19417144 -1.5720019 1.0759894 0.74641526 0.33073044 -0.8465025 0.95482504 -0.16934334 0.052949432 0.69489 -0.40605348 0.44888628 0.26244104 0.0014097173 0.20084934 -0.58730745 0.09951286 -0.47780132 -0.122915976 -1.1662115 0.9574241 0.2114745 0.1975414 -0.39850378 0.37953648 0.494934 0.02625975 0.6704836 0.19950165 -0.009445987 -0.5684383 1.4269893 0.7355809 0.51568604 -0.58761483 -0.11705767 -0.283256
给予 -0.466905 0.48071462 0.24074101 -0.3658736 0.88626385 -1.2039467 0.05151774 1.515009 -0.912523 -0.6837749 -0.27114844 -0.87451375 -0.24830335 1.1676679 1.2021885 -0.64794785 0.39803463 0.04516867 -0.69202346 -0.9142458 0.06032996 -0.13195679 0.897572 -0.615806 0.15523064 -0.23337828 -1.1375713 0.775835 -0.079469554 0.35352287 1.5118192 -0.272782 -0.3653302 -0.52691185 0.20104273 0.51653975 0.8111145 -0.066450015 -0.19999559 -0.15294304 -0.36826408 -0.33445513 0.12668757 0.44362295 0.022971276 0.24267603 -0.39059284 0.823434 0.37574157 0.44534874 0.8848459 -0.509828 -0.64482564 0.28836524 -0.25475165 1.0699518 1.2566477 0.73209673 0.08733758 -0.26380816 -0.20818283 0.5006769 0.16525266 0.2094837 -1.62338 1.0655478 0.732468 0.30492154 -0.8461464 0.97220093 -0.14294057 0.056618188 0.7287187 -0.45206526 0.474501 0.28836977 -0.01669113 0.21451208 -0.56489426 0.07767967 -0.4562891 -0.06857961 -1.2136275 1.0141273 0.21592554 0.23044449 -0.41087654 0.44939706 0.50224394 -0.022449167 0.73358226 0.19573171 -0.017165996 -0.5708627 1.4518428 0.7660981 0.5203876 -0.64839584 -0.11881493 -0.29628497
项目 -0.17366922 0.5081709 -0.13401186 -0.169241 0.22487278 -0.49082494 0.34616652 0.5884762 -0.20539063 0.10693593 -0.26383767 -0.4149609 -0.22590001 0.25407693 0.10041322 -0.6661454 0.041077692 -0.14749907 -0.1887386 -0.8043657 0.20768707 0.044700768 0.52550775 -0.11278538 -0.043166403 -0.15817258 -0.4740722 -0.14309207 0.018243242 0.07606329 0.5216749 0.14276387 0.12647372 -0.12562451 -0.013506075 0.25913313 0.21118648 -0.23034087 -0.065622136 -0.5324286 -0.33949202 -0.32070398 0.037779447 0.090111546 0.025327358 -0.20681654 -0.10247916 0.28482074 0.010192309 0.19961187 0.33711362 -0.10281171 -0.2346281 0.13495643 -0.13095051 0.16831058 0.29088092 0.0022295793 -0.3907809 0.14638834 0.23748128 -0.00030584855 0.034730565 -0.031566147 -0.85330784 0.1502156 0.22996998 0.33895782 -0.6366638 0.27088195 -0.37224787 0.13910495 0.24086052 -0.26982632 0.1938757 0.4237814 -0.2835702 0.19298758 -0.36355454 0.2540167 0.12272399 -0.1355638 -0.27222234 0.5425971 0.0063004284 0.15159853 0.09958496 0.5306969 0.14116064 0.09298103 0.30696338 0.23406659 0.008712409 -0.3762696 0.9142771 0.15393846 0.15087248 -0.13182423 0.11953151 -0.120925106
补助 -0.47450694 0.4211134 0.320951 -0.34647483 0.8792896 -1.1988028 -0.024278246 1.5591365 -1.0209693 -0.7310229 -0.36033255 -0.97472066 -0.30593237 1.1569045 1.2147459 -0.71072346 0.33633298 -0.038640276 -0.7259872 -0.8341469 0.07563894 -0.11512081 0.8456709 -0.5962386 0.15871653 -0.25564298 -1.141893 0.77589923 -0.09439431 0.36118057 1.5272626 -0.2834715 -0.42416328 -0.53885967 0.16711444 0.5098161 0.81725806 -0.02599837 -0.11228079 -0.18697174 -0.40036768 -0.333012 0.18946366 0.47429663 0.007327139 0.31126446 -0.3748078 0.861143 0.33018106 0.52130175 0.93751764 -0.5016863 -0.5524636 0.26548165 -0.30117103 1.0619845 1.2869052 0.6749204 0.04740154 -0.2758605 -0.22835127 0.5247675 0.11571725 0.16811147 -1.6349336 1.0569445 0.7252148 0.3128906 -0.7954497 1.0302584 -0.10382834 0.06767521 0.76120484 -0.451402 0.53063685 0.2693673 0.052765913 0.14626928 -0.48797858 0.0026853476 -0.40350935 -0.09507151 -1.2664193 0.9231994 0.19787854 0.21618038 -0.4568273 0.46276847 0.46975455 0.0240901 0.79110014 0.18357792 -0.033603303 -0.54826945 1.351009 0.806558 0.48064354 -0.68474835 -0.06406238 -0.32726753
人才 -0.028048908 0.5125776 -0.2053199 0.081914134 0.05853005 -0.44602776 0.5056972 0.35609955 -0.083527274 0.11055797 -0.46688434 -0.39452174 -0.27359307 0.012232089 -0.42030454 -0.8215281 -0.037543625 -0.42448047 -0.16837269 -0.99255407 0.3438566 0.19043882 0.38111424 0.0060113976 -0.08628303 -0.16000906 -0.36542186 -0.59684056 -0.08168941 0.067345895 0.33303916 0.4004195 0.25958154 -0.020985164 -0.3893032 0.28035754 -0.036695622 -0.5160597 -0.102923416 -1.0661212 -0.2686148 -0.2997891 0.003471469 -0.14313056 0.1170303 -0.2620194 -0.23056343 0.026820818 -0.1216142 0.42836785 0.28172293 0.018189002 -0.11620742 0.04151135 -0.20576032 -0.18224889 -0.01860364 -0.2607129 -0.7854795 0.37136516 0.44192016 -0.08475008 -0.07893669 -0.13299961 -0.81389403 -0.08116456 -0.005806472 0.23381998 -0.7352618 0.06686979 -0.54677373 0.22414394 0.07748388 -0.39289567 0.19834554 0.39712813 -0.35911307 0.08769244 -0.389618 0.2566955 0.48719895 -0.047585268 -0.07823599 0.6229272 -0.1343807 0.14150032 0.3429678 0.6794435 0.08296949 0.15187283 0.2974431 0.34255466 0.12627009 -0.18583874 0.7601617 0.043098975 -0.10845926 -0.17171814 0.36389908 -0.11231395
创业 0.07449739 0.28165457 0.049560454 0.22947831 0.15731965 -0.3736302 0.52350694 0.101059966 -0.11676457 -0.21947928 -0.7477727 -0.42138416 -0.36383492 -0.020238437 -0.1678147 -0.7639447 -0.14860418 -0.7841492 -0.45055526 -0.952092 0.22657166 0.50365025 0.102100186 -0.0012135977 -0.14979023 -0.24045098 -0.3514136 -0.76998556 -0.55514354 0.1822566 0.5030391 0.30589017 0.059536878 -0.44695738 -0.6759934 0.47952077 -0.11012063 -0.2717648 -0.18628469 -1.0976443 -0.14807622 -0.051352832 -0.12304568 -0.0607243 0.2794314 -0.17093472 -0.29388776 0.09542005 -0.09182178 0.82489 0.1978006 -0.049486868 0.052663658 -0.13463205 -0.1075508 -0.16386114 -0.12830599 0.05417867 -0.86495686 0.5856023 0.46357378 0.17742765 -0.33601475 -0.00045269792 -0.68922573 -0.21215652 -0.08041178 0.086629584 -0.49285465 0.34502277 -0.23271286 0.26560485 0.26079565 -0.74028164 0.27299646 0.23499702 -0.23526579 -0.10273799 -0.049706668 -0.1138591 0.41721594 0.20225759 -0.4152077 0.48619905 -0.19633459 0.118235365 0.25542924 0.95163274 0.31380546 0.2801912 0.6029745 0.28270587 0.26501766 0.15312865 0.33870682 0.16084942 -0.43872455 -0.44666156 0.5961541 -0.4451451
发展 0.015116526 0.8681167 -0.46317008 0.19274823 -0.17405178 -0.2096037 0.8094256 0.12032298 0.15893823 0.38315675 -0.6010828 -0.3289531 -0.2058576 -0.56244504 -0.89372873 -1.0693027 -0.29663908 -0.6293962 -0.000375627 -1.0389302 0.6557165 0.4285018 0.4128063 0.11706064 -0.1666589 -0.19490504 -0.13765928 -1.2515486 -0.021373194 -0.03522621 -0.04373664 0.6047905 0.5808569 0.2003259 -0.56042993 0.29626632 -0.3146306 -0.653298 0.031181144 -1.5216246 -0.3643898 -0.30166247 -0.019238457 -0.3173127 -0.034430362 -0.61878574 -0.11490486 -0.24147739 -0.2931516 0.38504064 0.09942634 0.12988995 0.02121866 -0.069313765 -0.13984129 -0.6374606 -0.38827482 -0.646912 -1.1271517 0.6195331 0.7207534 -0.28056195 -0.09529867 -0.36193722 -0.7014625 -0.46153486 -0.1428848 0.45004582 -0.94216084 -0.28458118 -0.75472045 0.33076206 -0.14454058 -0.33728635 0.062249955 0.5057719 -0.7026172 0.12332136 -0.58527446 0.49671596 0.85031986 -0.15981197 0.40844426 0.7265413 -0.2789653 0.15476371 0.66402525 0.9458811 -0.016429745 0.2698611 0.15362509 0.57826173 0.3262781 -0.27136233 0.8909551 -0.13647136 -0.26203173 0.11142054 0.6567751 -0.062995985
1 -0.2994467 0.19946663 0.2818594 -0.029298699 0.56466424 -0.8800625 -0.09447053 1.0905644 -0.81336564 -0.65812737 -0.4667469 -0.8635664 -0.2787084 0.7556789 0.65690506 -0.5480609 0.13429165 -0.19474791 -0.4987338 -0.5557793 0.1715105 0.007871196 0.41535702 -0.3142432 0.106449924 -0.15960811 -0.8104076 0.3751005 -0.17002696 0.2610247 0.9875227 -0.018879697 -0.29298854 -0.3510937 -0.132133 0.39108315 0.4891423 -0.14207746 -0.023534624 -0.4047532 -0.2583081 -0.12984933 0.115775436 0.20826395 -0.004241263 0.22727405 -0.26269904 0.47659838 0.18546334 0.6331297 0.68133324 -0.26032463 -0.18936619 0.06915692 -0.2631925 0.5509948 0.7270089 0.3543149 -0.06730061 -0.0438117 -0.04923822 0.40496886 0.039844405 0.020142598 -1.1483817 0.63189906 0.41176882 0.104895405 -0.5322266 0.7454962 -0.04448238 0.10709329 0.38007918 -0.399102 0.50071466 0.046922404 0.09064896 -0.086286105 -0.28697833 -0.1351554 -0.06918358 0.0016415818 -0.88810086 0.6880169 -9.285906e-05 0.13788292 -0.23959132 0.40203384 0.31034058 0.06661047 0.5673652 0.15389244 0.11625943 -0.24656 0.7318842 0.4960369 0.18662086 -0.51003253 0.15868637 -0.2098502
建设 -0.08920112 0.676717 -0.25231504 -0.0064460128 0.059186473 -0.4296105 0.57403874 0.38303053 -0.03225801 0.12669002 -0.47717384 -0.41719812 -0.22503191 -0.10825229 -0.37833983 -0.9257071 -0.12131367 -0.44858184 -0.11765576 -0.9793599 0.3980048 0.24818085 0.47284436 -0.0004930583 -0.10918436 -0.18153764 -0.30802286 -0.7296498 -0.06340602 0.09100872 0.30257514 0.38411555 0.3136626 0.04686713 -0.38507065 0.3243949 -0.07049985 -0.52148545 -0.045715794 -1.1045853 -0.35432288 -0.29608127 -0.017453888 -0.14938633 -0.0017310395 -0.44286907 -0.16018191 0.01688593 -0.16576505 0.40768114 0.24678239 0.026742894 -0.11702864 0.07470945 -0.14780986 -0.22915994 -0.039830126 -0.27788532 -0.80865484 0.4338028 0.4983773 -0.0979005 -0.07411479 -0.20132299 -0.8518945 -0.14900705 0.021695478 0.30989036 -0.77532977 0.027579729 -0.544209 0.27329087 0.027004728 -0.381967 0.16732232 0.52305436 -0.47132406 0.11559516 -0.46409938 0.37200284 0.5622917 -0.093262576 0.031424444 0.7169202 -0.18666926 0.18819453 0.33490512 0.8226933 0.12597613 0.18459247 0.3009394 0.43330476 0.16687343 -0.26178196 0.879938 0.019735781 -0.07611418 -0.107423685 0.4486393 -0.12506443
超过 -0.45783842 0.38387442 0.40224603 -0.2873682 0.94813615 -1.2121152 -0.04850664 1.557084 -1.0692054 -0.8432973 -0.41167465 -1.041281 -0.33588842 1.1906805 1.3220303 -0.70495903 0.32339767 -0.11625661 -0.8316167 -0.84853894 0.052101128 -0.07477512 0.7853098 -0.6142071 0.1429783 -0.27578795 -1.1943811 0.77929145 -0.19624889 0.3808965 1.5929307 -0.28164774 -0.48383597 -0.6251971 0.09610988 0.556697 0.8213745 0.0100241015 -0.14410812 -0.21300963 -0.4090653 -0.2556867 0.18410315 0.49576208 0.030375548 0.3565735 -0.3678055 0.87721753 0.3338859 0.6640294 0.92951363 -0.5428877 -0.51292455 0.2443981 -0.30321953 1.0842292 1.291229 0.78978586 0.0477737 -0.21950479 -0.23657537 0.62153745 0.06390393 0.1838314 -1.6553719 1.0528116 0.71857107 0.265171 -0.7571688 1.1246194 -0.017014483 0.09642618 0.7887948 -0.53157866 0.57206917 0.1919863 0.096666634 0.10048019 -0.41401696 -0.13649113 -0.41898254 0.0074818744 -1.3992993 0.909459 0.19101973 0.23309752 -0.49075806 0.49342662 0.5491377 0.041921027 0.8551348 0.14264633 0.011018562 -0.45548737 1.2487298 0.8339113 0.42375997 -0.77599186 -0.021608787 -0.37555414
年 -0.37633276 0.1285041 0.52270794 0.057538778 0.64936185 -0.95213217 -0.3256209 1.2758089 -1.0798897 -0.8733761 -0.67700434 -1.200848 -0.36401007 0.80844724 0.641498 -0.659397 0.07046505 -0.21757309 -0.5316992 -0.3337755 0.21223879 -0.08304643 0.39776188 -0.27473414 0.12018493 -0.1074626 -0.8582162 0.48120412 -0.23483592 0.35098976 0.9471273 0.05799269 -0.43868393 -0.31704623 -0.23285805 0.3484241 0.4839585 -0.2904777 0.07177743 -0.49868593 -0.29191157 -0.024712754 0.16671099 0.15391749 -0.13776791 0.3179555 -0.15857637 0.39139134 0.11694514 0.82086766 0.87931836 -0.31235653 0.01471704 -0.076411664 -0.40201983 0.475397 0.7614129 0.30211353 -0.04339403 -0.040301137 -0.053215664 0.40142706 0.024375103 -0.10269219 -1.2219181 0.6895353 0.48156872 0.046617895 -0.534956 0.842919 -0.00011674199 0.11952464 0.3171121 -0.35168022 0.6221278 -0.034217544 0.17974126 -0.28914085 -0.28822944 -0.28711432 -0.0007735772 0.04212283 -0.9356286 0.6705596 -0.11826841 0.09700812 -0.16523714 0.36680713 0.25552148 0.07231345 0.60485744 0.10317802 0.17427906 -0.24640758 0.5751231 0.5483636 0.23597218 -0.5984341 0.27543548 -0.19657423
鼓励 -0.10429149 0.5916881 -0.23416734 0.013356111 0.096493535 -0.43156758 0.4812771 0.37414256 -0.096193686 0.050352197 -0.42157987 -0.36739364 -0.23736356 -0.02471268 -0.23051761 -0.74530226 -0.043872084 -0.35099477 -0.15687054 -0.8673653 0.3401693 0.21330297 0.4049405 -0.049731262 -0.05449704 -0.14524391 -0.34019357 -0.570088 -0.09596646 0.10412469 0.37333855 0.29944697 0.234818 -0.050497852 -0.31106257 0.29561558 -0.0131091215 -0.39705923 -0.04048685 -0.929093 -0.29156283 -0.24345005 -0.0058464413 -0.080588385 0.0026680145 -0.30120566 -0.18601035 0.048231915 -0.07514014 0.37926745 0.2441646 -0.04490204 -0.14783914 0.07887433 -0.16487418 -0.10970144 0.06912433 -0.16154794 -0.65881246 0.339771 0.39821294 -0.0036075981 -0.051962852 -0.14822152 -0.7414155 -0.03625056 0.091112934 0.2773423 -0.7031017 0.09458141 -0.46114072 0.20369768 0.06547816 -0.353608 0.16062152 0.3890171 -0.37773284 0.12232091 -0.40924957 0.267477 0.40526068 -0.07390057 -0.063085884 0.65268177 -0.11944892 0.1245289 0.27955586 0.69513786 0.13607171 0.14808272 0.28447846 0.38722587 0.15970209 -0.24343893 0.7833831 0.058882184 -0.031526115 -0.15547624 0.3451343 -0.09392601
政策 0.005256936 0.55530417 -0.17592213 0.13514654 0.0013890243 -0.42378616 0.5277057 0.34764853 -0.10970665 0.08237038 -0.55182445 -0.5245456 -0.30940422 -0.22981665 -0.5678557 -0.86717814 -0.118792124 -0.55154884 -0.13954799 -0.8302297 0.48079142 0.294608 0.31997082 0.08039022 -0.13473432 -0.15057002 -0.23070516 -0.7503931 -0.039462566 0.006382887 0.17670675 0.40649757 0.33167273 -0.03744728 -0.47116584 0.23346457 -0.053631604 -0.42862186 0.045530777 -1.1335754 -0.22523013 -0.24332011 0.08056864 -0.09651729 0.05636059 -0.26757836 -0.17050345 -0.059561156 -0.23058198 0.5023034 0.33728024 0.07102154 0.050063007 -0.13918065 -0.24724452 -0.33211744 -0.12118891 -0.36434174 -0.8687898 0.4839957 0.43810317 -0.1300754 -0.15484859 -0.21470545 -0.73133504 -0.18629394 -0.018206868 0.32560351 -0.74376816 0.053583547 -0.567909 0.25332996 0.10057495 -0.33548474 0.21562232 0.36402586 -0.3520166 -0.028217325 -0.37972224 0.28432122 0.53730047 -0.06135033 0.055988282 0.52118707 -0.16403553 0.122759245 0.46716544 0.7838804 0.029061923 0.21705733 0.2986768 0.41412392 0.2321619 -0.16718608 0.68744385 -0.009465326 -0.20862643 -0.060630172 0.50816286 -0.08660123
单位 -0.24604632 0.44523233 0.09655941 -0.030647883 0.26042253 -0.6823265 0.17484096 0.7251706 -0.40481314 -0.084931746 -0.41253582 -0.6521224 -0.30836922 0.4534615 0.16526942 -0.75876784 0.04593789 -0.31386656 -0.3052456 -0.69552916 0.22741933 0.01317515 0.53285134 -0.18741342 -0.0111952005 -0.14363053 -0.5589304 -0.02607265 -0.06399074 0.1113952 0.63970524 0.102768615 -0.019711796 -0.11981617 -0.09347021 0.2814266 0.3517989 -0.3667173 -0.07867466 -0.5052204 -0.36119387 -0.3226948 0.06317935 0.07841575 0.0005709032 -0.011302873 -0.16222481 0.33070236 0.056118663 0.3359933 0.49823225 -0.08603067 -0.17703584 0.100807734 -0.2320702 0.2319309 0.37065566 -0.0063135354 -0.4121828 0.14767043 0.1767735 0.09469875 -0.05578866 -0.03235051 -0.91001284 0.17510048 0.21332163 0.3265128 -0.57606643 0.41580322 -0.39294672 0.10315066 0.28128427 -0.3774453 0.29493082 0.43911043 -0.2657312 0.09802479 -0.29058233 0.20963185 0.08344791 -0.10536302 -0.4010621 0.6290527 0.0046689776 0.17571414 -0.01010826 0.5617198 0.22149849 0.16848071 0.40141085 0.26920307 -0.019414539 -0.37429127 0.8578251 0.29390362 0.0878725 -0.28311175 0.15033557 -0.16997088
3 -0.2982433 0.24961194 0.2587676 -0.11124361 0.5863621 -0.8872726 -0.030469537 1.0717552 -0.75169295 -0.5970444 -0.41152635 -0.78919774 -0.2624957 0.80423546 0.6874087 -0.54348963 0.16455704 -0.15615031 -0.50858927 -0.6208069 0.15977788 -0.0012912297 0.49770808 -0.34929478 0.1005893 -0.14288104 -0.79452026 0.38209412 -0.15304488 0.2618177 1.0305861 -0.079611674 -0.27750978 -0.39620146 -0.060215663 0.3894313 0.50606257 -0.13708173 -0.09269443 -0.37220404 -0.28676173 -0.19084965 0.10404283 0.24778603 0.017663665 0.20486827 -0.3008178 0.49975553 0.21642901 0.5486348 0.6594645 -0.30015844 -0.27508235 0.10962281 -0.22985046 0.6199379 0.7657846 0.39580604 -0.089274205 -0.07744563 -0.057907928 0.38147974 0.033978347 0.07484056 -1.1572877 0.67568684 0.41506454 0.15810534 -0.55343944 0.7500392 -0.08478687 0.106447764 0.43395767 -0.4056444 0.44986972 0.11516134 0.04954232 -0.01601185 -0.32423347 -0.06849403 -0.14100865 -0.03408284 -0.8860788 0.69214195 0.03863586 0.1557976 -0.25574118 0.403142 0.32260624 0.061486706 0.59082514 0.15699524 0.07380075 -0.2928681 0.82398593 0.52815217 0.22050945 -0.51206505 0.0730179 -0.22476003
旅游 -0.12981358 0.645407 -0.22532718 -0.026506256 0.08148328 -0.43140435 0.5315698 0.43292573 -0.046279848 0.13923915 -0.44070345 -0.41357702 -0.15751468 -0.09419542 -0.31920877 -0.8869762 -0.105600834 -0.38213557 -0.065580525 -0.8681678 0.41935414 0.18800943 0.47622243 -0.06679998 -0.07008637 -0.18840006 -0.3144331 -0.6476268 -0.014524915 0.072804175 0.24597603 0.33578512 0.3065332 0.057703905 -0.2777936 0.27372664 -0.05887605 -0.45970005 -0.01702695 -0.96466464 -0.28708333 -0.3300976 0.016721224 -0.13403063 -0.022775661 -0.4096925 -0.13918065 0.009108315 -0.11902652 0.2813017 0.2744324 0.07143363 -0.085192084 0.061871856 -0.09408758 -0.20380583 0.0004649089 -0.30086565 -0.70946807 0.35277414 0.4080858 -0.12755015 -0.069972046 -0.13816553 -0.77667564 -0.10654748 0.053299565 0.34477624 -0.7092322 -0.014817407 -0.51320225 0.19912252 0.059061375 -0.29559827 0.18584718 0.49271718 -0.45610216 0.18182552 -0.47453773 0.42783836 0.45703146 -0.10720091 0.032502674 0.6945885 -0.10931805 0.20860772 0.31027627 0.722551 0.13450956 0.14721589 0.29179892 0.42075706 0.13503955 -0.32606992 0.9223127 0.07211785 -0.08441224 -0.05134777 0.34373876 -0.11571795
10 -0.4001026 0.34808207 0.2994504 -0.25065696 0.81352514 -1.1079001 -0.11460219 1.4629565 -1.0194011 -0.69224846 -0.31764552 -0.91065615 -0.17890255 1.191707 1.1479723 -0.595957 0.36766115 0.034381088 -0.6000693 -0.7271937 0.17092516 -0.18971981 0.79947734 -0.59671646 0.17619881 -0.22027971 -1.1262445 0.8526371 -0.07070437 0.30850303 1.4230318 -0.27348864 -0.3918517 -0.5210771 0.2162881 0.39684266 0.78491914 -0.052620407 -0.15094894 -0.113255866 -0.35907236 -0.29879814 0.17346446 0.477056 -0.035990957 0.34344694 -0.40289265 0.77992916 0.42033708 0.46529534 0.8448338 -0.48707467 -0.558342 0.20918354 -0.16658092 1.0157182 1.1777165 0.69290584 0.12935162 -0.2948706 -0.24647634 0.49112198 0.17474972 0.2165762 -1.5213449 1.0983878 0.73399794 0.27658862 -0.7494718 0.98092866 -0.08362909 0.051947825 0.6744764 -0.42798644 0.5101037 0.16779773 0.050459348 0.12810932 -0.5339972 0.006316818 -0.52408767 -0.08336515 -1.2282178 0.93846554 0.20283249 0.19237016 -0.4169249 0.37378967 0.49501523 0.034974717 0.7083092 0.14304572 -0.007015192 -0.48267904 1.2640585 0.7435888 0.49737135 -0.6202597 -0.11379199 -0.29634666
服务 -0.06446714 0.5814928 -0.19838311 -0.013224023 0.093250595 -0.393002 0.5553141 0.30032697 -0.016839143 0.06443405 -0.43145564 -0.3307495 -0.23797797 -0.0017850049 -0.22125843 -0.786302 -0.060884066 -0.4313511 -0.20654117 -0.90147185 0.27883992 0.26666126 0.36311764 -0.06823787 -0.1154788 -0.1607174 -0.28985813 -0.6286475 -0.1271862 0.14169863 0.4117001 0.31132776 0.19943792 -0.05282583 -0.40608898 0.35967538 -0.024034552 -0.41019124 -0.09576112 -0.97056544 -0.3025057 -0.21015534 0.0034849546 -0.10157005 0.0417851 -0.32725963 -0.20170054 0.07799474 -0.10284554 0.42018852 0.20480482 -0.043409765 -0.16981155 0.108470395 -0.14688192 -0.105692886 0.07217188 -0.10024061 -0.68797666 0.35222 0.44709575 -0.015494411 -0.086351566 -0.17039071 -0.75294113 -0.08120306 0.015580547 0.21309212 -0.6914938 0.09583658 -0.47099894 0.22802578 0.07285768 -0.45368284 0.15452051 0.41964963 -0.37074408 0.120781094 -0.37206987 0.26535618 0.42103517 -0.03592663 -0.096541986 0.6405445 -0.10350449 0.14857627 0.23091827 0.7365335 0.16117814 0.12939052 0.30335313 0.38217628 0.13192551 -0.19796751 0.7467029 0.028140057 -0.112227954 -0.1706967 0.40050358 -0.12934771
创新 0.04206545 0.5735689 -0.31840587 0.09534558 0.023415461 -0.31427413 0.61257106 0.22670367 0.054261763 0.14524664 -0.4607814 -0.25656575 -0.1828447 -0.13667549 -0.44440392 -0.8007394 -0.11279254 -0.41744497 -0.13750234 -1.0125428 0.35627332 0.3164563 0.31317747 0.044411898 -0.11240588 -0.21198572 -0.27620763 -0.7830723 -0.14598317 0.06187966 0.25978205 0.37025633 0.33268324 -0.066801645 -0.45231813 0.32555562 -0.12094504 -0.42673892 -0.10476804 -1.0870442 -0.25413367 -0.24324262 -0.09503588 -0.11585626 0.087764874 -0.39684305 -0.24167706 -0.038182028 -0.110889375 0.4257403 0.15772028 -0.016246645 -0.14614657 0.0043225973 -0.09970573 -0.23206897 -0.100027956 -0.23174588 -0.8460367 0.43050936 0.51705223 -0.06909169 -0.092435665 -0.16296542 -0.7614214 -0.13395116 -0.030358374 0.23953974 -0.7287652 0.006300382 -0.5082193 0.24011423 0.03279493 -0.42230764 0.14973162 0.41735506 -0.46172154 0.14419268 -0.44153506 0.28355047 0.4848552 -0.021828026 0.018909134 0.64249575 -0.19356313 0.16599873 0.4108193 0.7558796 0.13515584 0.18561623 0.28446722 0.3898532 0.23296058 -0.11073688 0.7897204 -0.016443586 -0.16272186 -0.11084401 0.4031046 -0.15829955
工作 -0.057162408 0.5463867 -0.095459424 0.16488084 -0.015448487 -0.38704363 0.46270162 0.28166842 -0.07292673 0.12445777 -0.56484145 -0.46309957 -0.3009018 -0.06937639 -0.46893537 -0.9249357 -0.14853607 -0.59468365 -0.16194819 -0.82407993 0.39809588 0.21487755 0.35259262 0.055529542 -0.121476375 -0.1459586 -0.26489365 -0.69067186 -0.13236885 0.08113355 0.27627403 0.39595976 0.24878588 0.0140846865 -0.45141384 0.25401485 -0.050718352 -0.5700283 -0.044977825 -1.0953149 -0.33118105 -0.2518105 0.016316283 -0.18784267 0.025128152 -0.300433 -0.1435584 -0.0018174989 -0.17960416 0.4922382 0.3100751 0.10476231 0.007346873 -0.01708396 -0.2168284 -0.31939244 -0.13587002 -0.33215758 -0.88439083 0.440096 0.48870555 -0.058523595 -0.17688808 -0.20358576 -0.7182752 -0.26799655 -0.03816969 0.29321137 -0.6526198 0.07306237 -0.5446894 0.24317124 0.009607193 -0.4307235 0.1955448 0.4456213 -0.426413 0.045293707 -0.26479858 0.28628215 0.54480857 -0.055400483 0.01120549 0.5759977 -0.20949994 0.13962293 0.35002527 0.79259515 0.07394193 0.23560393 0.330955 0.38090393 0.14217514 -0.194607 0.6412083 0.0118465675 -0.22079277 -0.150442 0.45226413 -0.14962104
新 -0.12596138 0.5105155 -0.2254794 -0.117365286 0.2893315 -0.64182717 0.35360852 0.6029783 -0.20359352 -0.0867232 -0.22246963 -0.36396793 -0.103184246 0.27409196 0.08796338 -0.5473308 0.09662757 -0.107686706 -0.107032776 -0.8830232 0.17611757 0.0997372 0.46593094 -0.1976871 0.041751117 -0.12283048 -0.5187093 -0.11878328 -0.037433803 0.05272232 0.4864402 0.14930005 0.15766539 -0.17385295 -0.09156191 0.26413882 0.1914629 -0.35960612 -0.19077295 -0.5612484 -0.22145677 -0.3066829 -0.14353323 0.05054409 -0.03403759 -0.21803191 -0.26876378 0.15406023 0.08228386 0.20348558 0.34146848 -0.16771114 -0.3320375 0.22694351 -0.10228947 0.18052244 0.3048509 0.00201542 -0.31153506 0.07476789 0.16038153 0.008061097 0.09396582 -0.002077844 -0.84410936 0.34124342 0.20410816 0.21783009 -0.7978336 0.25368276 -0.4313763 0.1602058 0.24605149 -0.34742838 0.13416098 0.34582618 -0.35072905 0.18208958 -0.5612972 0.31862485 0.0677708 -0.08061047 -0.23268963 0.72592765 0.020694904 0.15109657 0.10565675 0.49759182 0.24909765 0.06625469 0.29189855 0.34225073 0.028097197 -0.36510795 1.0640973 0.20990199 0.14564234 -0.14813772 0.10872935 -0.081156105
5 -0.38083944 0.31084517 0.299634 -0.20143823 0.6962306 -1.0425326 -0.08988922 1.3114748 -0.91555464 -0.6767428 -0.37816215 -0.8607278 -0.23606299 1.0430429 0.9740306 -0.57960397 0.29754782 -0.06391688 -0.5628583 -0.69281673 0.18017562 -0.098813355 0.6801429 -0.50494576 0.13196848 -0.16436362 -1.0028578 0.6617294 -0.09535912 0.31243846 1.2929705 -0.18635632 -0.36633095 -0.47092363 0.08022791 0.4005031 0.6774657 -0.089696586 -0.13370629 -0.22404301 -0.32755637 -0.2305475 0.16774814 0.35145998 -0.015723089 0.27489796 -0.36481178 0.6736784 0.33044142 0.5296129 0.7948481 -0.3940451 -0.4368929 0.17851026 -0.2193315 0.86744845 1.0468565 0.5970759 0.040890653 -0.21350946 -0.17901003 0.46005493 0.1125495 0.15295671 -1.384559 0.93368614 0.6092518 0.20905583 -0.662909 0.9063943 -0.10051304 0.074571185 0.5502442 -0.43216828 0.51005155 0.14995536 0.06835707 0.056877166 -0.45667803 -0.016993545 -0.3577292 -0.06306627 -1.0899818 0.8623076 0.12038292 0.17038317 -0.3708824 0.3918824 0.40197423 0.06731817 0.66596025 0.13999365 0.019189298 -0.43463045 1.0736921 0.6544285 0.40205827 -0.5793656 -0.030718377 -0.25368798
2 -0.24409983 0.30687386 0.14968309 -0.12234378 0.4504195 -0.75849056 0.062320836 0.8914169 -0.5871447 -0.42589197 -0.34747317 -0.63599414 -0.22214338 0.6218018 0.5189721 -0.5421384 0.14050475 -0.14703628 -0.41183823 -0.6205296 0.14363705 0.0016649144 0.46162793 -0.28300482 0.049213108 -0.15729964 -0.6723926 0.23207122 -0.10865936 0.1965058 0.8742113 -0.023019092 -0.17127232 -0.28459647 -0.052599885 0.3122305 0.40911803 -0.1691253 -0.063204005 -0.38086757 -0.2825331 -0.19951954 0.100062676 0.1812585 0.017000401 0.095157385 -0.24064578 0.426867 0.15879178 0.4397195 0.5502323 -0.22564435 -0.2602664 0.110189185 -0.17261863 0.49177778 0.62814665 0.3054822 -0.1371425 -0.018946597 0.010743385 0.2777554 0.025375793 0.048641365 -1.016103 0.5140362 0.3461845 0.16153799 -0.55307275 0.59539765 -0.16283344 0.08122965 0.37163204 -0.36486715 0.36110732 0.18896362 -0.034726676 0.04840165 -0.33037135 0.01803305 -0.06927454 -0.034070496 -0.70304406 0.6581501 0.049098328 0.14542283 -0.15613608 0.42540163 0.28813204 0.08446138 0.48675248 0.1570435 0.060034018 -0.28618264 0.81068724 0.40103215 0.20900652 -0.4110883 0.100257814 -0.20881866
科技 -0.024744209 0.59276015 -0.20671608 0.032039955 0.069406845 -0.45180258 0.50339377 0.3931783 -0.07266744 0.18142635 -0.4679935 -0.37207377 -0.24187033 -0.013067481 -0.33940306 -0.8228256 -0.046560224 -0.39298058 -0.1767166 -0.9676524 0.31725678 0.19640638 0.40916747 -0.035128728 -0.10550654 -0.18118939 -0.37436146 -0.60921645 -0.0698219 0.065824576 0.32428607 0.34243524 0.24970567 -0.06753611 -0.28301063 0.2925507 0.048864707 -0.46345383 -0.08725655 -0.9683366 -0.32495266 -0.30332232 -0.017649924 -0.09053415 0.021433735 -0.33970818 -0.1603987 0.062493276 -0.06432138 0.33568773 0.25574479 -0.019839099 -0.15968484 0.032164223 -0.17944202 -0.14413929 -0.026157944 -0.25981486 -0.7570386 0.36285526 0.47276178 -0.091572404 -0.071182914 -0.13085857 -0.77371204 -0.0734041 0.050959863 0.28765684 -0.74523765 0.07694033 -0.5373059 0.18307266 0.094398 -0.39626476 0.1543556 0.46850273 -0.44540796 0.15261856 -0.40778682 0.33939195 0.42366612 -0.044632383 -0.049832568 0.62327105 -0.12304932 0.15484177 0.32327688 0.7636796 0.120746136 0.17906764 0.28200212 0.35712272 0.111205675 -0.25515264 0.84714544 0.02542803 -0.1081169 -0.10317984 0.31744877 -0.12949038
管理 -0.05946633 0.6040456 -0.21331246 0.08814273 0.006374779 -0.34230465 0.55778956 0.28759554 -0.06198524 0.2477181 -0.53422725 -0.41680667 -0.23907419 -0.10942093 -0.4493743 -0.9116544 -0.122568615 -0.51757723 -0.14606799 -0.90740114 0.4178535 0.20900163 0.41625163 0.024290731 -0.16565835 -0.2208368 -0.28686994 -0.71256864 -0.08466793 0.050040245 0.25824034 0.4018278 0.29232326 0.013761622 -0.34556106 0.28892696 -0.034404922 -0.49191597 -0.058353864 -1.0396382 -0.3221783 -0.29200166 -0.009530823 -0.12312075 0.026869357 -0.3583285 -0.105445035 0.025204604 -0.11772639 0.3870718 0.2398008 0.045352694 -0.058580216 0.028415546 -0.18563776 -0.24009371 -0.110438496 -0.33294654 -0.84923935 0.404436 0.5042659 -0.12903944 -0.10314505 -0.20333447 -0.72737885 -0.2023239 0.006788791 0.3181057 -0.7386493 0.03219565 -0.5417867 0.23737258 0.030606212 -0.41234428 0.14300263 0.4579553 -0.44626015 0.07989983 -0.35813743 0.35312277 0.5136264 -0.026342891 0.010145653 0.5957265 -0.1306486 0.122561164 0.33446792 0.8316499 0.10358528 0.21855053 0.27248028 0.37729773 0.12708552 -0.2615799 0.7466054 -0.031568684 -0.12283744 -0.09318527 0.45031255 -0.12178178
认定 -0.13825473 0.4277753 -0.09096314 -0.107911795 0.34326705 -0.6534659 0.2653216 0.63785374 -0.290169 -0.12436131 -0.24977298 -0.44575623 -0.16515224 0.38926387 0.1828904 -0.58265746 0.14317892 -0.17860584 -0.21886432 -0.80928195 0.11487321 0.06689607 0.5019086 -0.22750771 0.018685086 -0.16827065 -0.549534 -0.0135646025 -0.097159125 0.07190228 0.62089545 0.06168951 0.06800941 -0.23669611 -0.09508046 0.2206026 0.24634694 -0.29083797 -0.13932653 -0.4929663 -0.26033354 -0.29067066 -0.097840175 0.0968394 0.0018622942 -0.095930204 -0.2688039 0.25871086 0.101793274 0.28014392 0.39109114 -0.16908246 -0.29863325 0.14099203 -0.104503475 0.24172677 0.38036287 0.09573002 -0.28405243 0.07708662 0.11021978 0.05383934 0.04633164 0.0144628165 -0.8868126 0.3424326 0.21304753 0.20983183 -0.6910932 0.35744938 -0.35620075 0.14148754 0.3292128 -0.37687045 0.19477187 0.2962125 -0.2895081 0.14418066 -0.4510845 0.20877962 0.00030176417 -0.060385626 -0.3783467 0.68677616 0.06378444 0.13246402 0.026427362 0.49262846 0.280351 0.08425141 0.36449468 0.2748954 0.021730514 -0.33500636 0.9756287 0.2973694 0.14026935 -0.21651216 0.079683855 -0.1819485
支持 -0.009350084 0.54460245 -0.26048604 0.087067805 0.03147753 -0.3252894 0.5137757 0.28250697 -0.057851266 0.08858933 -0.456138 -0.35369906 -0.18824689 -0.104482524 -0.37772363 -0.73999596 -0.0848502 -0.40754598 -0.13455506 -0.84395546 0.38385713 0.25312203 0.33580634 0.022058345 -0.08624226 -0.17221037 -0.27139542 -0.64315337 -0.10206517 0.06708475 0.26793608 0.33812696 0.28444016 -0.04406732 -0.38301152 0.2834972 -0.05805817 -0.40735304 -0.04891351 -0.99670476 -0.2727187 -0.20630485 -0.010396285 -0.11595739 0.025135048 -0.29977733 -0.17974831 -0.013895141 -0.13498257 0.4166173 0.18029405 -0.009164775 -0.087478906 -0.007021336 -0.12888432 -0.21943827 -0.058325324 -0.22904249 -0.7334567 0.3903272 0.4434712 -0.073433325 -0.084453136 -0.16693883 -0.71546996 -0.117594115 0.012062345 0.26239458 -0.6687221 0.066882044 -0.44768122 0.2019484 0.055049047 -0.34668973 0.13585225 0.34138343 -0.3872203 0.08458685 -0.40123847 0.24992214 0.4536135 -0.05612886 -0.025921538 0.5935166 -0.17315505 0.10843015 0.34549603 0.6897045 0.10420912 0.16429016 0.25224933 0.3670902 0.19559494 -0.17384207 0.6974519 0.012508849 -0.13267054 -0.116561 0.41108555 -0.1030436
一次性 -0.4175087 0.3672008 0.25047514 -0.29664212 0.8212927 -1.1073294 -0.031068815 1.3735058 -0.91089636 -0.6435669 -0.27876237 -0.8237988 -0.20589983 1.1506097 1.0992134 -0.5986256 0.37256145 0.009032387 -0.61658055 -0.8215216 0.07115586 -0.12777287 0.7753054 -0.5898143 0.20543312 -0.19076695 -1.0646408 0.7681484 -0.08637681 0.3230498 1.3782192 -0.2380844 -0.35986382 -0.50507605 0.18199295 0.42754945 0.74772775 -0.073041916 -0.16073488 -0.11310481 -0.356982 -0.3262654 0.12512127 0.42166188 -0.00784117 0.27267098 -0.42539418 0.7715466 0.37937635 0.42007762 0.82105136 -0.44399455 -0.57606363 0.26082805 -0.20029335 0.9626558 1.1702833 0.6545971 0.10677405 -0.25421464 -0.21229792 0.43143955 0.13536866 0.21116655 -1.4859933 1.0096723 0.6631281 0.24595097 -0.77441627 0.9526171 -0.12015322 0.06671504 0.6514604 -0.4511375 0.4537543 0.20646136 0.0112890415 0.16999839 -0.5035091 0.057440747 -0.477158 -0.08594718 -1.1448708 0.9438373 0.1960989 0.23299615 -0.40997785 0.39703232 0.48077852 0.02194115 0.7004609 0.1999943 -0.01520149 -0.4988438 1.29952 0.7374882 0.46830028 -0.61302185 -0.13016635 -0.28791577
市 -0.088994786 0.6201215 -0.07236737 0.26925722 -0.1824497 -0.5330129 0.42565092 0.47225758 -0.05715463 0.41736713 -0.6022752 -0.6993068 -0.42626864 -0.10981737 -0.636006 -1.1523302 -0.16648613 -0.77897257 -0.087843806 -0.85797256 0.55565715 0.029761573 0.60568863 0.029257745 -0.15836324 -0.1528818 -0.4160186 -0.73969007 0.012009844 -0.108066246 0.10382374 0.4804676 0.3337698 0.15641251 -0.18591014 0.04858111 0.10729747 -0.7819927 -0.023564748 -0.97676915 -0.53052723 -0.43584004 0.015881186 -0.16926378 -0.061176915 -0.28954732 0.02384148 0.056918267 -0.16139002 0.33523864 0.3860121 0.20091371 0.028797211 0.0039097397 -0.34000942 -0.4077359 -0.20780826 -0.7449252 -1.016557 0.52926975 0.5337684 -0.2698442 -0.1510862 -0.2249995 -0.7822322 -0.3676865 -0.19210598 0.5352347 -0.6475272 -0.09833075 -0.7706279 0.1236977 0.035077997 -0.3819376 0.21337534 0.66719997 -0.61006296 0.14460221 -0.28697804 0.5009148 0.54552865 -0.13541818 0.12196709 0.5555079 -0.08055985 0.15811664 0.40252358 0.9057533 0.04269856 0.3210899 0.22860508 0.39525273 0.039077483 -0.37555328 0.9730751 0.035000943 -0.23852967 -0.08597047 0.2667651 -0.12299907
部门 -0.09483718 0.6448152 -0.04622564 0.1925854 -0.108444095 -0.5286149 0.49501255 0.32179326 -0.01551872 0.3144221 -0.6843143 -0.63010013 -0.44839752 -0.096554875 -0.6508313 -1.1519775 -0.19971941 -0.799697 -0.15123063 -0.91138095 0.44977346 0.22450612 0.4932355 0.08171533 -0.14656684 -0.13576482 -0.2703648 -0.8830715 -0.10052539 0.043290548 0.22048838 0.5193123 0.32672524 0.0942453 -0.46554923 0.2760382 0.023113618 -0.7621439 -0.006280363 -1.2016758 -0.4856157 -0.40238178 0.03336155 -0.2314753 0.018345691 -0.3559773 -0.06694401 0.03502956 -0.2369795 0.4351712 0.39084718 0.23349138 0.08128368 -0.06086318 -0.34410372 -0.4313205 -0.2815233 -0.56807494 -1.0757301 0.5816672 0.6176528 -0.16936104 -0.23881474 -0.24410544 -0.7425519 -0.50016046 -0.15925303 0.43227088 -0.6856274 0.043947447 -0.7625746 0.22874272 -0.018424358 -0.46542713 0.23434566 0.7184963 -0.64584756 0.0439523 -0.24591887 0.50203264 0.7186323 -0.114037536 0.15495045 0.5872928 -0.17968284 0.18929008 0.4191171 0.9810153 0.08983017 0.37166741 0.32731673 0.470636 0.05378299 -0.3132118 0.83855516 -0.04667138 -0.3160711 -0.107787214 0.48796943 -0.17551653
工业 -0.042165186 0.5976128 -0.30359653 -0.038566694 0.08339626 -0.37136897 0.4754916 0.38243884 -0.015318591 0.10098227 -0.3099416 -0.29993615 -0.1824547 -0.091561876 -0.25648242 -0.7004303 -0.07019255 -0.2909282 -0.062380023 -0.84773445 0.32446674 0.19791077 0.4295682 -0.055727925 -0.05618416 -0.14162512 -0.2726616 -0.53884465 -0.005990296 0.041792955 0.25753304 0.2770159 0.30449703 -0.011665067 -0.24967624 0.24040386 -0.033580657 -0.40815285 -0.025703372 -0.8625334 -0.29039752 -0.26837987 -0.03780759 -0.09584498 -0.018995991 -0.36588702 -0.12963454 0.005007405 -0.075607345 0.2838144 0.16530266 -0.062960915 -0.14382248 0.09202415 -0.094855614 -0.14879207 0.048425153 -0.19517276 -0.6045417 0.31068552 0.37653646 -0.063674994 0.006884756 -0.15685013 -0.7292933 -0.03192939 0.08110252 0.3253594 -0.7525473 0.034462597 -0.4537108 0.1949333 0.0709444 -0.27849308 0.10960913 0.35816243 -0.42926452 0.15674055 -0.48536575 0.32023555 0.40056336 -0.11920939 0.004113753 0.63166785 -0.08386539 0.14117905 0.2946207 0.624276 0.11273513 0.16194975 0.19572029 0.36912498 0.16634564 -0.2833257 0.8611811 0.035974726 0.016796753 -0.030026307 0.3231038 -0.06968747
补贴 -0.22262895 0.07383316 0.33804676 -0.07308103 0.5943669 -0.9583209 0.07500491 0.88570046 -0.640448 -0.78721416 -0.5415673 -0.6337429 -0.44102085 0.78055006 0.6940367 -0.55762047 0.10024332 -0.40194085 -0.66219527 -0.61958146 -0.043564156 0.19590738 0.2750298 -0.29814357 0.15146379 -0.17087694 -0.64584315 0.18510263 -0.35380837 0.37935036 1.1206142 -0.09904604 -0.36680228 -0.544671 -0.36503267 0.5412074 0.38347846 -0.021855215 -0.08756033 -0.49712566 -0.23653948 -0.11196715 0.07280001 0.17596228 0.22431822 0.21552852 -0.3771636 0.5329717 0.12361375 0.73960054 0.6802471 -0.17911553 -0.20034076 -0.008644286 -0.29735607 0.5571969 0.67166907 0.44603774 -0.19005358 0.04915301 -0.028724782 0.47079954 -0.19362006 0.13557781 -1.1013877 0.46865788 0.32239303 0.0495695 -0.43810228 0.86059326 0.0068181395 0.10412426 0.48206976 -0.5567407 0.5639057 0.086801745 0.09287844 -0.07380021 -0.07763044 -0.22161262 0.002803796 0.087180234 -0.90644765 0.6031304 0.049421206 0.16169973 -0.24151188 0.49581224 0.3106884 0.10886421 0.7616351 0.13899514 0.16170625 -0.12057992 0.55036306 0.5794518 -0.024378596 -0.6694879 0.23711118 -0.38141155
产业 -0.0007401285 0.72891575 -0.43235815 0.06925638 -0.092242755 -0.26839536 0.69300294 0.18871687 0.1294109 0.26567045 -0.4942062 -0.34418407 -0.17933735 -0.32646063 -0.5774083 -0.9172801 -0.18734652 -0.49680233 -0.056741733 -0.97215474 0.5268783 0.3523173 0.362363 0.064843036 -0.15354605 -0.23489253 -0.21302713 -1.009743 -0.073184945 0.0074366597 0.09421705 0.4527311 0.46754372 0.0121042095 -0.46939728 0.31374997 -0.1780285 -0.50815094 -0.025689986 -1.216487 -0.29358718 -0.27947715 -0.030528627 -0.20882304 0.011785051 -0.50018746 -0.13635631 -0.115215056 -0.20238025 0.34448454 0.050428852 0.02864072 -0.055009227 0.028653555 -0.06777667 -0.40788552 -0.21153644 -0.38752493 -0.8994146 0.48198774 0.5833489 -0.18166453 -0.07105586 -0.23037076 -0.6780943 -0.27205816 -0.057229616 0.38197726 -0.82942855 -0.119858325 -0.5484439 0.28345183 -0.0118075 -0.38278365 0.12893006 0.45749444 -0.5950523 0.15648323 -0.49603406 0.42257756 0.61350423 -0.106281206 0.16585585 0.70086664 -0.15285805 0.13946098 0.47769132 0.8634616 0.10690601 0.24476783 0.21833386 0.4714171 0.2609797 -0.275319 0.84962785 -0.032580256 -0.19548905 0.0042487057 0.4810379 -0.07813502
20 -0.37096477 0.34992385 0.26723948 -0.2533968 0.7226154 -1.0371784 -0.097622864 1.3508319 -0.91775846 -0.6085306 -0.25000897 -0.79880434 -0.15450573 1.1064091 1.0511271 -0.55477095 0.3452445 0.0450668 -0.5405127 -0.690581 0.16533174 -0.17866 0.7897943 -0.55867046 0.15739763 -0.20642442 -1.0345166 0.80832595 -0.051052775 0.28142175 1.3053044 -0.2570279 -0.34257892 -0.46835983 0.2543062 0.34361026 0.7185216 -0.07841638 -0.17561004 -0.07526706 -0.35907426 -0.29647475 0.1511029 0.43582028 -0.022059163 0.30352443 -0.3621769 0.72888595 0.40313163 0.3956204 0.8018553 -0.42330372 -0.5570204 0.20508999 -0.14494127 0.943117 1.1041527 0.62686133 0.10019008 -0.30690837 -0.2392611 0.42510295 0.1629607 0.18422967 -1.4264917 1.0365329 0.6662458 0.2661406 -0.7154948 0.87846595 -0.12281949 0.04628495 0.6241827 -0.38453886 0.4469081 0.19990307 0.03276093 0.13170066 -0.5213332 0.06167492 -0.49620235 -0.09929732 -1.1233562 0.8907059 0.18878964 0.17932032 -0.39129218 0.33237237 0.4566863 0.04813388 0.63530695 0.14662892 -0.033581294 -0.48977634 1.2248396 0.6795619 0.4800966 -0.5347217 -0.14220494 -0.27605888
投资 -0.13589191 0.5639579 -0.1531777 -0.10420803 0.2290589 -0.43647596 0.4186029 0.53667206 -0.22351235 0.01907342 -0.35048872 -0.51574445 -0.24778289 0.19413354 0.16268283 -0.6914171 -0.015198982 -0.26043043 -0.28657624 -0.802903 0.2686612 0.13909024 0.42051908 -0.11218254 -0.08014755 -0.19286239 -0.48764753 -0.29762098 -0.09388849 0.11160915 0.59884447 0.13564104 0.09778447 -0.21144196 -0.14588182 0.39221692 0.2188636 -0.15916228 -0.068707526 -0.638948 -0.33339018 -0.22715779 0.057827655 0.079366304 0.041276105 -0.21272048 -0.12713446 0.30202073 -0.0058067436 0.38884237 0.25641805 -0.1568831 -0.22078022 0.11802994 -0.12701967 0.17079765 0.29701316 0.09079551 -0.42625308 0.19419569 0.2717244 0.09988532 0.0031714179 -0.07031457 -0.83128667 0.13200393 0.23530309 0.33010304 -0.63923585 0.3013374 -0.25597128 0.18681762 0.23350511 -0.3575869 0.24743412 0.32327822 -0.2623789 0.12148394 -0.28804156 0.19542325 0.16481404 -0.07212506 -0.40661186 0.57193756 0.0013994753 0.08769037 0.06257423 0.64625233 0.22153534 0.13838556 0.333999 0.27265468 0.12664676 -0.32594895 0.8185774 0.19942941 0.12229677 -0.23819134 0.23570043 -0.1704443
省级 -0.20370409 0.451674 -0.14132327 -0.2602483 0.45759958 -0.7914404 0.25416347 0.8529334 -0.35242665 -0.19235419 -0.11131317 -0.39478263 -0.055135373 0.5280686 0.40125003 -0.5029034 0.2480254 0.06846634 -0.16108441 -0.90600944 0.0623793 -0.01248964 0.673655 -0.38237202 0.11640589 -0.15464884 -0.6873348 0.22254467 -0.036474627 0.07805527 0.6996473 0.002539148 0.09681467 -0.28011897 0.06709425 0.21905057 0.32162234 -0.30948898 -0.23927918 -0.31163463 -0.23936976 -0.3571136 -0.1366801 0.20217106 -0.03391974 -0.12834877 -0.29626366 0.29597768 0.22169901 0.13849518 0.4451596 -0.2573142 -0.4751378 0.26230696 -0.070314586 0.40392676 0.568572 0.21404468 -0.09154727 -0.10450848 0.0274802 0.06390098 0.17786838 0.106542654 -1.0524659 0.65095526 0.35454133 0.22740199 -0.85671955 0.40095502 -0.37977552 0.13451685 0.41576204 -0.338288 0.19396888 0.33876622 -0.3128176 0.27183098 -0.6741809 0.32096833 -0.17163938 -0.10849645 -0.4848237 0.84257716 0.1346962 0.18445687 -0.03350386 0.37539425 0.3227211 -0.0078104753 0.37345636 0.2938108 -0.0372758 -0.4716723 1.2909288 0.3803062 0.33022785 -0.19146532 -0.08746238 -0.15471922
实施 -0.066290975 0.5990695 -0.21165524 0.17898087 -0.048304908 -0.37774658 0.5105368 0.28590065 -0.09176709 0.19882855 -0.5831866 -0.4894963 -0.32303348 -0.19741392 -0.59637606 -0.99390715 -0.21026658 -0.54095584 -0.10305366 -0.8379329 0.501873 0.20677876 0.34821695 0.10286572 -0.14787616 -0.17919008 -0.20643136 -0.7978846 -0.069252856 0.03233381 0.17738248 0.4713562 0.33794913 0.060121927 -0.43726826 0.24767552 -0.080982566 -0.5451963 0.033980146 -1.1963611 -0.33902228 -0.27208602 0.0567936 -0.20006502 0.0015869326 -0.36588496 -0.09533839 -0.073036276 -0.19027609 0.4883742 0.30581892 0.09738053 0.072962016 -0.073378496 -0.2461608 -0.37103286 -0.22063579 -0.4160862 -0.937355 0.50809693 0.54438037 -0.13483311 -0.12833068 -0.29227573 -0.7444918 -0.28726524 -0.02759117 0.35441375 -0.76070625 0.01729042 -0.5832312 0.2528501 -0.008946433 -0.3480339 0.17471959 0.48150963 -0.4459271 0.050225534 -0.3593147 0.32307035 0.6408731 -0.09261037 0.10608237 0.55194044 -0.23002204 0.12583119 0.47813517 0.8105002 0.05365113 0.24845167 0.2246365 0.4172966 0.15332477 -0.22211392 0.662802 -0.018799283 -0.18496351 -0.09547347 0.5219929 -0.09939844
相关 -0.078709215 0.55157435 -0.1234928 0.08450605 0.007919021 -0.47106868 0.46265483 0.32851794 -0.13005947 0.14854665 -0.55257505 -0.54894716 -0.360773 -0.060153846 -0.4083341 -0.92885464 -0.111982055 -0.61029637 -0.18189254 -0.8281194 0.3969201 0.23831484 0.393906 0.051697094 -0.14444688 -0.14860184 -0.29584417 -0.6675141 -0.08970323 0.014933423 0.29537582 0.37480032 0.24331288 0.0008291898 -0.38035104 0.26016352 0.010816133 -0.47908226 -0.020381575 -1.0248419 -0.35437754 -0.2863272 0.039012257 -0.11218083 0.03734497 -0.26145288 -0.10434732 0.052506022 -0.19813295 0.46003038 0.32530066 0.084392466 0.018080126 0.0025660226 -0.21461332 -0.26065204 -0.09898836 -0.33708227 -0.84947723 0.42115387 0.45124575 -0.08047799 -0.1838662 -0.1848644 -0.72386587 -0.25129673 -0.027581397 0.3194664 -0.66203016 0.12767003 -0.559024 0.21698163 0.10830194 -0.41853356 0.19990855 0.4924451 -0.419051 0.04264019 -0.30002087 0.28149715 0.4992569 -0.056371715 -0.027857773 0.53802377 -0.12514684 0.14840066 0.3174239 0.8077692 0.07284377 0.23184237 0.3046541 0.3763286 0.09481311 -0.23216006 0.718251 0.031736836 -0.20101401 -0.12536271 0.42632845 -0.15013818
就业 -0.0303804 0.28950503 0.016543422 0.12975153 0.14985982 -0.5743239 0.47371253 0.21592088 -0.09485501 -0.29519874 -0.7538184 -0.43443906 -0.49778026 0.026770815 -0.22125284 -0.8565278 -0.20030501 -0.79404825 -0.36841795 -0.8555416 0.2655952 0.46230513 0.122139655 0.023803556 -0.036779888 -0.15428463 -0.2503682 -0.72576225 -0.4557904 0.2203947 0.56605756 0.32312348 0.044626825 -0.2965215 -0.7535384 0.47904447 -0.09238329 -0.32649994 -0.09478994 -1.1418865 -0.24199271 -0.08052899 -0.05853023 -0.18620773 0.22096735 -0.21409848 -0.29094777 0.1028543 -0.14138234 0.8362242 0.3561691 0.06447258 0.061251346 -0.115099296 -0.20315269 -0.18651928 -0.035315387 -0.03010431 -0.8609989 0.5126379 0.43002084 0.1787673 -0.34764817 -0.11587594 -0.7858261 -0.21139473 -0.08367084 0.12969431 -0.4808204 0.3907236 -0.35389876 0.27403304 0.18101467 -0.6571546 0.37705225 0.2470747 -0.27346846 -0.09402679 -0.10064226 -0.028087055 0.5194858 0.1514616 -0.31106433 0.6012186 -0.19272651 0.11578084 0.22456418 0.87299275 0.1482267 0.24056742 0.5950856 0.3450992 0.30470097 0.02601891 0.38530096 0.19121787 -0.3980112 -0.41834185 0.56303066 -0.37124282
标准 -0.28032604 0.34853786 0.13061567 -0.18002507 0.5517464 -0.81733316 0.12541094 0.9217635 -0.5634799 -0.4615491 -0.35309532 -0.61413926 -0.22635765 0.6570568 0.57763714 -0.60581976 0.1420713 -0.16867885 -0.4808719 -0.7064582 0.09039365 0.061005153 0.48110744 -0.3404352 0.11186379 -0.19423147 -0.6777425 0.22882862 -0.15321514 0.20752326 0.92893165 -0.02592439 -0.19051036 -0.33521187 -0.09709034 0.39997363 0.40309212 -0.1430607 -0.10027538 -0.41588622 -0.26799744 -0.22661258 0.08139461 0.17621523 0.02064127 0.062758826 -0.3021815 0.45224023 0.1532856 0.45001826 0.597696 -0.24219812 -0.30487144 0.1368263 -0.23021027 0.52328926 0.6843569 0.3154509 -0.17825943 -0.010684006 0.016797235 0.29783764 -0.011309171 0.044179756 -1.1034652 0.50526345 0.3661603 0.17358032 -0.64165395 0.64233786 -0.1466487 0.1129426 0.44411984 -0.4002879 0.36672908 0.2240867 -0.04222022 0.08548605 -0.35239327 0.024143474 -0.0514161 -0.013040718 -0.7326608 0.69005793 0.06511439 0.18614097 -0.18120724 0.49743757 0.2892772 0.065592065 0.57861334 0.23640415 0.05999305 -0.31812057 0.86997086 0.48952025 0.19557816 -0.45279512 0.121288456 -0.24573538
技术 -0.13339114 0.5179014 -0.24001257 -0.15090461 0.22374749 -0.5206151 0.43090144 0.4882676 -0.06662478 0.064960435 -0.24426727 -0.33364156 -0.21166399 0.14416856 -0.052768778 -0.7026177 0.05553412 -0.234555 -0.17546266 -0.91067904 0.20263429 0.11183291 0.48827645 -0.16406108 -0.024896137 -0.19635357 -0.38581192 -0.3313809 -0.03663072 0.058885667 0.48789003 0.23978578 0.16759479 -0.047623876 -0.14891145 0.22376406 0.08685833 -0.40104115 -0.103903204 -0.71525574 -0.29628932 -0.28026006 -0.017577408 -0.050228667 0.017733492 -0.26626772 -0.2028721 0.23300672 -0.0004648553 0.29829004 0.28303346 -0.071867995 -0.23968233 0.22291829 -0.14574322 0.09019868 0.2576913 -0.0036092764 -0.45635596 0.20132543 0.3237306 -0.0101124 0.037085585 -0.08444905 -0.8452806 0.1397516 0.08782327 0.23808116 -0.7393916 0.1541877 -0.4794874 0.16063827 0.17376752 -0.38616005 0.12855583 0.37307397 -0.29656026 0.15656288 -0.467325 0.2604362 0.22309718 -0.047746874 -0.22844951 0.6772929 -0.011742369 0.13130766 0.14535429 0.55893487 0.16293696 0.040482584 0.25051188 0.32462233 0.049978264 -0.27714646 0.9601456 0.12012532 0.07874051 -0.1683872 0.20851658 -0.1239564
国家 -0.13488874 0.4375867 -0.27067074 -0.1335741 0.24952258 -0.62110555 0.32993624 0.60796607 -0.09520923 0.028388496 -0.19097307 -0.3660702 -0.13584843 0.22155154 -0.042753514 -0.61207163 0.102886125 -0.16124357 -0.08613104 -0.96088254 0.18695298 0.048942972 0.5077171 -0.18717863 0.029726341 -0.204884 -0.47429964 -0.1752486 0.0139199635 -0.04279232 0.38414684 0.20523036 0.2530067 -0.09992003 -0.052684866 0.113341175 0.15810958 -0.44310647 -0.16207035 -0.57783765 -0.2637972 -0.33317295 -0.15763056 0.026191857 -0.00042866118 -0.25120535 -0.2084193 0.19486886 0.0625338 0.18822703 0.33053505 -0.0686073 -0.2924932 0.20192604 -0.083094954 0.097604945 0.28210193 -0.098094024 -0.33167124 0.15183702 0.19643863 -0.09513891 0.07661673 -0.02362696 -0.9044764 0.25930196 0.123186976 0.2623776 -0.75831246 0.15443712 -0.45303595 0.105409905 0.28055954 -0.27847558 0.103110276 0.33694205 -0.30361792 0.18708648 -0.5784784 0.31702897 0.10778801 -0.07084521 -0.17654204 0.68486685 0.07529645 0.17714766 0.12952335 0.50914913 0.2251345 0.06703622 0.27491558 0.3413954 -0.0056033935 -0.29842135 1.1191285 0.24446243 0.09143265 -0.12637146 0.07917375 -0.08746794
重点 -0.075727895 0.55277395 -0.32028553 -0.023172302 0.10270575 -0.41724584 0.5188234 0.34843063 0.028251 0.08875908 -0.29984736 -0.24891335 -0.15999947 -0.056910384 -0.25283286 -0.67927676 -0.012280982 -0.29396927 -0.08649731 -0.9361529 0.26911393 0.23184778 0.3886014 -0.07831825 -0.012498168 -0.17511134 -0.34359348 -0.51905334 -0.045243863 0.020820023 0.27124137 0.29317698 0.2865755 -0.03271729 -0.26452535 0.26180226 -0.020769943 -0.4052848 -0.082476206 -0.8433789 -0.24980132 -0.28258377 -0.1068969 -0.092183724 0.03831797 -0.3581632 -0.17792277 0.048266873 -0.03288192 0.26346484 0.18189743 -0.03454255 -0.21975176 0.10252253 -0.0885358 -0.10757927 0.05813736 -0.16220334 -0.5536399 0.29420823 0.3814742 -0.07765358 0.018164959 -0.1038922 -0.75797385 0.014105618 0.036859207 0.29252455 -0.72377086 0.05742477 -0.450835 0.19730282 0.13197283 -0.31671435 0.10923317 0.36621216 -0.41397595 0.15723874 -0.48702163 0.3124217 0.33848426 -0.108501196 -0.046931967 0.68549174 -0.06440547 0.11599443 0.27569884 0.5927905 0.13550475 0.1018122 0.24991785 0.39021417 0.14163707 -0.22167753 0.9358428 0.087544575 -0.038931794 -0.049658608 0.2341724 -0.108813114
50 -0.3732761 0.40916735 0.2218074 -0.31778154 0.79210055 -1.0756385 -0.05431907 1.3966861 -0.90019786 -0.61357754 -0.25915337 -0.79242796 -0.15962385 1.1276301 1.1218625 -0.59463704 0.3597788 0.041835718 -0.56902665 -0.77094156 0.13523468 -0.14724205 0.81406707 -0.56328213 0.15933275 -0.23110303 -1.0742227 0.7955888 -0.0617075 0.2989219 1.381002 -0.27276307 -0.33628702 -0.48353747 0.2178456 0.41456616 0.7389863 -0.057949714 -0.1885002 -0.09948573 -0.3811443 -0.29818323 0.16619276 0.4510296 -0.02573902 0.2854911 -0.39355406 0.7736444 0.3924472 0.41437933 0.7982108 -0.47653577 -0.5944213 0.24779856 -0.15472107 0.9822863 1.158054 0.6791155 0.09890571 -0.30708554 -0.2141738 0.44367614 0.17077056 0.21682169 -1.4908854 1.060695 0.69148725 0.27801535 -0.7691895 0.92910475 -0.12165532 0.060821783 0.6587089 -0.42976913 0.46654788 0.2103487 0.024896737 0.15617146 -0.536995 0.060030784 -0.48736328 -0.10254538 -1.1726356 0.931379 0.21175553 0.20227426 -0.40359914 0.3750639 0.4681882 0.02930335 0.6777152 0.15748551 -0.033732574 -0.51107097 1.2873394 0.6882833 0.49810162 -0.56545097 -0.12995483 -0.29334554
贷款 -0.078864805 0.36914518 0.1494321 0.16628121 0.38766834 -0.39458847 0.4147708 0.36002293 -0.36944202 -0.24011175 -0.79560924 -0.75788534 -0.39637214 0.13248824 0.25796103 -0.9184922 -0.11010017 -0.88690877 -0.61734277 -0.995052 0.24455243 0.43751568 0.2672595 -0.09094287 -0.18613932 -0.41170377 -0.63828075 -0.6070862 -0.65686524 0.07556262 0.81863624 0.17614909 -0.10038539 -0.64905345 -0.45393413 0.46612853 0.11915801 -0.18138488 -0.16037437 -0.9031248 -0.27989712 -0.02825196 -0.10810502 0.17940933 0.22153163 0.030690499 -0.22373433 0.3524898 -0.07330263 0.9290872 0.28941897 -0.25145325 -0.041091323 0.0045773285 -0.011799781 0.052728858 0.09805906 0.28504038 -0.84006387 0.538794 0.27255785 0.34779477 -0.33195367 0.039080504 -0.84534764 -0.092157856 0.07599637 0.12021896 -0.52562827 0.59247154 -0.12823683 0.28343537 0.51446116 -0.8405851 0.2941061 0.18566594 -0.23121338 -0.09038004 -0.015304682 -0.21244365 0.17292212 0.24485104 -0.78510225 0.44867995 -0.1338426 0.16769698 0.088425815 1.0958697 0.53187424 0.35702518 0.74013495 0.25128245 0.20119189 0.10648287 0.5237932 0.3620421 -0.2843908 -0.58956826 0.5522561 -0.58415663
号 -0.13182372 0.603481 -0.0085950205 0.30312118 0.062159035 -0.53780144 0.32049724 0.5480517 -0.55586094 0.0056997533 -0.9318259 -0.9361025 -0.31353423 -0.19753511 -0.69200456 -1.2162926 -0.28103635 -0.7500994 -0.18207528 -0.71660346 0.7581372 0.17462781 0.4269668 0.12111313 -0.09542765 -0.2104826 -0.33455876 -0.753238 -0.16081382 0.025980337 0.22165984 0.6147911 0.27337572 0.072424285 -0.5960338 0.24798249 -0.13460186 -0.7595659 0.088826485 -1.489776 -0.36493653 -0.23671281 0.1962462 -0.19725592 -0.10518163 -0.2704814 -0.13072053 -0.14229241 -0.31260535 0.80261475 0.6186778 0.021953177 0.21301407 -0.24032398 -0.39169705 -0.5031398 -0.14436422 -0.48676464 -1.0757833 0.48936132 0.6002569 -0.15866454 -0.15930375 -0.46381187 -0.98454916 -0.12661247 0.08059115 0.36849415 -0.9251047 0.09892404 -0.70614886 0.40510654 -0.0030686413 -0.39262426 0.363063 0.37747505 -0.35408208 -0.2393074 -0.4960352 0.23207515 0.75114316 -0.06526589 -0.0695181 0.6402057 -0.3416321 0.08999474 0.6384745 0.9696592 0.014389573 0.29414147 0.26772848 0.5193109 0.25377327 -0.22171934 0.68900377 0.103165224 -0.15922801 -0.14678666 0.79501396 -0.17279601
申报 -0.09682492 0.48781976 -0.084615245 0.04789811 0.04609628 -0.4762334 0.35036418 0.36300564 -0.11567856 0.1699126 -0.44350663 -0.46255586 -0.27955535 0.07067295 -0.28368998 -0.77611786 -0.073039845 -0.43918735 -0.16781384 -0.7844614 0.2902722 0.120411865 0.38850012 -0.002318366 -0.11418317 -0.14074497 -0.31366467 -0.47964546 -0.07537132 0.00393703 0.3104191 0.31571606 0.2195188 -0.013941793 -0.26124117 0.19059366 0.0739088 -0.42880458 -0.04104012 -0.81272805 -0.31815764 -0.2844627 -0.019674806 -0.10821666 0.013219559 -0.2312347 -0.07199308 0.11072331 -0.12892257 0.33585227 0.30728182 0.047709662 -0.06669022 0.0032960356 -0.18427853 -0.14473362 -0.057494257 -0.2720649 -0.67512643 0.32069242 0.37992996 -0.07887321 -0.10717709 -0.12413587 -0.65290326 -0.18293734 -0.0014920752 0.29495436 -0.57937 0.14686286 -0.5181934 0.16054955 0.10717767 -0.33626714 0.17184097 0.47297978 -0.39107203 0.057612974 -0.29568517 0.28162107 0.4193465 -0.07867496 -0.053754136 0.50167656 -0.109514244 0.13789944 0.26032007 0.6586357 0.09600742 0.19424976 0.2765315 0.3042295 0.014169714 -0.22429225 0.7074049 0.066489175 -0.12361738 -0.09753155 0.29227328 -0.14500704
区 -0.07269957 0.6679817 -0.06109724 0.30584097 -0.22567351 -0.5483502 0.5316051 0.43974477 -0.060804393 0.3968201 -0.76539797 -0.7308912 -0.5272037 -0.19039735 -0.72881746 -1.2946669 -0.2626905 -0.9398538 -0.20232226 -0.9182479 0.6152549 0.13156985 0.63651913 0.048212916 -0.18595164 -0.18067569 -0.40863466 -0.9504807 -0.031152956 -0.06725848 0.10665569 0.564246 0.2982996 0.14533147 -0.32645357 0.14218059 0.020591285 -0.83658826 -0.015562665 -1.1595534 -0.5585265 -0.3915887 0.06061048 -0.23305908 -0.015174698 -0.30490667 -0.008635029 0.006050477 -0.2133527 0.48337373 0.42801479 0.18659274 0.07519023 -0.062541716 -0.3683081 -0.513276 -0.31857428 -0.7818536 -1.2124172 0.65281993 0.61068344 -0.24728528 -0.22492309 -0.26610094 -0.82056403 -0.49295375 -0.20318906 0.5553562 -0.6680257 -0.029521247 -0.8011145 0.16483256 0.0032337955 -0.4724073 0.2117528 0.7182305 -0.6547541 0.08398954 -0.2536824 0.5103044 0.6815725 -0.08967781 0.098629706 0.5703603 -0.12715173 0.15681635 0.48213518 1.0865562 0.028049864 0.41208565 0.30970886 0.41079247 0.057340533 -0.36189985 0.9281063 0.02690724 -0.32403556 -0.09886825 0.43385535 -0.18788143
意见 -0.024405152 0.5873464 -0.18773878 0.27460065 -0.11257206 -0.4207449 0.50215626 0.33679911 -0.21613677 0.17600209 -0.69424623 -0.60025054 -0.31734663 -0.2654009 -0.7606633 -1.0661373 -0.23610225 -0.679547 -0.13746062 -0.7891931 0.654849 0.2358124 0.34044468 0.17425512 -0.16171116 -0.18896003 -0.1928912 -0.8625958 -0.07493636 0.012854263 0.13277377 0.5587 0.38092905 0.07800805 -0.526674 0.21107878 -0.12730971 -0.61586064 0.08864329 -1.359594 -0.31752032 -0.26712742 0.09841383 -0.2070866 -0.02551072 -0.33293626 -0.09622001 -0.116123475 -0.25932294 0.58094627 0.35315052 0.0982436 0.18568176 -0.20200613 -0.2673259 -0.5089038 -0.2962108 -0.5287908 -1.0321124 0.55258846 0.6078691 -0.19934215 -0.16074097 -0.38283408 -0.78033227 -0.32944614 -0.036623772 0.41641086 -0.8136141 -0.033096045 -0.6708235 0.2984951 -0.036751974 -0.34001648 0.23179726 0.44554624 -0.46941224 -0.06513666 -0.3991207 0.3216174 0.76948494 -0.06104415 0.11098161 0.5547411 -0.29511413 0.10254138 0.5710995 0.85906196 -0.003299791 0.30835015 0.23968236 0.47636232 0.24679665 -0.19502987 0.6435691 -0.04443137 -0.23988484 -0.044994943 0.6623467 -0.12487186
100 -0.38667884 0.3807085 0.26102623 -0.32138523 0.80228525 -1.0692331 -0.07482032 1.4115261 -0.9477903 -0.63392144 -0.25672072 -0.81896174 -0.19727516 1.1209296 1.1455249 -0.5755213 0.33930147 0.04789193 -0.60957146 -0.75741863 0.11969352 -0.15958859 0.7929979 -0.5677156 0.14596885 -0.22921959 -1.0868719 0.79258686 -0.043307547 0.30718896 1.3724008 -0.2803416 -0.35120183 -0.5001869 0.24114706 0.42169693 0.7362108 -0.012405954 -0.14593479 -0.09981673 -0.3675105 -0.30933934 0.18211065 0.47286126 -0.00047202563 0.2756899 -0.36520505 0.7873882 0.37924826 0.42979744 0.8071197 -0.46461853 -0.57673544 0.2628785 -0.18444929 0.9988564 1.1855253 0.684143 0.12573408 -0.30883038 -0.23049767 0.47820434 0.15414861 0.20467456 -1.5020643 1.0534418 0.69155675 0.29152012 -0.72280514 0.9433538 -0.10813385 0.03844238 0.66836965 -0.41181454 0.46612483 0.19633675 0.0414221 0.15933116 -0.48495013 0.04210157 -0.4764817 -0.08700274 -1.2021328 0.90121585 0.20462938 0.21135597 -0.43052626 0.37008652 0.46406946 0.025967078 0.6664659 0.13326533 -0.028764823 -0.51752573 1.2684354 0.71736985 0.4889876 -0.58481234 -0.13612315 -0.2862635
扶持 0.024927517 0.56222457 -0.27064598 0.12511449 -0.015165152 -0.34556273 0.5720219 0.31271917 -0.07551902 0.14083831 -0.5220814 -0.43588197 -0.25254545 -0.2409244 -0.49950266 -0.8429001 -0.12676962 -0.50810707 -0.14912558 -0.8608972 0.45606023 0.31740347 0.36108303 0.05749773 -0.10351267 -0.17280784 -0.2324593 -0.72628695 -0.052230015 0.015626358 0.19107203 0.36554387 0.36295658 -0.03929721 -0.39757547 0.25824568 -0.0732276 -0.4066975 0.013423175 -1.1011561 -0.28112087 -0.2571666 0.01853953 -0.07322619 0.041197646 -0.30032402 -0.160674 -0.03604902 -0.21873313 0.41720578 0.25206065 0.019041838 -0.03070735 -0.08989762 -0.1590274 -0.29186457 -0.12629944 -0.36112383 -0.8396292 0.4409501 0.44284493 -0.116380535 -0.1465993 -0.18283392 -0.74045205 -0.20030355 -0.009128086 0.36736017 -0.7345185 0.045689065 -0.53865224 0.23664589 0.10455291 -0.33449975 0.15479405 0.36132735 -0.3947054 0.033207964 -0.41146183 0.2830762 0.5196483 -0.04208102 0.04270807 0.53324425 -0.16291082 0.0934623 0.40192533 0.73231184 0.047866166 0.20954497 0.267225 0.38452446 0.22453927 -0.17851584 0.7595918 -0.011364631 -0.17709708 -0.03824291 0.45334134 -0.11457912
元 -0.52686137 0.34426337 0.3944994 -0.24826126 1.0028946 -1.3357642 -0.019055424 1.5760945 -1.0237305 -0.92859006 -0.5145647 -1.0540738 -0.4086595 1.2035547 1.2316539 -0.758146 0.2419892 -0.15587416 -0.86064196 -0.8296333 0.015300889 0.016295461 0.6409818 -0.59226364 0.21408169 -0.2552753 -1.1580882 0.61683637 -0.19245231 0.41641045 1.6063173 -0.14308181 -0.4701259 -0.49744484 -0.09091279 0.62109405 0.798828 -0.0713543 -0.058401715 -0.4051971 -0.3876411 -0.2965717 0.1645046 0.3011984 0.07984169 0.29773405 -0.41331378 0.88275087 0.3021862 0.74122816 0.98758584 -0.40587297 -0.4190837 0.26216322 -0.43503925 1.0482664 1.2311614 0.62233865 0.042720184 -0.13371639 -0.094509885 0.6274209 -0.024283309 0.10122643 -1.70017 0.9065155 0.6604742 0.18296951 -0.84196943 1.1183891 -0.02046452 0.070480786 0.69960856 -0.5678447 0.6660229 0.21431781 0.13137026 0.059167866 -0.34459883 -0.11344737 -0.16898137 -0.006561281 -1.3217509 1.0169122 0.09502436 0.28776166 -0.43404493 0.54228806 0.41639537 -0.045941185 0.88537633 0.2582938 0.106835134 -0.4246134 1.1760209 0.87550867 0.36696622 -0.7890366 0.105173446 -0.33398035
资金 -0.12811823 0.42593396 -0.046900373 -0.043763272 0.18048884 -0.4859317 0.33881798 0.5671602 -0.23577556 -0.018483361 -0.38825595 -0.46930847 -0.24396925 0.17221415 0.038824987 -0.66953826 0.011413729 -0.31769577 -0.2826973 -0.7231736 0.2612962 0.12818329 0.42797053 -0.10958429 -0.04593934 -0.17732477 -0.44502464 -0.26195854 -0.050920054 0.07361248 0.48456842 0.16068275 0.10451818 -0.15779024 -0.11951006 0.28227654 0.19507277 -0.23971678 -0.045446903 -0.6101137 -0.27438912 -0.24720928 0.04046211 0.066507526 0.04328106 -0.11761778 -0.14082216 0.23817785 -0.0003060607 0.30979502 0.37195274 -0.106208295 -0.17328006 0.041381136 -0.19401842 0.13437286 0.2206274 -0.049160413 -0.462647 0.20751895 0.2141192 0.066207245 -0.06643897 -0.039915197 -0.7858261 0.11736118 0.14146088 0.31398946 -0.59249914 0.27936363 -0.32633293 0.15634601 0.2628146 -0.34306628 0.2386496 0.3136976 -0.22897787 0.07025147 -0.32022598 0.20675042 0.15794185 -0.061087303 -0.30759385 0.53051585 -0.019488433 0.121820934 0.09426401 0.5914663 0.16181451 0.14355108 0.3861053 0.25063947 0.10128205 -0.2674788 0.78844255 0.18980633 0.0131789725 -0.19219667 0.18775427 -0.14319697
机构 -0.0864612 0.5121949 -0.17231889 -0.044761136 0.16165975 -0.4276325 0.45123744 0.34826133 -0.08712754 0.038045898 -0.36515328 -0.34977943 -0.21962805 0.09716476 -0.03979853 -0.6932245 -0.017098589 -0.34508905 -0.22032277 -0.8517947 0.23252475 0.18826549 0.4006223 -0.116979495 -0.082615085 -0.164351 -0.37207848 -0.45113412 -0.14581622 0.11214682 0.47636488 0.2443069 0.14134805 -0.13873297 -0.2549322 0.29639503 0.06792664 -0.30126977 -0.12363014 -0.7543659 -0.27036044 -0.20606077 -0.023200195 -0.025566196 0.036120966 -0.2667005 -0.17399703 0.17533736 -0.011021684 0.3584337 0.19365826 -0.110456675 -0.18405345 0.12716943 -0.08868031 0.008791723 0.1626503 0.023439243 -0.53311443 0.28578818 0.3650037 0.026471825 -0.027282761 -0.06783083 -0.730844 0.049504846 0.08476675 0.19398053 -0.64046377 0.17461 -0.38715446 0.18174411 0.18126169 -0.44710034 0.15417884 0.36445728 -0.311675 0.115257636 -0.3088746 0.20314644 0.26678845 0.0011849952 -0.2381727 0.5667502 -0.051094294 0.11025836 0.1550457 0.671449 0.2092008 0.1257592 0.3186299 0.30855566 0.079317376 -0.23602262 0.7694326 0.09882145 -0.024705255 -0.21747786 0.28931165 -0.17215936
推进 -0.0098449765 0.73903155 -0.31823948 0.13363995 -0.06365626 -0.33987772 0.6771239 0.25297686 0.0491305 0.22158471 -0.5876117 -0.39549893 -0.26109847 -0.29407758 -0.6265636 -0.9980788 -0.22521754 -0.5684319 -0.074361846 -0.96737236 0.52440673 0.31677517 0.38612014 0.07713455 -0.17047004 -0.16667345 -0.22493564 -0.9730436 -0.113591 0.051191885 0.16097145 0.4867074 0.39570695 0.093929835 -0.50756186 0.3132189 -0.17925626 -0.6092373 -0.02773751 -1.3169457 -0.3732778 -0.2705191 -0.01926513 -0.25270987 0.010433162 -0.47084782 -0.16318761 -0.13021067 -0.2194978 0.43656832 0.19980463 0.08750567 0.00921237 -0.013707712 -0.16665687 -0.4556004 -0.22287814 -0.45397386 -1.0204449 0.54396707 0.62596357 -0.15271924 -0.14037642 -0.30264226 -0.7459259 -0.344019 -0.06152367 0.3395839 -0.8320262 -0.11162184 -0.6551371 0.2828624 -0.07359109 -0.40325555 0.15157941 0.51499414 -0.5640805 0.12475256 -0.46926636 0.40022472 0.69876057 -0.08511853 0.19644046 0.69901246 -0.2740912 0.15954676 0.47812086 0.89741445 0.0672169 0.23437005 0.2626565 0.5092807 0.22647782 -0.24978626 0.8149369 -0.0741787 -0.23323245 -0.062247083 0.5541487 -0.08849054
30 -0.3798083 0.33855057 0.2673842 -0.27739495 0.7422866 -0.9921264 -0.07341546 1.298172 -0.88461244 -0.6234972 -0.23684473 -0.7835639 -0.1726389 1.0696486 1.0712751 -0.5178013 0.34448108 0.047512192 -0.56155396 -0.6739752 0.1062597 -0.15880725 0.7302536 -0.5306124 0.1601365 -0.21239725 -0.9933481 0.7810869 -0.055684105 0.28455827 1.2901133 -0.2682918 -0.3589886 -0.46678868 0.22030054 0.36342728 0.7116975 -0.033951532 -0.15043941 -0.067009114 -0.31793895 -0.27730837 0.15688762 0.4400431 -0.010073174 0.28912765 -0.37253982 0.73417467 0.38208044 0.4031866 0.75267416 -0.4561456 -0.5244482 0.21640912 -0.13998657 0.9500109 1.0926263 0.6585719 0.11599681 -0.29165938 -0.23891522 0.43907538 0.13834734 0.19854225 -1.3787345 1.0033118 0.6533911 0.25265095 -0.6675542 0.87755156 -0.08685914 0.05656458 0.6346567 -0.40472773 0.440532 0.185201 0.059597407 0.12228758 -0.46879795 0.020422265 -0.46487656 -0.08308857 -1.1140975 0.85237145 0.20030417 0.18461458 -0.40702263 0.32303944 0.4394058 0.030982219 0.6405718 0.12933066 -0.035859548 -0.4564927 1.1726507 0.68250763 0.46468952 -0.5602853 -0.10950847 -0.26984623
经济 -0.028236285 0.7886188 -0.3567705 0.14446749 -0.045068078 -0.35717994 0.6560056 0.32159358 -0.006036882 0.18563534 -0.57402605 -0.43709195 -0.26321158 -0.27590382 -0.6291805 -1.052081 -0.18927538 -0.525886 -0.09166487 -0.9478252 0.5639109 0.29609668 0.46875355 0.02733195 -0.13305117 -0.22550489 -0.27235982 -0.9745526 -0.03443127 0.026220331 0.11412253 0.48751086 0.41005144 0.08333631 -0.49692455 0.28979373 -0.13091809 -0.6021045 0.013408549 -1.2989446 -0.38045767 -0.29705685 0.049827572 -0.2145758 -0.031147482 -0.45837817 -0.16786867 -0.10968081 -0.19375797 0.3964435 0.22774678 0.048326775 -0.019532952 -0.032820474 -0.20764562 -0.4268596 -0.19178537 -0.47564927 -1.0297903 0.51851875 0.58214194 -0.15811935 -0.10913181 -0.26452434 -0.7854175 -0.29511482 -0.065237865 0.46073902 -0.9006963 -0.12577961 -0.6735097 0.27981123 -0.025728278 -0.36694676 0.14898108 0.49018627 -0.63215846 0.12861775 -0.5418985 0.4274345 0.68548685 -0.17951915 0.19791865 0.7575274 -0.22292899 0.18152 0.5365516 0.88915616 0.07250119 0.28984082 0.26607698 0.5425641 0.2587313 -0.30511364 0.94376624 -0.035563987 -0.2038798 0.029046997 0.5404304 -0.080041766
担保 0.007277398 0.35743442 0.10598279 0.21846761 0.23870043 -0.20695756 0.54048574 0.09577568 -0.20534956 -0.13524471 -0.75432974 -0.6801151 -0.38797244 -0.08241676 0.08002042 -0.8531696 -0.21099243 -0.9176315 -0.5649896 -0.9588726 0.28412536 0.50101846 0.16652949 0.0331163 -0.24078956 -0.39515978 -0.47673708 -0.78967196 -0.66330135 -0.004163403 0.6000295 0.21793902 0.039004862 -0.61555326 -0.54076266 0.4291462 0.0063567874 -0.15877226 -0.16397803 -0.90049195 -0.1770991 -0.02700746 -0.109864146 0.118324354 0.23067844 -0.050299164 -0.19297993 0.19618969 -0.16620973 0.9059667 0.102914535 -0.20146453 0.009944105 -0.044427976 0.055069245 -0.12291947 -0.09737838 0.20868272 -0.9208267 0.6343801 0.34823984 0.26199603 -0.34137854 -0.031369638 -0.69500506 -0.26526242 0.022947654 0.1270491 -0.44730574 0.48564598 -0.14436732 0.31212747 0.3993915 -0.83688486 0.26965973 0.1576185 -0.30772653 -0.07997294 0.048759352 -0.2008268 0.27432773 0.29796195 -0.6152573 0.3926032 -0.16667107 0.16701168 0.14749394 1.101675 0.49768195 0.32683292 0.62299544 0.21572155 0.27200887 0.1645618 0.3655623 0.24502127 -0.36977208 -0.55069023 0.5622581 -0.55594194
资助 -0.3321447 0.33767807 0.22385123 -0.21885711 0.6473552 -0.9480278 -0.027393494 1.2183986 -0.77391773 -0.47338745 -0.25672963 -0.750687 -0.2019975 0.9529926 0.9117463 -0.54007024 0.29522517 -0.031212077 -0.53141636 -0.74015886 0.112129845 -0.10510021 0.7064406 -0.46457863 0.099331826 -0.18746494 -0.92787796 0.63546014 -0.062192135 0.27927577 1.1858594 -0.19634518 -0.27408335 -0.39819187 0.17056441 0.37456483 0.6401833 -0.05094685 -0.14297546 -0.148905 -0.33835372 -0.3112918 0.13943695 0.39431593 0.029303133 0.23906721 -0.31385136 0.67778033 0.2755855 0.35760805 0.7316143 -0.36212695 -0.49080715 0.17680447 -0.17724253 0.8236956 0.97856575 0.51337236 0.014815174 -0.18813401 -0.14964812 0.36685088 0.0901428 0.1825485 -1.3164041 0.85085005 0.5534307 0.28086406 -0.636145 0.79324585 -0.15943393 0.030655097 0.5914286 -0.37819198 0.41698933 0.25164223 -0.0018078241 0.1596201 -0.41194552 0.02935833 -0.34640023 -0.072838515 -0.99711305 0.7714473 0.19948323 0.19097298 -0.32048112 0.36858672 0.40874195 0.011396908 0.6165113 0.11503585 -0.050137393 -0.4158909 1.128983 0.6133792 0.35376224 -0.4792246 -0.094505966 -0.23873663
基金 0.010008832 0.60833806 -0.21630165 0.10990901 0.005546165 -0.18997121 0.61339116 0.15246426 0.009344094 0.20678163 -0.6094221 -0.46296293 -0.3169012 -0.217277 -0.27105397 -0.8954555 -0.20051037 -0.6600774 -0.272097 -0.92532265 0.43624747 0.37827647 0.292584 0.03880818 -0.16504842 -0.27190915 -0.35257253 -0.8754869 -0.24904934 0.06271847 0.3368302 0.3729814 0.2527257 -0.19116305 -0.37303874 0.40325886 -0.011899278 -0.29517433 -0.07746027 -1.0289876 -0.3338463 -0.19585174 -0.06404268 -0.037015367 0.082609415 -0.3653972 -0.07892175 0.118126504 -0.15101999 0.53886425 0.08251404 -0.06258753 -0.016455261 -0.0004170623 -0.09798393 -0.2172801 -0.1427253 -0.17452261 -0.82601136 0.5240079 0.52321184 -0.0034603374 -0.11883146 -0.15603831 -0.5979763 -0.27840522 0.0031098947 0.32729092 -0.65550536 0.10774233 -0.36366946 0.2910282 0.10453471 -0.5289305 0.15517704 0.33559835 -0.44392672 0.03889031 -0.20013694 0.2084871 0.46469223 0.014109172 -0.19631726 0.49260488 -0.11471443 0.06717623 0.31727552 0.9222205 0.19768308 0.29314515 0.3641807 0.35851303 0.23571031 -0.18506323 0.5911316 0.034809172 -0.16283031 -0.20231183 0.50722736 -0.26400277
享受 -0.09424677 0.40990222 -0.03334715 -0.01954709 0.25785512 -0.63511217 0.35471347 0.5983206 -0.31057563 -0.19288555 -0.4643298 -0.5556493 -0.32686803 0.1924675 -0.01623473 -0.70252126 0.012605109 -0.39263684 -0.3298849 -0.799031 0.24822053 0.22370161 0.38956812 -0.09355788 -0.016016299 -0.14345543 -0.42614922 -0.2652014 -0.08863141 0.121141426 0.5786571 0.18265773 0.0760563 -0.19393405 -0.3018607 0.31931365 0.1601095 -0.2338296 -0.023829978 -0.7831795 -0.23069778 -0.21215934 0.04616182 0.07340264 0.08599342 -0.07423573 -0.23055314 0.17673425 -0.07123149 0.48866227 0.4278707 -0.09012627 -0.10810031 -0.01377689 -0.24361299 0.08852958 0.25791126 -0.013679502 -0.5372583 0.24174519 0.2203503 0.12003844 -0.12914702 -0.07445439 -0.86601853 0.11471109 0.17542835 0.24972478 -0.6596763 0.3355658 -0.37483886 0.18826376 0.28986254 -0.36728686 0.28234848 0.281741 -0.18732238 0.009772841 -0.34722778 0.116260186 0.24672517 -0.015704267 -0.33419496 0.5607763 -0.03780709 0.11977771 0.13951711 0.5887035 0.12728247 0.13453753 0.41786996 0.29259878 0.14449443 -0.2031974 0.7594713 0.21324885 -0.036991183 -0.26203912 0.2895508 -0.15223794
当年 -0.26127666 0.46621668 0.009068882 -0.20038176 0.49924353 -0.810927 0.18966727 0.95678574 -0.5263573 -0.34696692 -0.29987046 -0.6416883 -0.23368008 0.5724232 0.4755119 -0.6550956 0.16006516 -0.1283018 -0.35714465 -0.8365116 0.14149658 0.021332638 0.5985281 -0.35819364 0.05403615 -0.18967946 -0.71572906 0.15325588 -0.0820737 0.1574428 0.8822895 -0.010390416 -0.06163687 -0.2930996 -0.039695013 0.32787925 0.39761996 -0.22954012 -0.09653448 -0.44417775 -0.29240188 -0.29156363 0.013711874 0.18015681 -0.025718106 -0.0010612028 -0.27717528 0.40632755 0.15015203 0.39188486 0.52853215 -0.25454435 -0.36662278 0.21564263 -0.19363628 0.47417614 0.65909845 0.24356878 -0.18478936 0.006830135 0.028724374 0.24540941 0.060099393 0.03369532 -1.1420649 0.524675 0.3867381 0.23316817 -0.74422514 0.55833733 -0.2868006 0.106978364 0.408991 -0.3856149 0.30632627 0.27630857 -0.1799006 0.12856227 -0.49609038 0.16865419 -0.057181537 -0.06535862 -0.6504312 0.79310644 0.07698471 0.16227087 -0.12775569 0.5075291 0.33600166 0.07428292 0.4634907 0.25578624 0.047094192 -0.40350276 1.0728185 0.43452716 0.24413574 -0.3600854 0.07916096 -0.17074981
月 -0.30936375 0.14313175 0.41744924 0.2311743 0.5206081 -0.9294869 -0.2727696 1.1424733 -1.0443535 -0.78760046 -0.7633828 -1.2347254 -0.34685048 0.6265526 0.4140705 -0.73057276 -0.034499988 -0.34000295 -0.5022639 -0.33185238 0.33580813 -0.030043615 0.29051283 -0.14217192 0.068221904 -0.09828177 -0.7668355 0.21313658 -0.24826565 0.30034974 0.7741797 0.1883736 -0.346302 -0.25404423 -0.37261504 0.33773047 0.36795497 -0.4231785 0.07064046 -0.7412763 -0.3264697 -0.05880729 0.18653257 0.05972817 -0.14024305 0.27640408 -0.12228543 0.2524496 0.05005967 0.9070511 0.8156047 -0.23081125 0.20724888 -0.17324851 -0.4409656 0.25949562 0.5362014 0.096307 -0.23988737 0.09083261 0.14374451 0.32433704 -0.06984248 -0.21923386 -1.1055247 0.53567094 0.30033353 0.08663328 -0.5100496 0.6977708 -0.08939869 0.13213508 0.19161324 -0.36848545 0.6168397 -0.025741426 0.09931092 -0.2995662 -0.2243585 -0.30809817 0.2066073 0.053510632 -0.75838846 0.59044296 -0.20773816 0.104402095 -0.044402093 0.43605578 0.21377888 0.06415201 0.57284886 0.12575115 0.1886695 -0.13413061 0.44742912 0.46888718 0.12044032 -0.57297516 0.3751286 -0.20002562
人民政府 -0.051417474 0.63987607 -0.0033538227 0.44669515 -0.18964359 -0.41975823 0.30317998 0.33132073 -0.23859139 0.10976593 -0.8302917 -0.81940836 -0.39169034 -0.25167927 -0.8532078 -1.1743137 -0.346769 -0.8364108 -0.07529641 -0.69545174 0.6544644 0.15322149 0.3486104 0.25398505 -0.21258019 -0.07817108 -0.22923408 -0.8744981 -0.15555617 0.00045024473 -0.029995646 0.63156337 0.27974233 0.26035792 -0.59192646 0.17144881 -0.09953401 -0.9195792 0.082436144 -1.428806 -0.5019203 -0.21801427 0.08691198 -0.3268339 -0.10654061 -0.3333722 -0.027197504 -0.18163131 -0.24216896 0.68569785 0.354562 0.2058847 0.29426897 -0.25148946 -0.3579573 -0.6409676 -0.37637356 -0.7646567 -1.1751056 0.55236924 0.75062734 -0.18114935 -0.19410346 -0.3971093 -0.7566596 -0.4447452 -0.12431406 0.4091166 -0.7221263 -0.027899373 -0.6609872 0.25004736 -0.1856759 -0.3291334 0.30103964 0.55407965 -0.5793259 -0.15533198 -0.2587615 0.29635608 0.889748 -0.046905555 0.24747762 0.5592693 -0.3547347 0.076157935 0.59583217 0.9369231 -0.021739643 0.35886756 0.24572217 0.47993448 0.23604658 -0.17426775 0.5692819 -0.059956603 -0.2672029 -0.12826511 0.61852765 -0.06651939
引进 -0.11935154 0.51873076 -0.19363338 -0.019655595 0.18962072 -0.5287502 0.39959508 0.47917667 -0.18633926 -0.05894318 -0.38237253 -0.41316032 -0.20962678 0.13803649 -0.12631892 -0.7091464 0.030371945 -0.32174462 -0.1933725 -0.9192033 0.26073635 0.16963317 0.40894285 -0.11066744 -0.054295853 -0.15318024 -0.43758017 -0.36149928 -0.09325879 0.1110295 0.4807609 0.24687263 0.15501255 -0.12279523 -0.28891912 0.32716036 0.054538168 -0.39691803 -0.09425113 -0.85369945 -0.2606341 -0.25092092 -0.046321653 -0.053211432 0.0684883 -0.23227248 -0.24793078 0.1270847 -0.05240009 0.38860825 0.30373076 -0.07040266 -0.19201362 0.10790291 -0.1521952 0.022095727 0.16656709 -0.05188758 -0.5506254 0.26778957 0.3236704 0.019839108 -0.0055190525 -0.09738239 -0.84788924 0.10222183 0.15191938 0.23993367 -0.7118078 0.21846469 -0.43883166 0.19783995 0.15500824 -0.39114162 0.19048946 0.3662582 -0.33444437 0.10435178 -0.4052878 0.207844 0.2873699 -0.04587628 -0.23126087 0.69641405 -0.06677024 0.11620675 0.19496512 0.6292465 0.16974854 0.13336727 0.3181382 0.32925108 0.15542075 -0.23197362 0.8349859 0.14761719 0.015674984 -0.19346263 0.3029717 -0.13412777
上市 -0.059162058 0.5328094 -0.159908 0.007582549 0.19251473 -0.479737 0.4287171 0.5007762 -0.29186872 0.017864777 -0.32537526 -0.4971411 -0.2560188 0.14956786 -0.023036236 -0.65280133 0.0144325895 -0.2972422 -0.22403277 -0.77567077 0.26222777 0.120556265 0.38321275 -0.107926466 -0.11032223 -0.09917837 -0.39561212 -0.28019327 -0.08451855 0.10878224 0.55592906 0.12693895 0.12472667 -0.12776552 -0.14360759 0.33312595 0.20347647 -0.31472087 -0.02987432 -0.7884664 -0.27820477 -0.27103102 0.006769122 0.06383674 -0.027847795 -0.10052998 -0.23434788 0.18335196 -0.024536261 0.36109173 0.35372183 -0.16165288 -0.14322527 0.1104856 -0.22194865 0.081349894 0.22528662 -0.04477873 -0.56159055 0.19044316 0.23103733 0.097860456 -0.04261791 -0.15804897 -0.74950004 0.12436976 0.19583727 0.2778771 -0.6660915 0.25696793 -0.435319 0.16249257 0.14572778 -0.30608854 0.1926548 0.28481188 -0.28354877 0.14433542 -0.32379243 0.23647545 0.18461375 -0.091793835 -0.2607349 0.60966974 -0.124797165 0.08543389 0.15904325 0.65589714 0.21023554 0.19483958 0.26144165 0.39082465 0.10714414 -0.3039729 0.77354527 0.11796883 0.039306007 -0.25107634 0.2943113 -0.09454611
中 -0.12387682 0.62555337 -0.15339582 -0.002579142 0.13750054 -0.5213049 0.5235901 0.49858856 -0.19688071 0.0629959 -0.5064482 -0.53791213 -0.31269595 0.023887768 -0.20979598 -0.9227128 -0.08218483 -0.4680093 -0.23447506 -0.93150425 0.39686987 0.22067547 0.44982088 -0.048222106 -0.11243649 -0.1913841 -0.38092777 -0.54765564 -0.102923505 0.08433523 0.4685619 0.30637047 0.19891681 -0.06654713 -0.34228334 0.33574748 0.08131251 -0.4370347 -0.019685378 -1.0220034 -0.3607014 -0.3077543 0.04500718 -0.04726603 0.022325179 -0.26969212 -0.1689904 0.13058963 -0.13011359 0.4802843 0.38169888 -0.05508686 -0.09416357 0.042070154 -0.2298473 -0.0849651 0.08745531 -0.19280976 -0.77715933 0.34461913 0.39237034 0.021059828 -0.08879961 -0.20494126 -0.88859993 -0.035353463 0.10849026 0.3610771 -0.790259 0.19016787 -0.51795334 0.23813988 0.16057125 -0.4280116 0.22498499 0.4717737 -0.40346324 0.11002244 -0.40916666 0.28715247 0.4309723 -0.09567219 -0.17466871 0.6840157 -0.12619841 0.16937472 0.25123227 0.78527117 0.15257627 0.21718061 0.3603297 0.41668075 0.15499032 -0.32119915 0.892739 0.10475318 -0.06787479 -0.19784714 0.41705647 -0.15720941
执行 -0.12570004 0.48037446 -0.010707262 0.12377761 0.13782263 -0.5764922 0.29772538 0.58739084 -0.4086875 -0.09048185 -0.6055316 -0.67825216 -0.3001553 0.054923277 -0.2377751 -0.8698437 -0.10182385 -0.5090452 -0.26877284 -0.71175957 0.4326762 0.15732488 0.38585383 0.0035221053 -0.077627696 -0.17212784 -0.41239586 -0.37802693 -0.088800676 0.07327418 0.39269328 0.3133268 0.12457944 -0.06305752 -0.33017394 0.2454613 0.104585126 -0.44591534 0.04631409 -0.9577292 -0.3176503 -0.24662986 0.11983347 -0.025517115 0.014691406 -0.12765053 -0.14729427 0.10435374 -0.14074303 0.559641 0.48226392 -0.023455268 0.04173718 -0.079727456 -0.30456862 -0.10565712 0.078302525 -0.23019773 -0.7027405 0.3190022 0.32484487 -0.014393651 -0.11976015 -0.21623528 -0.8702067 0.030579472 0.13736987 0.32428566 -0.71355885 0.23801354 -0.4354462 0.24353234 0.1659393 -0.3375934 0.2859662 0.3563356 -0.28067172 -0.043507904 -0.33309647 0.1591055 0.4241013 -0.035775024 -0.21064107 0.5747813 -0.11690428 0.13441835 0.28007665 0.7152602 0.09215176 0.197207 0.35434675 0.3534985 0.13427585 -0.26073924 0.69271684 0.16276862 -0.052864388 -0.22250031 0.44688478 -0.13443391
省 -0.117232874 0.46043327 -0.19968389 -0.013983859 0.18320724 -0.5473848 0.32685816 0.5471786 -0.14064084 0.095201634 -0.2941799 -0.37252226 -0.18905906 0.14068331 -0.11287556 -0.6877949 0.04742675 -0.24902555 -0.09407969 -0.86466056 0.24432287 0.08980036 0.46414688 -0.13240646 0.0030997759 -0.1774271 -0.4677513 -0.2807017 0.0011463971 -0.004292993 0.3177757 0.22492862 0.23002027 -0.07325951 -0.081080586 0.14565413 0.12341934 -0.44149852 -0.1006446 -0.65955424 -0.27120817 -0.33622912 -0.08172005 0.0071428833 -0.0012659793 -0.21280023 -0.18662935 0.16049096 0.020290768 0.21950243 0.3306551 -0.011655676 -0.22973044 0.11814466 -0.13404225 0.008415043 0.1730471 -0.15862603 -0.44079572 0.195193 0.24282359 -0.07870182 0.018288685 -0.08352988 -0.820714 0.13978697 0.08302567 0.28846252 -0.7146011 0.1205831 -0.45641813 0.14100344 0.2112475 -0.2907845 0.16045688 0.35502827 -0.32336363 0.16813502 -0.49644032 0.28891584 0.20073459 -0.070401944 -0.14778471 0.59626734 0.015737776 0.14321856 0.15887143 0.5568628 0.17683193 0.09683638 0.25486946 0.31361625 0.010524976 -0.29586953 0.9851249 0.17820023 0.051512256 -0.117215246 0.12363053 -0.115182154
县 -0.0861944 0.6185742 -0.06424956 0.17374767 -0.037341263 -0.54063463 0.46843722 0.39799392 -0.08407799 0.18669766 -0.6880025 -0.6303764 -0.4734943 -0.06419945 -0.52966744 -1.0726755 -0.17554475 -0.7496264 -0.18354674 -0.90110004 0.42432258 0.24883005 0.4751053 0.049959797 -0.13192745 -0.134614 -0.29461303 -0.8027938 -0.119292885 0.06687802 0.2980653 0.43685812 0.29578745 0.07398765 -0.48074993 0.28557345 0.025030572 -0.71187276 0.005544913 -1.1567061 -0.4454631 -0.32532305 0.008786787 -0.2083419 0.02343014 -0.30440396 -0.09715051 0.017479878 -0.18692252 0.4687683 0.36683038 0.1768629 0.04499452 -0.036131334 -0.32206658 -0.37638044 -0.14959484 -0.4848029 -0.9623715 0.52006614 0.5365091 -0.11124794 -0.22530714 -0.20333299 -0.80174583 -0.36585426 -0.12872307 0.37520352 -0.6610614 0.06872216 -0.6801562 0.19456616 -0.0022764036 -0.4449197 0.23423304 0.6037083 -0.5767427 0.0234793 -0.2847673 0.40128636 0.6666216 -0.07772305 0.07950492 0.6365299 -0.14599225 0.1868083 0.3742881 0.9034408 0.07061833 0.30060795 0.34473282 0.4087122 0.108445294 -0.28182122 0.8178614 0.028609619 -0.28459278 -0.16438329 0.4785395 -0.18244985
人员 -0.18482487 0.45708194 -0.009746817 -0.014671181 0.30674762 -0.69352686 0.3845114 0.6138273 -0.28139475 -0.25392997 -0.5507242 -0.5609431 -0.382476 0.29003394 0.03262665 -0.85007876 0.004705094 -0.5128178 -0.3722841 -0.9164968 0.27929285 0.21545145 0.39725986 -0.14040719 0.0014024982 -0.18983474 -0.47903514 -0.35889456 -0.24825524 0.17777584 0.6812308 0.24577783 0.0046730815 -0.21827137 -0.40845197 0.4212667 0.16501927 -0.4078167 -0.090392046 -0.9184168 -0.33046904 -0.2451032 0.04026143 -0.035620384 0.13318303 -0.13899055 -0.27714822 0.2804203 -0.019923467 0.6218794 0.48377237 -0.04919099 -0.14108215 0.06672618 -0.25310254 0.07840609 0.28950185 0.0326405 -0.6227972 0.29433087 0.32083252 0.17852029 -0.12902473 -0.09531022 -1.0276395 0.11618575 0.14852309 0.23209777 -0.6833643 0.4224272 -0.42779267 0.20910676 0.25068656 -0.5356038 0.34241423 0.3624215 -0.26519233 0.022364374 -0.32242966 0.098761946 0.33373117 0.022820015 -0.43466324 0.72283304 -0.056280967 0.17555186 0.10387128 0.73341364 0.22606468 0.18168841 0.5347873 0.3559173 0.15875666 -0.21150029 0.8143326 0.29210225 -0.08838569 -0.4026607 0.39983878 -0.25879458
加快 -0.013825025 0.69416285 -0.31826603 0.14244567 -0.076424725 -0.3108995 0.60980356 0.21203923 0.026544338 0.21520388 -0.53478736 -0.36946964 -0.23901525 -0.3091371 -0.6122037 -0.9416421 -0.20688513 -0.5073396 -0.053236675 -0.8805929 0.50577694 0.30016264 0.36549777 0.111147456 -0.13875067 -0.1678412 -0.1748759 -0.9350218 -0.066515796 0.045659374 0.10588899 0.4795272 0.382805 0.109573394 -0.49486572 0.28746763 -0.16714883 -0.56605345 0.0019169624 -1.259315 -0.32394573 -0.24934632 -0.012333463 -0.25003287 -0.02095123 -0.44053406 -0.14461997 -0.13814013 -0.20327826 0.401205 0.16241527 0.066663064 0.012187091 -0.02254629 -0.18640067 -0.44103682 -0.25196064 -0.4688541 -0.95181835 0.50911945 0.60333866 -0.13543311 -0.13130046 -0.30117902 -0.66623336 -0.3166684 -0.057078153 0.34705478 -0.7857672 -0.11739136 -0.6074021 0.27619982 -0.08356937 -0.336108 0.1223957 0.47412586 -0.5450882 0.114935316 -0.43712777 0.3546244 0.6933831 -0.126484 0.1946799 0.6481943 -0.26097706 0.13850488 0.49759695 0.8134049 0.054117724 0.23068956 0.2291249 0.47830585 0.22983687 -0.21729769 0.76080155 -0.08113204 -0.18332131 -0.027274495 0.5122685 -0.07487929
年度 -0.21569127 0.39258718 0.041681256 -0.1102511 0.3803309 -0.6830667 0.2140762 0.7600494 -0.40024832 -0.25522485 -0.3737206 -0.5636159 -0.27067178 0.4211267 0.2949673 -0.64617544 0.07511629 -0.24731606 -0.35683987 -0.74051654 0.19121689 0.09951001 0.48361304 -0.23312974 0.029742084 -0.14864755 -0.59133506 -0.013752228 -0.09713346 0.1721535 0.7284171 0.07572078 -0.040033046 -0.22920948 -0.1478443 0.34639928 0.29189745 -0.24678728 -0.08079865 -0.54149246 -0.28994942 -0.23294756 0.048830286 0.10714638 0.012753658 -0.04780715 -0.2222373 0.32756585 0.08865678 0.41934755 0.4733363 -0.18401763 -0.26007816 0.13583112 -0.19217286 0.31093165 0.49043715 0.1599484 -0.31860408 0.08883821 0.10022803 0.19616775 -0.008328537 -0.02089621 -0.98161596 0.3352883 0.26886767 0.22095282 -0.60964704 0.4559987 -0.29793167 0.12220731 0.29727077 -0.37151366 0.28833035 0.30282226 -0.15850452 0.068793386 -0.38118184 0.12955002 0.07644497 -0.049842976 -0.50440735 0.6637903 -0.008705273 0.15220393 -0.052050892 0.53687453 0.22580716 0.12518637 0.4381604 0.24760818 0.06422316 -0.30286735 0.8650125 0.3229127 0.11105716 -0.31540558 0.14842612 -0.18404858
土地 -0.23756693 0.59862214 -0.057549838 -0.10338835 0.31386697 -0.6557939 0.37339625 0.7226754 -0.30758274 -0.13461043 -0.46278107 -0.6215227 -0.30596972 0.25228485 0.08649251 -0.85308427 -0.020491967 -0.34791553 -0.2991976 -0.8681417 0.29807082 0.13288517 0.4882868 -0.13990523 -0.022361875 -0.17560185 -0.5292603 -0.27097592 -0.089510605 0.11180991 0.62589574 0.19299215 0.02563374 -0.11831318 -0.22585216 0.37629518 0.18865876 -0.3636148 0.012686337 -0.82476604 -0.3861959 -0.28001928 0.078196466 -0.0056130285 0.022588445 -0.19219345 -0.16370128 0.24733824 -0.06529289 0.51882994 0.42783245 -0.09782476 -0.18873543 0.12595409 -0.23096325 0.14311367 0.3257018 0.02779613 -0.5517334 0.2820912 0.30216733 0.10314495 -0.03840405 -0.15657234 -1.0222586 0.1594645 0.20353755 0.2689286 -0.70323396 0.38158277 -0.36189222 0.20500527 0.23308212 -0.3966185 0.29220998 0.39696562 -0.26219544 0.041369792 -0.39356545 0.2041122 0.29725415 -0.08971483 -0.367455 0.6583676 -0.068722874 0.18657629 0.089896284 0.68258417 0.21785147 0.11634964 0.37831062 0.30106735 0.1429898 -0.3274448 0.88403136 0.1894158 0.0965554 -0.2835431 0.312766 -0.14404984
含 -0.38960347 0.41915485 0.19255322 -0.24848075 0.70315444 -0.9719902 0.036144506 1.2333937 -0.7796532 -0.5536085 -0.34293076 -0.8031449 -0.25458217 0.9079335 0.92353153 -0.61817133 0.22825101 -0.053751264 -0.56050754 -0.77102953 0.11941401 -0.04595311 0.6472724 -0.45999217 0.10109152 -0.20878637 -0.94331545 0.48574212 -0.09177867 0.28228375 1.2264949 -0.15947282 -0.30438277 -0.4130188 0.057913866 0.43341628 0.6303453 -0.069732346 -0.09004468 -0.29025537 -0.3461355 -0.2471559 0.09973445 0.311542 -0.0030507178 0.17253323 -0.32726365 0.66842455 0.2652518 0.49763262 0.6876549 -0.3695624 -0.4380254 0.2272754 -0.217006 0.8078879 0.98028505 0.53216535 -0.0034163783 -0.13021533 -0.11081004 0.43645552 0.0921716 0.10708982 -1.3675135 0.7756612 0.5618036 0.23294657 -0.7108356 0.83223915 -0.11633855 0.060588937 0.5339674 -0.4368735 0.44063246 0.20756456 0.0022093232 0.114647195 -0.44351047 0.02979829 -0.2545073 -0.06624403 -1.0135859 0.84364337 0.10432894 0.18834338 -0.31868467 0.45897263 0.41561764 0.010908377 0.6024234 0.18983865 0.05337914 -0.42704406 1.1230328 0.61151725 0.37526366 -0.54227453 0.017361414 -0.23637183
平台 -0.106644735 0.54140866 -0.16716376 -0.044839837 0.19877912 -0.47668147 0.45406088 0.45516023 -0.12475764 -0.0073534553 -0.37329227 -0.382899 -0.20175442 0.123170316 -0.06091662 -0.708965 -0.017036946 -0.31620696 -0.2206507 -0.87298024 0.24498858 0.19067103 0.43082628 -0.09957523 -0.043407958 -0.17662503 -0.38063273 -0.4186252 -0.089519374 0.13725014 0.47968534 0.23505719 0.15013252 -0.09082077 -0.28020534 0.30793735 0.072188646 -0.34883794 -0.09083902 -0.7990537 -0.27047765 -0.24809541 -0.011549783 -0.043393206 0.021343015 -0.25628877 -0.20135234 0.15696102 -0.042189218 0.38081735 0.26822016 -0.0676748 -0.19770062 0.12296607 -0.114350095 0.013503197 0.16407904 -0.04313945 -0.56827474 0.261258 0.34650847 -0.0039878855 -0.035371326 -0.08014019 -0.81571096 0.046972886 0.12221814 0.21620224 -0.6715435 0.19773826 -0.39535135 0.17645597 0.15305683 -0.41873133 0.16799322 0.4003146 -0.34845862 0.13524097 -0.40481967 0.2519595 0.30393037 -0.046095215 -0.20112632 0.63695866 -0.08833631 0.16771755 0.15342286 0.6698164 0.18769701 0.10775926 0.34752205 0.31606963 0.11909424 -0.23471041 0.85670537 0.13892846 -0.016412957 -0.1936251 0.27503878 -0.15064304
申请 -0.18141088 0.33402616 0.1504998 -0.037121084 0.3802773 -0.66291213 0.1748471 0.6795497 -0.43451208 -0.31663036 -0.4408219 -0.6423678 -0.301941 0.4423706 0.3009712 -0.62429225 0.033769555 -0.34353024 -0.43746918 -0.68197167 0.14785285 0.11972501 0.3982877 -0.18217771 -0.014525325 -0.16156018 -0.5587834 -0.044377673 -0.20463262 0.16914484 0.7367616 0.056425214 -0.09833253 -0.30847448 -0.18935858 0.34813184 0.28260046 -0.19818221 -0.06469868 -0.5434123 -0.25796053 -0.16874708 0.030390482 0.10829294 0.07211516 0.043852918 -0.19235991 0.33625075 0.042876575 0.49593148 0.48257893 -0.17862594 -0.15175109 0.060546685 -0.19443528 0.2838033 0.36699635 0.17572173 -0.36316946 0.14667659 0.12574053 0.21352574 -0.09270086 0.015642572 -0.8785151 0.23796274 0.23724268 0.16482106 -0.51510805 0.5192927 -0.21474564 0.1429617 0.35058194 -0.43754518 0.31899622 0.25118718 -0.13949862 -0.008674761 -0.21990177 0.0015295576 0.08314394 0.012085781 -0.5733716 0.54201794 -0.024147218 0.14484608 -0.034804013 0.5712715 0.26528293 0.14625415 0.49409717 0.20921522 0.07300417 -0.19376399 0.70540833 0.3296261 0.022503775 -0.39025077 0.21852377 -0.2571882
组织 -0.13651392 0.567693 -0.10043698 0.028664831 0.112877615 -0.5284235 0.4005985 0.48900384 -0.16664818 0.09632138 -0.48418373 -0.53000575 -0.291479 0.1273379 -0.19901735 -0.851909 -0.06271371 -0.44822633 -0.19406725 -0.8494429 0.3291445 0.14134227 0.49273077 -0.08218702 -0.09673199 -0.16610175 -0.3948635 -0.45461646 -0.06964709 0.07622268 0.4428474 0.2933165 0.18516666 -0.025692439 -0.26870272 0.27069467 0.10552514 -0.49315572 -0.046771858 -0.8688586 -0.3542638 -0.323839 0.037780885 -0.08127342 -0.009571117 -0.23121838 -0.15178037 0.16043304 -0.07672707 0.38813388 0.37285227 -0.006805335 -0.10587399 0.058494695 -0.19945139 -0.07194729 0.10893862 -0.19975847 -0.6955159 0.3177853 0.39781255 -0.016989702 -0.08865341 -0.13870549 -0.8354246 -0.057645548 0.080734745 0.32458678 -0.6956401 0.17036816 -0.49695304 0.17158484 0.12442853 -0.39202118 0.23228009 0.4816746 -0.40014732 0.10728488 -0.34798753 0.30751768 0.35760075 -0.086692505 -0.15660994 0.6438231 -0.08128406 0.14838299 0.22760189 0.72280955 0.15237811 0.18710743 0.33516678 0.3551825 0.08128402 -0.3062816 0.85109144 0.11333043 -0.05904194 -0.19338623 0.3209521 -0.15126814
办公室 -0.031977538 0.68908304 0.023087855 0.4106132 -0.09857953 -0.49384025 0.32703942 0.4493756 -0.28197005 0.13185126 -0.91266936 -0.9076094 -0.4672516 -0.18156156 -0.7992163 -1.2785358 -0.34466553 -0.85894585 -0.07954731 -0.7806043 0.67690855 0.14256176 0.4488979 0.19956355 -0.19389285 -0.11844983 -0.26545864 -0.9221021 -0.17257646 0.037968192 0.100598626 0.6181367 0.28711918 0.24798326 -0.5856537 0.1687665 -0.05330559 -0.9839756 0.061154753 -1.4342952 -0.5446514 -0.245443 0.052309163 -0.34358144 -0.12967692 -0.2837667 -0.0032355727 -0.116164126 -0.24501543 0.7172677 0.43452054 0.1738628 0.31820896 -0.21182369 -0.36987376 -0.6017943 -0.33633995 -0.7575219 -1.1706036 0.57072014 0.7371965 -0.16703172 -0.23395689 -0.42152897 -0.8606348 -0.46078748 -0.17258891 0.40588254 -0.782074 0.011192733 -0.7076128 0.23212092 -0.16122639 -0.43097633 0.2895048 0.5766932 -0.58185506 -0.09864328 -0.26795354 0.3201125 0.8982929 -0.08205445 0.14080124 0.64258844 -0.3525965 0.11315038 0.5635964 0.96629983 0.013800917 0.36413166 0.2906983 0.45153168 0.20859854 -0.17981915 0.6700526 -0.052454777 -0.31045058 -0.20383865 0.6264458 -0.12184641
计划 -0.10307866 0.53094196 -0.23662159 0.02177154 0.04858858 -0.4566667 0.4740015 0.41344976 -0.05023415 0.24282092 -0.40411362 -0.3905243 -0.23776197 0.012687474 -0.32600102 -0.8238945 -0.041591935 -0.35378847 -0.10029692 -0.9512952 0.33108306 0.1497877 0.39241874 0.0134793455 -0.112352856 -0.15942824 -0.3997351 -0.53417885 -0.012231538 0.0005203348 0.25573117 0.34972686 0.2789262 -0.01470634 -0.2138583 0.21854892 0.057237912 -0.48820746 -0.07944546 -0.8994949 -0.33825502 -0.32717192 -0.061492343 -0.07749204 0.023949204 -0.28767732 -0.1345361 0.09571647 -0.08009365 0.32805032 0.27648285 0.028979016 -0.122298084 0.056503743 -0.18571116 -0.13655856 0.006368832 -0.26502112 -0.6828644 0.35702372 0.4088841 -0.12696871 -0.04971032 -0.16693756 -0.7853919 -0.07091657 0.025764517 0.31878746 -0.7364957 0.06676238 -0.5428427 0.19134456 0.12463752 -0.3335652 0.16098872 0.44811153 -0.4161806 0.1616219 -0.4265804 0.31682867 0.38875788 -0.054305173 -0.02992003 0.5614744 -0.07761465 0.16315821 0.28427917 0.6701346 0.10756025 0.17603803 0.26245296 0.32428887 0.059093934 -0.26895416 0.8554054 0.06379679 -0.031457115 -0.10271255 0.2725519 -0.13590465
办法 -0.060165633 0.56084764 -0.1169158 0.13701497 0.04104703 -0.4099818 0.47352278 0.39313945 -0.18084204 0.10807048 -0.6068566 -0.54341227 -0.2719241 -0.08755334 -0.43022683 -0.9347903 -0.16832067 -0.5490917 -0.17966272 -0.8104078 0.4878609 0.18913895 0.36944336 0.063022844 -0.11441607 -0.22056745 -0.2937986 -0.6812441 -0.09361376 0.037052304 0.2435459 0.4146123 0.23337598 -0.016499441 -0.36193508 0.27368268 0.014828272 -0.49467722 -0.00047220316 -1.0832093 -0.33235118 -0.2596474 0.05154693 -0.10369522 0.023551974 -0.26730704 -0.12844057 0.04222012 -0.14399691 0.474335 0.34309232 0.045856647 0.013978593 -0.052228987 -0.24626613 -0.2737585 -0.11495732 -0.35978273 -0.85435253 0.43606183 0.45054722 -0.07561342 -0.1360733 -0.23262665 -0.7785429 -0.18742296 0.014963284 0.3578157 -0.7129044 0.10215221 -0.5275712 0.25273693 0.06044795 -0.40469876 0.21555823 0.42470646 -0.38964587 -0.0149329025 -0.34012365 0.28603092 0.55102676 -0.055810723 -0.04570409 0.5483679 -0.15686156 0.12165708 0.37023056 0.8205399 0.10221475 0.2499052 0.28565452 0.40188676 0.14106427 -0.213812 0.69765157 0.0464096 -0.14607796 -0.13072939 0.49623173 -0.14334366
符合 -0.15682653 0.6698039 -0.17209467 0.0007557837 0.1787786 -0.56422526 0.524221 0.5338624 -0.1924252 0.029098066 -0.54230416 -0.5876995 -0.30231857 0.06907411 -0.20478503 -0.9546208 -0.06934233 -0.48074752 -0.26956052 -0.9813912 0.40720093 0.24767464 0.4783171 -0.071839124 -0.0787623 -0.20973149 -0.44364086 -0.58044434 -0.120366424 0.083677635 0.49789262 0.3258723 0.19137672 -0.08311789 -0.3613559 0.3501456 0.067023166 -0.45543554 -0.020807907 -1.0677651 -0.37547058 -0.288731 0.033872817 -0.07325786 0.007195607 -0.30548427 -0.19051155 0.15395321 -0.1187421 0.49375412 0.39408445 -0.0590921 -0.11582299 0.08319878 -0.21812333 -0.0617355 0.09409195 -0.16437161 -0.77489877 0.3808515 0.40378314 0.0085138185 -0.082004525 -0.19752671 -0.9516826 -0.04843325 0.096572444 0.3444886 -0.8092647 0.19770741 -0.51066303 0.2540986 0.14759623 -0.45205584 0.22454494 0.48134562 -0.41063017 0.10661877 -0.44547322 0.270346 0.44598776 -0.086763926 -0.19754523 0.7148467 -0.13651052 0.16803095 0.27890915 0.82641464 0.16453111 0.18801956 0.38173977 0.42159942 0.1431147 -0.32587838 0.9440046 0.14073229 -0.040215038 -0.1918004 0.43732277 -0.1447741
市级 -0.17443056 0.45648587 -0.065194145 -0.08869945 0.30591676 -0.67492443 0.2538659 0.6960679 -0.32594618 -0.08952101 -0.3283035 -0.50740445 -0.18492228 0.38017398 0.14999777 -0.66180426 0.1107435 -0.19715232 -0.23172766 -0.8345059 0.19625103 0.03499537 0.5283488 -0.21390143 0.014604454 -0.16003072 -0.5578306 -0.05226716 -0.069916286 0.087116964 0.58782375 0.12965627 0.07633387 -0.18041205 -0.08441342 0.23909542 0.2680184 -0.35874543 -0.12763491 -0.542503 -0.29663473 -0.31881076 -0.040242754 0.06489485 0.007098656 -0.13199465 -0.2282864 0.2499527 0.09969084 0.30070657 0.42361712 -0.1286015 -0.2755636 0.1482125 -0.1597932 0.20336087 0.3632349 0.01564779 -0.34676552 0.120490804 0.17303883 0.039929576 0.023366684 -0.00022190304 -0.95325917 0.32596654 0.23584999 0.25497243 -0.7149817 0.3465096 -0.38450304 0.1235637 0.28645092 -0.36250117 0.20873852 0.37026596 -0.27380344 0.15214273 -0.44510338 0.24185674 0.063838564 -0.08400949 -0.35145727 0.6859615 0.028863007 0.16842042 0.04569586 0.52960813 0.24831943 0.091423556 0.3735845 0.28317684 0.03474371 -0.34921488 0.99412 0.26970962 0.11531472 -0.22863196 0.11353789 -0.1557501
产品 -0.18051769 0.47392297 -0.06663741 -0.14087102 0.3887004 -0.67207193 0.25200716 0.74267477 -0.37109214 -0.18025665 -0.26697654 -0.46703437 -0.13894103 0.4231215 0.28713584 -0.60659426 0.123738244 -0.13192767 -0.25713032 -0.8219688 0.17256984 0.04638656 0.53384215 -0.2823028 0.025187943 -0.17211719 -0.58846253 0.046037063 -0.068089776 0.10247329 0.68418026 0.070561625 0.03180537 -0.22382894 -0.054627504 0.27884793 0.27544475 -0.2896836 -0.12815966 -0.48691967 -0.26313943 -0.2590294 -0.030134128 0.10992109 -0.015783409 -0.103306025 -0.27040946 0.30564743 0.121024236 0.28765708 0.40346247 -0.20857729 -0.33003536 0.18577027 -0.11254959 0.3184423 0.45464456 0.1641722 -0.2457184 0.037888948 0.12480468 0.12088156 0.07262805 0.0037044338 -0.954617 0.42189094 0.30722904 0.21114244 -0.72622406 0.37567613 -0.3298752 0.1237791 0.31886637 -0.37471175 0.2256276 0.29315788 -0.23803401 0.15429896 -0.49120456 0.20975767 -0.0036598837 -0.064900935 -0.46585003 0.73355985 0.062597625 0.15635578 -0.00075422064 0.49076262 0.2879533 0.055439066 0.38625506 0.28487876 0.038365975 -0.35346517 1.0132883 0.3175294 0.18829724 -0.2740579 0.10166754 -0.16015467
4 -0.1622505 0.3310251 0.07287695 0.0055715083 0.27909046 -0.57873774 0.13451207 0.6470069 -0.4131393 -0.23751189 -0.40806198 -0.5996986 -0.21556383 0.31606022 0.13990723 -0.597283 0.017450899 -0.26243985 -0.27044573 -0.56720155 0.23475513 0.06150561 0.36088145 -0.14350305 -0.0017167617 -0.12593475 -0.49802333 -0.062198084 -0.10401598 0.14028716 0.5517557 0.1378458 -0.034875825 -0.14488801 -0.18213384 0.25776526 0.21908781 -0.2907308 -0.017637994 -0.59354585 -0.24919611 -0.17678726 0.0536559 0.04952303 -0.006567657 -0.008564818 -0.15904929 0.22251652 0.026281556 0.43931493 0.42582893 -0.13039362 -0.09522089 0.023521526 -0.19679403 0.15920886 0.3216716 0.032036267 -0.34221533 0.12926604 0.15810294 0.12150119 -0.01851354 -0.07817477 -0.8066932 0.24367459 0.21011786 0.17405942 -0.52568364 0.36808985 -0.2442806 0.12518662 0.18810046 -0.30196208 0.28203294 0.1984473 -0.12425388 -0.016270446 -0.30392566 0.049070325 0.14760548 -0.024959913 -0.39991838 0.56184053 -0.04930237 0.10993141 0.04083929 0.4726822 0.17855933 0.1075115 0.37122607 0.2065583 0.10264683 -0.21793558 0.6512028 0.24346532 0.0637215 -0.2862493 0.22076726 -0.1462234
